{"learner":{"attributes":{"scikit_learn":"{\"_estimator_type\": \"classifier\"}"},"feature_names":["age","sex","cp","trestbps","chol","fbs","restecg","thalach","exang","oldpeak","slope","ca","thal"],"feature_types":["int","int","int","int","int","int","int","int","int","float","int","int","int"],"gradient_booster":{"model":{"gbtree_model_param":{"num_parallel_tree":"1","num_trees":"100"},"iteration_indptr":[0,1,2,3,4,5,6,7,8,9,10,11,12,13,14,15,16,17,18,19,20,21,22,23,24,25,26,27,28,29,30,31,32,33,34,35,36,37,38,39,40,41,42,43,44,45,46,47,48,49,50,51,52,53,54,55,56,57,58,59,60,61,62,63,64,65,66,67,68,69,70,71,72,73,74,75,76,77,78,79,80,81,82,83,84,85,86,87,88,89,90,91,92,93,94,95,96,97,98,99,100],"tree_info":[0,0,0,0,0,0,0,0,0,0,0,0,0,0,0,0,0,0,0,0,0,0,0,0,0,0,0,0,0,0,0,0,0,0,0,0,0,0,0,0,0,0,0,0,0,0,0,0,0,0,0,0,0,0,0,0,0,0,0,0,0,0,0,0,0,0,0,0,0,0,0,0,0,0,0,0,0,0,0,0,0,0,0,0,0,0,0,0,0,0,0,0,0,0,0,0,0,0,0,0],"trees":[{"base_weights":[2.1197624E-5,-1.0688008E0,1.0086282E0,-2.887159E-2,-1.8863502E0,1.3780161E0,-1.1622535E-1,9.784516E-1,-1.3207835E0,-6.3720214E-1,-5.8527386E-1,1.5108588E0,-3.6164027E-1,-6.3586605E-1,8.437089E-1,1.5239205E0,-8.435798E-3,-5.4988787E-2,-5.7453376E-1,-3.7163484E-1,4.2470243E-2,1.6361557E0,5.0766885E-1,3.8758093E-1,-4.1511616E-1,-5.0688595E-1,-1.6803038E-1,-2.977694E-1,1.3754188E0,1.684215E0,-7.727536E-2,-1.099832E0,9.4796586E-1,8.0648035E-1,-4.2884922E-1,1.8280871E0,1.1765398E0,-1.1081522E0,4.458253E-1,7.7564806E-1,-5.340318E-1,3.2294804E-1,-3.9417258E-1,5.613244E-2,4.8034033E-1,5.4071647E-1,5.613244E-2,-1.1417687E-2,-4.5428124E-1,4.5222828E-1,-1.3149007E-1,-6.669047E-2,4.152852E-1,3.2368857E-1,5.670129E-1,4.8091495E-1,1.9150707E-1,-4.1295528E-1,-7.727536E-2,3.8758093E-1,-7.727536E-2,-4.2884922E-1,-3.492545E-2],"categories":[],"categories_nodes":[],"categories_segments":[],"categories_sizes":[],"default_left":[0,0,0,0,0,0,0,0,0,0,0,0,0,0,0,0,0,0,0,0,0,0,0,0,0,0,0,0,0,0,0,0,0,0,0,0,0,0,0,0,0,0,0,0,0,0,0,0,0,0,0,0,0,0,0,0,0,0,0,0,0,0,0],"id":0,"left_children":[1,3,5,7,9,11,13,15,17,19,-1,21,23,25,27,29,31,33,-1,-1,-1,35,37,-1,-1,-1,39,41,43,45,-1,47,49,51,-1,53,55,57,-1,59,61,-1,-1,-1,-1,-1,-1,-1,-1,-1,-1,-1,-1,-1,-1,-1,-1,-1,-1,-1,-1,-1,-1],"loss_changes":[2.229284E2,8.5304985E1,4.436766E1,6.012159E1,3.2888794E0,1.9073776E1,1.41162E1,1.399556E1,1.5114189E1,2.1649356E0,0E0,8.555893E0,1.2763912E1,8.7045E0,6.4734216E0,5.212532E0,1.1731989E1,1.0025855E1,0E0,0E0,0E0,3.6655884E0,1.7047117E1,0E0,0E0,0E0,5.158877E0,6.995974E0,1.5763407E0,2.4024086E0,0E0,2.250699E0,5.310186E0,3.425968E0,0E0,3.564453E-2,4.0790577E0,6.1480236E-1,0E0,2.5981863E0,3.7565775E0,0E0,0E0,0E0,0E0,0E0,0E0,0E0,0E0,0E0,0E0,0E0,0E0,0E0,0E0,0E0,0E0,0E0,0E0,0E0,0E0,0E0,0E0],"parents":[2147483647,0,0,1,1,2,2,3,3,4,4,5,5,6,6,7,7,8,8,9,9,11,11,12,12,13,13,14,14,15,15,16,16,17,17,21,21,22,22,26,26,27,27,28,28,29,29,31,31,32,32,33,33,35,35,36,36,37,37,39,39,40,40],"right_children":[2,4,6,8,10,12,14,16,18,20,-1,22,24,26,28,30,32,34,-1,-1,-1,36,38,-1,-1,-1,40,42,44,46,-1,48,50,52,-1,54,56,58,-1,60,62,-1,-1,-1,-1,-1,-1,-1,-1,-1,-1,-1,-1,-1,-1,-1,-1,-1,-1,-1,-1,-1,-1],"split_conditions":[1E0,1E0,3E0,3E0,1.1E2,2.1E0,2E0,1E0,6E-1,1.01E2,-5.8527386E-1,2E0,1E0,1.4E2,1E0,6.7E1,1.45E2,2.35E2,-5.7453376E-1,-3.7163484E-1,4.2470243E-2,5.6E1,1.53E2,3.8758093E-1,-4.1511616E-1,-5.0688595E-1,1.48E2,1.66E2,1.42E2,3.03E2,-7.727536E-2,1.22E2,7E-1,4.4E1,-4.2884922E-1,1.1E2,1E0,5.9E1,4.458253E-1,6E1,1.51E2,3.2294804E-1,-3.9417258E-1,5.613244E-2,4.8034033E-1,5.4071647E-1,5.613244E-2,-1.1417687E-2,-4.5428124E-1,4.5222828E-1,-1.3149007E-1,-6.669047E-2,4.152852E-1,3.2368857E-1,5.670129E-1,4.8091495E-1,1.9150707E-1,-4.1295528E-1,-7.727536E-2,3.8758093E-1,-7.727536E-2,-4.2884922E-1,-3.492545E-2],"split_indices":[2,11,12,12,3,9,10,8,9,3,0,11,10,7,6,0,7,4,0,0,0,0,7,0,0,0,7,7,7,4,0,3,9,0,0,3,1,0,0,0,7,0,0,0,0,0,0,0,0,0,0,0,0,0,0,0,0,0,0,0,0,0,0],"split_type":[0,0,0,0,0,0,0,0,0,0,0,0,0,0,0,0,0,0,0,0,0,0,0,0,0,0,0,0,0,0,0,0,0,0,0,0,0,0,0,0,0,0,0,0,0,0,0,0,0,0,0,0,0,0,0,0,0,0,0,0,0,0,0],"sum_hessian":[2.0479404E2,9.940003E1,1.05394005E2,4.4205544E1,5.5194492E1,7.917038E1,2.6223627E1,2.4974882E1,1.923066E1,3.2467346E0,5.1947754E1,7.36759E1,5.4944744E0,1.723267E1,8.990957E0,1.5734176E1,9.240706E0,6.493469E0,1.273719E1,1.498493E0,1.7482418E0,6.493469E1,8.741209E0,1.9979906E0,3.4964836E0,4.4954786E0,1.273719E1,2.996986E0,5.993972E0,1.4485432E1,1.2487441E0,4.24573E0,4.9949765E0,4.24573E0,2.2477393E0,4.3706043E1,2.1228651E1,3.2467346E0,5.4944744E0,3.2467346E0,9.490456E0,1.2487441E0,1.7482418E0,1.2487441E0,4.745228E0,1.3236688E1,1.2487441E0,1.498493E0,2.7472372E0,3.4964836E0,1.498493E0,1.7482418E0,2.4974883E0,4.745228E0,3.8960815E1,1.07392E1,1.048945E1,1.9979906E0,1.2487441E0,1.9979906E0,1.2487441E0,2.2477393E0,7.242716E0],"tree_param":{"num_deleted":"0","num_feature":"13","num_nodes":"63","size_leaf_vector":"1"}},{"base_weights":[3.5288928E-3,-8.113467E-1,7.7168816E-1,-2.476174E-2,-1.4328479E0,9.6180457E-1,-6.939133E-1,7.508775E-1,-1.0122721E0,-5.2883655E-1,-4.4420347E-1,1.2531593E0,4.147763E-1,3.4567657E-1,-1.2636228E0,-3.2768148E-1,9.159263E-1,-4.877171E-2,-4.4289204E-1,6.85321E-2,-3.4470543E-1,1.4334553E-1,1.3637811E0,1.0498054E0,-1.4094284E-1,-5.522409E-1,-4.5455143E-1,1.3521279E0,1.1198083E-1,6.5165836E-1,-3.4819216E-1,2.82011E-1,-3.1943825E-1,1.4057599E0,-7.101917E-2,-2.7851295E-1,1.348915E0,9.068823E-1,-1.5652336E0,5.1939663E-2,-3.304298E-1,4.350279E-1,4.6858657E-2,3.580795E-1,-1.3158238E-1,-5.3920165E-2,3.4135973E-1,2.6494232E-1,-3.1789836E-1,2.8100604E-1,4.4241527E-1,2.7844474E-1,-3.7656385E-1,4.4136798E-1,1.9697075E-1,-7.050968E-2,4.2652065E-1,-5.290973E-1,-6.7703806E-2],"categories":[],"categories_nodes":[],"categories_segments":[],"categories_sizes":[],"default_left":[0,0,0,0,0,0,0,0,0,0,0,0,0,0,0,0,0,0,0,0,0,0,0,0,0,0,0,0,0,0,0,0,0,0,0,0,0,0,0,0,0,0,0,0,0,0,0,0,0,0,0,0,0,0,0,0,0,0,0],"id":1,"left_children":[1,3,5,7,9,11,13,15,17,19,-1,21,23,-1,25,-1,27,29,-1,-1,-1,31,33,35,37,39,-1,41,43,45,-1,-1,47,49,-1,51,53,55,57,-1,-1,-1,-1,-1,-1,-1,-1,-1,-1,-1,-1,-1,-1,-1,-1,-1,-1,-1,-1],"loss_changes":[1.22020996E2,4.620794E1,2.8626183E1,3.351938E1,1.5010529E0,1.3703117E1,1.4185263E1,8.462251E0,8.530535E0,2.2397218E0,0E0,6.8922653E0,1.1619677E1,0E0,9.0361404E-1,0E0,7.9340973E0,6.4325995E0,0E0,0E0,0E0,2.6416397E0,3.852188E0,6.4503593E0,2.8607866E1,1.8296307E0,0E0,1.5140743E0,6.0023932E0,2.2709613E0,0E0,0E0,5.176057E0,2.743683E-1,0E0,5.453689E0,1.0530281E-1,6.8772154E0,1.7519264E0,0E0,0E0,0E0,0E0,0E0,0E0,0E0,0E0,0E0,0E0,0E0,0E0,0E0,0E0,0E0,0E0,0E0,0E0,0E0,0E0],"parents":[2147483647,0,0,1,1,2,2,3,3,4,4,5,5,6,6,7,7,8,8,9,9,11,11,12,12,14,14,16,16,17,17,21,21,22,22,23,23,24,24,25,25,27,27,28,28,29,29,32,32,33,33,35,35,36,36,37,37,38,38],"right_children":[2,4,6,8,10,12,14,16,18,20,-1,22,24,-1,26,-1,28,30,-1,-1,-1,32,34,36,38,40,-1,42,44,46,-1,-1,48,50,-1,52,54,56,58,-1,-1,-1,-1,-1,-1,-1,-1,-1,-1,-1,-1,-1,-1,-1,-1,-1,-1,-1,-1],"split_conditions":[1E0,1E0,2E0,3E0,1.1E2,5.7E1,1E0,1.18E2,6E-1,2.35E2,-4.4420347E-1,1.43E2,2.46E2,3.4567657E-1,2.5E0,-3.2768148E-1,1E0,2.35E2,-4.4289204E-1,6.85321E-2,-3.4470543E-1,3E-1,1.64E2,5.8E1,1E0,5.2E1,-4.5455143E-1,3.03E2,1E0,4.4E1,-3.4819216E-1,2.82011E-1,1.26E2,1.12E2,-7.101917E-2,1.69E2,1.52E2,6.3E1,6.7E1,5.1939663E-2,-3.304298E-1,4.350279E-1,4.6858657E-2,3.580795E-1,-1.3158238E-1,-5.3920165E-2,3.4135973E-1,2.6494232E-1,-3.1789836E-1,2.8100604E-1,4.4241527E-1,2.7844474E-1,-3.7656385E-1,4.4136798E-1,1.9697075E-1,-7.050968E-2,4.2652065E-1,-5.290973E-1,-6.7703806E-2],"split_indices":[2,11,9,12,3,0,10,7,9,4,0,7,4,0,9,0,8,4,0,0,0,9,3,0,1,0,0,4,6,0,0,0,7,3,0,4,3,0,0,0,0,0,0,0,0,0,0,0,0,0,0,0,0,0,0,0,0,0,0],"split_type":[0,0,0,0,0,0,0,0,0,0,0,0,0,0,0,0,0,0,0,0,0,0,0,0,0,0,0,0,0,0,0,0,0,0,0,0,0,0,0,0,0,0,0,0,0,0,0,0,0,0,0,0,0,0,0,0,0,0,0],"sum_hessian":[1.929357E2,9.359374E1,9.934196E1,4.176938E1,5.1824368E1,8.823938E1,1.110258E1,2.3528534E1,1.8240843E1,3.2100358E0,4.861433E1,5.6732193E1,3.1507185E1,2.3770652E0,8.725515E0,1.4720323E0,2.2056501E1,6.288595E0,1.1952248E1,1.7296681E0,1.4803677E0,5.350375E0,5.138182E1,1.4289386E1,1.72178E1,3.11412E0,5.611395E0,1.3856454E1,8.200048E0,4.112072E0,2.1765232E0,1.5870218E0,3.7633533E0,5.0187176E1,1.1946448E0,2.6389432E0,1.1650442E1,1.0129202E1,7.0885973E0,1.6368787E0,1.4772413E0,1.2610909E1,1.2455446E0,2.3721542E0,5.827894E0,1.7499955E0,2.3620765E0,1.3603044E0,2.403049E0,8.301443E0,4.188573E1,1.2027352E0,1.436208E0,8.945176E0,2.7052658E0,3.3166225E0,6.8125796E0,5.8983006E0,1.1902969E0],"tree_param":{"num_deleted":"0","num_feature":"13","num_nodes":"59","size_leaf_vector":"1"}},{"base_weights":[3.8187574E-3,-6.738711E-1,6.3030064E-1,-2.0727957E-2,-1.2080499E0,9.089863E-1,-1.4121705E-1,6.1394846E-1,-8.472062E-1,-3.939822E-1,-7.74402E-1,5.2769244E-1,1.2201209E0,-5.2479494E-1,6.0121626E-1,-2.799053E-1,7.6140004E-1,-4.3982223E-2,-3.7858096E-1,2.0728534E-1,-1.0850503E0,7.645983E-1,-9.1966695E-1,4.0687478E-1,6.24901E-1,-1.1952932E0,-2.2246961E-1,-2.571959E-1,1.005118E0,1.1532124E0,1.0975027E-1,-3.30207E-1,5.056787E-1,-1.5745671E-2,-3.6594445E-1,3.822285E-1,3.3093983E-1,-3.3802608E-1,-4.3176845E-2,3.473728E-1,-4.019914E-1,-4.4818455E-1,-2.6301933E-2,5.8159304E-1,-6.9077647E-1,2.2153305E-1,-2.854059E-1,4.1669346E-2,3.5362884E-1,3.7514934E-1,3.914607E-2,-1.9639382E-1,2.0625485E-1,3.5643005E-1,-2.5464755E-1,2.3462814E-1,-1.3771227E-1,-3.2514578E-1,2.0862001E-1,3.3722365E-1,-9.6580416E-2,7.564187E-2,-3.02845E-1],"categories":[],"categories_nodes":[],"categories_segments":[],"categories_sizes":[],"default_left":[0,0,0,0,0,0,0,0,0,0,0,0,0,0,0,0,0,0,0,0,0,0,0,0,0,0,0,0,0,0,0,0,0,0,0,0,0,0,0,0,0,0,0,0,0,0,0,0,0,0,0,0,0,0,0,0,0,0,0,0,0,0,0],"id":2,"left_children":[1,3,5,7,9,11,13,15,17,-1,19,21,23,25,27,-1,29,31,-1,-1,33,35,37,-1,39,41,43,45,47,49,51,-1,53,-1,-1,-1,55,-1,-1,-1,57,-1,-1,59,61,-1,-1,-1,-1,-1,-1,-1,-1,-1,-1,-1,-1,-1,-1,-1,-1,-1,-1],"loss_changes":[7.341631E1,2.8957481E1,1.9447803E1,2.0657772E1,1.067337E0,7.20306E0,7.3522606E0,5.795906E0,5.639455E0,0E0,5.9193726E0,1.1498357E1,2.0419464E0,3.1448545E0,3.3384933E0,0E0,5.211074E0,4.5396156E0,0E0,0E0,1.2940073E0,5.6766796E0,6.2216187E-1,0E0,5.1135693E0,1.5231156E0,5.2312193E0,3.2173E0,7.755661E-1,1.1253376E0,4.4049726E0,0E0,5.811556E0,0E0,0E0,0E0,6.1544657E0,0E0,0E0,0E0,3.480249E0,0E0,0E0,2.9417863E0,2.8275728E0,0E0,0E0,0E0,0E0,0E0,0E0,0E0,0E0,0E0,0E0,0E0,0E0,0E0,0E0,0E0,0E0,0E0,0E0],"parents":[2147483647,0,0,1,1,2,2,3,3,4,4,5,5,6,6,7,7,8,8,10,10,11,11,12,12,13,13,14,14,16,16,17,17,20,20,21,21,22,22,24,24,25,25,26,26,27,27,28,28,29,29,30,30,32,32,36,36,40,40,43,43,44,44],"right_children":[2,4,6,8,10,12,14,16,18,-1,20,22,24,26,28,-1,30,32,-1,-1,34,36,38,-1,40,42,44,46,48,50,52,-1,54,-1,-1,-1,56,-1,-1,-1,58,-1,-1,60,62,-1,-1,-1,-1,-1,-1,-1,-1,-1,-1,-1,-1,-1,-1,-1,-1,-1,-1],"split_conditions":[1E0,1E0,3E0,3E0,6.4E1,1.61E2,2E0,1.18E2,6E-1,-3.939822E-1,6.5E1,2E0,1E0,5.1E1,1E0,-2.799053E-1,1E0,4.2E1,-3.7858096E-1,2.0728534E-1,1.08E2,1E0,6.2E1,4.0687478E-1,5.5E1,2.34E2,5.9E1,1.66E2,1.42E2,3.03E2,1.45E2,-3.30207E-1,2.35E2,-1.5745671E-2,-3.6594445E-1,3.822285E-1,2.36E2,-3.3802608E-1,-4.3176845E-2,3.473728E-1,6.6E1,-4.4818455E-1,-2.6301933E-2,1E0,2.32E2,2.2153305E-1,-2.854059E-1,4.1669346E-2,3.5362884E-1,3.7514934E-1,3.914607E-2,-1.9639382E-1,2.0625485E-1,3.5643005E-1,-2.5464755E-1,2.3462814E-1,-1.3771227E-1,-3.2514578E-1,2.0862001E-1,3.3722365E-1,-9.6580416E-2,7.564187E-2,-3.02845E-1],"split_indices":[2,11,12,12,0,7,10,7,9,0,0,11,11,0,6,0,8,0,0,0,3,1,0,0,0,4,0,7,7,4,7,0,4,0,0,0,4,0,0,0,0,0,0,11,4,0,0,0,0,0,0,0,0,0,0,0,0,0,0,0,0,0,0],"split_type":[0,0,0,0,0,0,0,0,0,0,0,0,0,0,0,0,0,0,0,0,0,0,0,0,0,0,0,0,0,0,0,0,0,0,0,0,0,0,0,0,0,0,0,0,0,0,0,0,0,0,0,0,0,0,0,0,0,0,0,0,0,0,0],"sum_hessian":[1.7092271E2,8.2069405E1,8.885331E1,3.739057E1,4.4678833E1,6.514399E1,2.3709322E1,2.1294819E1,1.6095753E1,3.4322178E1,1.0356652E1,3.048312E1,3.466087E1,1.5825977E1,7.8833437E0,1.3894975E0,1.9905321E1,5.857451E0,1.0238301E1,1.5973939E0,8.759258E0,2.6600794E1,3.8823268E0,2.716874E1,7.4921293E0,4.0003414E0,1.1825636E1,2.638648E0,5.2446957E0,1.1950348E1,7.9549727E0,1.661252E0,4.196199E0,1.1716375E0,7.5876207E0,1.1339835E1,1.5260959E1,2.7071629E0,1.175164E0,4.848125E0,2.644004E0,2.8760586E0,1.124283E0,4.2634945E0,7.562142E0,1.057731E0,1.5809171E0,1.1763612E0,4.0683346E0,1.07089615E1,1.2413864E0,3.3671277E0,4.587845E0,2.87206E0,1.3241391E0,9.719936E0,5.541022E0,1.6384037E0,1.0056005E0,2.5114806E0,1.752014E0,1.9630859E0,5.599056E0],"tree_param":{"num_deleted":"0","num_feature":"13","num_nodes":"63","size_leaf_vector":"1"}},{"base_weights":[1.6197524E-3,-5.867326E-1,5.277254E-1,-2.917617E-2,-1.0592388E0,6.844003E-1,-5.653181E-1,5.0738204E-1,-7.526564E-1,-2.652547E-1,-1.119622E0,1.0798539E0,3.894852E-1,2.762915E-1,-1.0116993E0,-2.4505438E-1,6.41892E-1,-6.629772E-2,-3.3890364E-1,1.14211686E-1,-2.645878E-1,-3.631999E-1,-7.194729E-1,1.156116E0,-7.7473685E-2,6.534761E-1,-2.380211E-1,-3.7503657E-1,-8.544689E-2,1.0206405E0,8.23587E-2,-2.8316694E-1,4.190317E-1,1.5875325E-1,-3.2708624E-1,1.8073319E-2,3.676867E-1,-2.7094337E-1,7.5038654E-1,4.529277E-1,-6.5434897E-1,3.3747786E-1,3.2718845E-2,-9.887659E-2,2.9547837E-1,3.084229E-1,-2.2550602E-1,3.0792215E-1,1.02135204E-1,2.996903E-1,-1.02293625E-1,-2.84818E-1,8.735532E-2],"categories":[],"categories_nodes":[],"categories_segments":[],"categories_sizes":[],"default_left":[0,0,0,0,0,0,0,0,0,0,0,0,0,0,0,0,0,0,0,0,0,0,0,0,0,0,0,0,0,0,0,0,0,0,0,0,0,0,0,0,0,0,0,0,0,0,0,0,0,0,0,0,0],"id":3,"left_children":[1,3,5,7,9,11,13,15,17,19,21,23,25,-1,27,-1,29,31,-1,-1,-1,-1,33,35,-1,37,39,-1,-1,41,43,-1,45,-1,-1,-1,-1,-1,47,49,51,-1,-1,-1,-1,-1,-1,-1,-1,-1,-1,-1,-1],"loss_changes":[4.650948E1,1.8656305E1,1.3971069E1,1.3412005E1,1.5424385E0,7.723381E0,7.8927813E0,4.063663E0,3.7280655E0,1.9380224E0,4.166031E-1,3.28508E0,7.040864E0,0E0,1.124877E0,0E0,3.8572736E0,3.0672705E0,0E0,0E0,0E0,0E0,4.751507E0,2.04908E0,0E0,5.131338E0,4.0477552E0,0E0,0E0,9.2330074E-1,3.520365E0,0E0,4.146576E0,0E0,0E0,0E0,0E0,0E0,2.857129E0,2.7224154E0,2.6607609E0,0E0,0E0,0E0,0E0,0E0,0E0,0E0,0E0,0E0,0E0,0E0,0E0],"parents":[2147483647,0,0,1,1,2,2,3,3,4,4,5,5,6,6,7,7,8,8,9,9,10,10,11,11,12,12,14,14,16,16,17,17,22,22,23,23,25,25,26,26,29,29,30,30,32,32,38,38,39,39,40,40],"right_children":[2,4,6,8,10,12,14,16,18,20,22,24,26,-1,28,-1,30,32,-1,-1,-1,-1,34,36,-1,38,40,-1,-1,42,44,-1,46,-1,-1,-1,-1,-1,48,50,52,-1,-1,-1,-1,-1,-1,-1,-1,-1,-1,-1,-1],"split_conditions":[1E0,1E0,2E0,3E0,1.1E2,2.28E2,1E0,1.18E2,6E-1,1.48E2,6.4E1,6.5E1,3E0,2.762915E-1,1.66E2,-2.4505438E-1,1E0,4.2E1,-3.3890364E-1,1.14211686E-1,-2.645878E-1,-3.631999E-1,6.5E1,1.57E2,-7.7473685E-2,2E0,1.22E2,-3.7503657E-1,-8.544689E-2,3.03E2,2E0,-2.8316694E-1,2.35E2,1.5875325E-1,-3.2708624E-1,1.8073319E-2,3.676867E-1,-2.7094337E-1,5.7E1,9E-1,2.89E2,3.3747786E-1,3.2718845E-2,-9.887659E-2,2.9547837E-1,3.084229E-1,-2.2550602E-1,3.0792215E-1,1.02135204E-1,2.996903E-1,-1.02293625E-1,-2.84818E-1,8.735532E-2],"split_indices":[2,11,9,12,3,4,10,7,9,7,0,0,12,0,7,0,8,0,0,0,0,0,0,4,0,12,3,0,0,4,10,0,4,0,0,0,0,0,0,9,4,0,0,0,0,0,0,0,0,0,0,0,0],"split_type":[0,0,0,0,0,0,0,0,0,0,0,0,0,0,0,0,0,0,0,0,0,0,0,0,0,0,0,0,0,0,0,0,0,0,0,0,0,0,0,0,0,0,0,0,0,0,0,0,0,0,0,0,0],"sum_hessian":[1.482554E2,6.993298E1,7.832241E1,3.2566414E1,3.736657E1,6.883026E1,9.492149E0,1.8870262E1,1.3696153E1,3.0220628E0,3.4344505E1,2.8266266E1,4.0564E1,1.9468017E0,7.545348E0,1.2722634E0,1.7598E1,5.272875E0,8.423278E0,1.6629264E0,1.3591363E0,2.6328543E1,8.015964E0,2.6870823E1,1.3954442E0,2.8523024E1,1.2040975E1,5.139641E0,2.4057074E0,1.0002922E1,7.5950775E0,1.5411899E0,3.7316847E0,1.7376564E0,6.278307E0,1.7139844E0,2.5156837E1,1.1840993E0,2.7338924E1,4.4942636E0,7.546711E0,8.766033E0,1.2368889E0,5.650795E0,1.9442825E0,2.5348287E0,1.1968563E0,1.5439368E1,1.1899555E1,2.5097747E0,1.9844886E0,5.748779E0,1.7979319E0],"tree_param":{"num_deleted":"0","num_feature":"13","num_nodes":"53","size_leaf_vector":"1"}},{"base_weights":[-3.4068837E-3,-5.212492E-1,4.421074E-1,-2.9260812E-2,-9.5856154E-1,5.7579106E-1,-4.69915E-1,4.327483E-1,-6.863423E-1,-3.4548587E-1,-6.061572E-1,9.5690405E-1,3.1451875E-1,2.4577871E-1,-8.5789627E-1,3.6515433E-1,1.4871415E-1,-8.370848E-2,-3.1065577E-1,-9.385976E-1,4.92968E-1,1.038315E0,-6.3120835E-2,7.8886306E-1,3.959943E-4,-3.2787484E-1,-2.2744717E-1,-6.0535824E-1,6.19389E-1,3.7962222E-1,-2.3650049E-1,-3.246533E-1,1.902088E-2,4.2981762E-1,-2.0469843E-1,3.4812045E-1,1.5226616E-1,3.368947E-1,3.0236378E-1,-3.689965E-1,7.2923154E-1,-8.969141E-2,-1.9793056E-2,7.354446E-2,-3.3029893E-1,2.1826185E-2,2.564966E-1,2.0375304E-1,-6.513942E-2,-2.120987E-1,2.3415373E-1,-1.4813463E-1,2.9994982E-1,-1.528266E-1,2.4472253E-1,3.078727E-1,-4.0273376E-2],"categories":[],"categories_nodes":[],"categories_segments":[],"categories_sizes":[],"default_left":[0,0,0,0,0,0,0,0,0,0,0,0,0,0,0,0,0,0,0,0,0,0,0,0,0,0,0,0,0,0,0,0,0,0,0,0,0,0,0,0,0,0,0,0,0,0,0,0,0,0,0,0,0,0,0,0,0],"id":4,"left_children":[1,3,5,7,9,11,13,15,17,-1,19,21,23,-1,25,-1,27,29,-1,31,33,35,-1,37,39,-1,41,43,45,47,-1,-1,-1,-1,-1,-1,49,-1,51,53,55,-1,-1,-1,-1,-1,-1,-1,-1,-1,-1,-1,-1,-1,-1,-1,-1],"loss_changes":[2.9876144E1,1.2856365E1,8.758186E0,9.165215E0,1.4567738E0,5.7894554E0,5.429622E0,3.777243E0,2.5324464E0,0E0,5.3302307E0,2.5360355E0,5.62858E0,0E0,9.001012E-1,0E0,5.4084773E0,2.1451993E0,0E0,1.5896053E0,5.118494E0,2.30764E0,0E0,2.106781E0,6.6571236E0,0E0,1.9172251E-2,2.7805915E0,1.1259971E0,8.779012E-1,0E0,0E0,0E0,0E0,0E0,0E0,2.6745524E0,0E0,4.6561713E0,3.14575E0,2.270702E0,0E0,0E0,0E0,0E0,0E0,0E0,0E0,0E0,0E0,0E0,0E0,0E0,0E0,0E0,0E0,0E0],"parents":[2147483647,0,0,1,1,2,2,3,3,4,4,5,5,6,6,7,7,8,8,10,10,11,11,12,12,14,14,16,16,17,17,19,19,20,20,21,21,23,23,24,24,26,26,27,27,28,28,29,29,36,36,38,38,39,39,40,40],"right_children":[2,4,6,8,10,12,14,16,18,-1,20,22,24,-1,26,-1,28,30,-1,32,34,36,-1,38,40,-1,42,44,46,48,-1,-1,-1,-1,-1,-1,50,-1,52,54,56,-1,-1,-1,-1,-1,-1,-1,-1,-1,-1,-1,-1,-1,-1,-1,-1],"split_conditions":[1E0,1E0,2E0,3E0,1E0,2.28E2,1E0,1.17E2,6E-1,-3.4548587E-1,6.4E1,6.5E1,1E0,2.4577871E-1,1.66E2,3.6515433E-1,1.45E2,2.35E2,-3.1065577E-1,1E0,1E0,2E0,-6.3120835E-2,1E0,1.69E2,-3.2787484E-1,1.26E2,1E0,1.32E2,1.36E2,-2.3650049E-1,-3.246533E-1,1.902088E-2,4.2981762E-1,-2.0469843E-1,3.4812045E-1,4E0,3.368947E-1,6.3E1,6.9E1,5.4E1,-8.969141E-2,-1.9793056E-2,7.354446E-2,-3.3029893E-1,2.1826185E-2,2.564966E-1,2.0375304E-1,-6.513942E-2,-2.120987E-1,2.3415373E-1,-1.4813463E-1,2.9994982E-1,-1.528266E-1,2.4472253E-1,3.078727E-1,-4.0273376E-2],"split_indices":[2,11,9,12,6,4,10,3,9,0,0,0,1,0,7,0,7,4,0,5,5,11,0,11,7,0,3,8,3,3,0,0,0,0,0,0,11,0,0,0,0,0,0,0,0,0,0,0,0,0,0,0,0,0,0,0,0],"split_type":[0,0,0,0,0,0,0,0,0,0,0,0,0,0,0,0,0,0,0,0,0,0,0,0,0,0,0,0,0,0,0,0,0,0,0,0,0,0,0,0,0,0,0,0,0,0,0,0,0,0,0,0,0,0,0,0,0],"sum_hessian":[1.2749982E2,5.8885002E1,6.8614815E1,2.82123E1,3.06727E1,6.0164593E1,8.450222E0,1.6765501E1,1.1446799E1,1.8351364E1,1.2321337E1,2.3387383E1,3.677721E1,1.697661E0,6.752561E0,3.5834775E0,1.3182023E1,4.6541224E0,6.7926774E0,9.57219E0,2.749146E0,2.1965927E1,1.421456E0,1.4049817E1,2.2727392E1,4.3845353E0,2.3680258E0,4.955931E0,8.226091E0,3.0860908E0,1.5680314E0,8.302483E0,1.2697079E0,1.4059366E0,1.3432093E0,1.9033686E1,2.9322402E0,7.5537453E0,6.496072E0,1.5410616E1,7.3167763E0,1.0509467E0,1.317079E0,2.0108082E0,2.945123E0,2.8717952E0,5.354296E0,1.962732E0,1.1233588E0,1.1854857E0,1.7467546E0,3.1698234E0,3.3262482E0,1.4287187E1,1.1234293E0,5.30389E0,2.012886E0],"tree_param":{"num_deleted":"0","num_feature":"13","num_nodes":"57","size_leaf_vector":"1"}},{"base_weights":[2.3438614E-3,3.5186192E-1,-5.2115756E-1,6.502123E-1,-2.1423732E-1,3.6133554E-2,-8.378652E-1,3.179951E-1,1.0395436E0,-7.9127353E-1,2.0240678E-1,7.5352633E-1,-2.7896821E-1,-3.2652253E-1,-3.1991345E-1,6.5788597E-1,-8.08772E-2,3.3679923E-1,-5.907764E-2,2.5182536E-2,-3.103946E-1,7.394719E-1,-2.0648782E-1,1.3896093E-2,2.8238645E-1,-5.4558605E-1,2.26603E-1,-7.186079E-1,2.1128468E-1,9.211166E-1,-5.338102E-1,6.237751E-1,-6.7069733E-1,1.9630687E-1,-1.9141199E-1,-7.512986E-2,2.9303613E-1,-3.2471E-1,5.2804923E-1,4.903596E-1,-8.9474416E-1,-1.953241E-1,-3.0818662E-1,3.0275136E-1,-2.571576E-1,3.109729E-1,6.0927838E-2,-5.0884552E-2,-1.9425538E-1,2.767228E-1,1.686051E-2,-3.8015687E-1,-9.848524E-2,2.7955535E-1,-8.558569E-2,2.0044807E-1,1.920676E-2,-5.4678157E-2,-2.9430673E-1,-2.2101657E-1,1.252111E-1],"categories":[],"categories_nodes":[],"categories_segments":[],"categories_sizes":[],"default_left":[0,0,0,0,0,0,0,0,0,0,0,0,0,0,0,0,0,0,0,0,0,0,0,0,0,0,0,0,0,0,0,0,0,0,0,0,0,0,0,0,0,0,0,0,0,0,0,0,0,0,0,0,0,0,0,0,0,0,0,0,0],"id":5,"left_children":[1,3,5,7,9,11,13,15,17,19,21,23,25,-1,27,29,31,-1,-1,33,-1,35,37,-1,-1,39,-1,41,43,45,47,49,51,-1,-1,-1,-1,-1,53,55,57,59,-1,-1,-1,-1,-1,-1,-1,-1,-1,-1,-1,-1,-1,-1,-1,-1,-1,-1,-1],"loss_changes":[2.0471481E1,1.1469795E1,7.9364395E0,5.3837833E0,5.90753E0,4.0961933E0,3.3637009E0,3.4803927E0,2.2663994E0,2.0582504E0,3.3761294E0,6.8891835E-1,3.907205E0,0E0,2.4267607E0,4.8075304E0,5.6223297E0,0E0,0E0,1.8048716E0,0E0,1.7864211E0,6.4360547E0,0E0,0E0,4.293579E0,0E0,8.272023E-1,5.450183E0,7.5413036E-1,1.9470751E-2,1.0029829E0,1.0745447E0,0E0,0E0,0E0,0E0,0E0,2.114818E0,2.0983398E-1,3.3293915E-1,1.5002354E0,0E0,0E0,0E0,0E0,0E0,0E0,0E0,0E0,0E0,0E0,0E0,0E0,0E0,0E0,0E0,0E0,0E0,0E0,0E0],"parents":[2147483647,0,0,1,1,2,2,3,3,4,4,5,5,6,6,7,7,8,8,9,9,10,10,11,11,12,12,14,14,15,15,16,16,19,19,21,21,22,22,25,25,27,27,28,28,29,29,30,30,31,31,32,32,38,38,39,39,40,40,41,41],"right_children":[2,4,6,8,10,12,14,16,18,20,22,24,26,-1,28,30,32,-1,-1,34,-1,36,38,-1,-1,40,-1,42,44,46,48,50,52,-1,-1,-1,-1,-1,54,56,58,60,-1,-1,-1,-1,-1,-1,-1,-1,-1,-1,-1,-1,-1,-1,-1,-1,-1,-1,-1],"split_conditions":[3E0,1E0,7E-1,1.61E2,1E0,1.22E2,2E0,2.37E2,6.1E1,1E0,5.5E1,1.02E2,6.2E1,-3.2652253E-1,1.51E2,2.8E0,1E0,3.3679923E-1,-5.907764E-2,1.43E2,-3.103946E-1,1.27E2,6.2E1,1.3896093E-2,2.8238645E-1,2.22E2,2.26603E-1,6.3E1,2E0,1.54E2,4.6E1,1E0,1.22E2,1.9630687E-1,-1.9141199E-1,-7.512986E-2,2.9303613E-1,-3.2471E-1,1E0,1.34E2,2.27E2,1.33E2,-3.0818662E-1,3.0275136E-1,-2.571576E-1,3.109729E-1,6.0927838E-2,-5.0884552E-2,-1.9425538E-1,2.767228E-1,1.686051E-2,-3.8015687E-1,-9.848524E-2,2.7955535E-1,-8.558569E-2,2.0044807E-1,1.920676E-2,-5.4678157E-2,-2.9430673E-1,-2.2101657E-1,1.252111E-1],"split_indices":[12,11,9,7,2,3,2,4,0,1,0,3,0,0,7,9,6,0,0,7,0,7,0,0,0,4,0,0,9,7,0,1,3,0,0,0,0,0,1,3,4,7,0,0,0,0,0,0,0,0,0,0,0,0,0,0,0,0,0,0,0],"split_type":[0,0,0,0,0,0,0,0,0,0,0,0,0,0,0,0,0,0,0,0,0,0,0,0,0,0,0,0,0,0,0,0,0,0,0,0,0,0,0,0,0,0,0,0,0,0,0,0,0,0,0,0,0,0,0,0,0,0,0,0,0],"sum_hessian":[1.098802E2,6.608567E1,4.379453E1,4.3180004E1,2.290567E1,1.6190683E1,2.7603846E1,2.4279247E1,1.8900757E1,9.227196E0,1.3678474E1,4.5165257E0,1.1674157E1,1.7862192E1,9.741655E0,1.2758223E1,1.1521024E1,1.7796448E1,1.1043086E0,2.324768E0,6.9024277E0,5.563109E0,8.115365E0,1.2091085E0,3.3074174E0,9.657281E0,2.0168757E0,5.3633494E0,4.3783054E0,1.0635934E1,2.1222887E0,5.2232685E0,6.2977557E0,1.1998681E0,1.1249001E0,1.0650837E0,4.498025E0,3.4855633E0,4.6298018E0,2.3324728E0,7.3248086E0,2.5957448E0,2.7676048E0,2.5383177E0,1.8399876E0,8.780379E0,1.8555546E0,1.0978041E0,1.0244846E0,3.012849E0,2.2104192E0,1.3118029E0,4.985953E0,2.996428E0,1.6333739E0,1.2457368E0,1.0867358E0,1.1273824E0,6.1974263E0,1.2705839E0,1.325161E0],"tree_param":{"num_deleted":"0","num_feature":"13","num_nodes":"61","size_leaf_vector":"1"}},{"base_weights":[-1.785978E-4,-4.2137188E-1,3.4502393E-1,6.2100764E-2,-7.4260855E-1,8.0360186E-1,1.3988473E-1,3.312755E-1,-4.0292037E-1,-1.52164865E-2,-8.8470525E-1,3.091079E-1,3.4488577E-1,4.4755688E-1,-2.6517078E-1,-2.4018829E-1,5.3546125E-1,2.914309E-1,-2.658541E-1,2.2524102E-1,-2.392782E-1,-4.0881994E-1,-3.3508348E-1,-1.4000522E-1,2.5405267E-1,-2.7905682E-1,7.3487175E-1,2.145486E-1,-9.052626E-1,7.71031E-1,2.9378878E-2,-1.8332136E-1,3.0581087E-1,-6.424164E-1,1.510414E-1,1.9491115E-1,-2.0523371E-1,-8.413991E-1,5.325713E-1,3.1518182E-1,1.467594E-1,5.709236E-1,-6.3851607E-1,-1.0066956E0,-4.2975616E-2,2.7876306E-1,8.056328E-2,-1.00104876E-1,1.8363634E-1,-2.8387177E-1,9.599883E-2,-3.3925235E-1,1.4360121E-2,2.7657272E-2,2.0672636E-1,-1.19778946E-1,1.813386E-1,3.1604984E-1,2.653892E-2,-2.2389245E-1,-5.600829E-2,-4.9061593E-2,-3.4033394E-1],"categories":[],"categories_nodes":[],"categories_segments":[],"categories_sizes":[],"default_left":[0,0,0,0,0,0,0,0,0,0,0,0,0,0,0,0,0,0,0,0,0,0,0,0,0,0,0,0,0,0,0,0,0,0,0,0,0,0,0,0,0,0,0,0,0,0,0,0,0,0,0,0,0,0,0,0,0,0,0,0,0,0,0],"id":6,"left_children":[1,3,5,7,9,11,13,15,17,19,21,-1,23,25,27,-1,29,31,-1,-1,-1,33,-1,35,-1,37,39,41,43,45,47,-1,-1,49,-1,-1,-1,51,53,-1,55,57,59,61,-1,-1,-1,-1,-1,-1,-1,-1,-1,-1,-1,-1,-1,-1,-1,-1,-1,-1,-1],"loss_changes":[1.3936509E1,6.7513604E0,4.843129E0,2.4062905E0,2.6755524E0,1.3162823E0,4.805455E0,3.2135234E0,2.643437E0,3.7567432E0,1.9468174E0,0E0,1.7783675E0,4.7446866E0,5.3720493E0,0E0,1.2657485E0,3.033673E0,0E0,0E0,0E0,2.179504E0,0E0,2.3036366E0,0E0,3.59123E0,2.7905006E0,3.5405576E0,4.2893982E-1,3.3346224E-1,1.1504573E0,0E0,0E0,2.4587932E0,0E0,0E0,0E0,1.2009714E0,1.7295659E-1,0E0,1.9162867E0,1.7453315E0,3.358257E-2,5.0150394E-1,0E0,0E0,0E0,0E0,0E0,0E0,0E0,0E0,0E0,0E0,0E0,0E0,0E0,0E0,0E0,0E0,0E0,0E0,0E0],"parents":[2147483647,0,0,1,1,2,2,3,3,4,4,5,5,6,6,7,7,8,8,9,9,10,10,12,12,13,13,14,14,16,16,17,17,21,21,23,23,25,25,26,26,27,27,28,28,29,29,30,30,33,33,37,37,38,38,40,40,41,41,42,42,43,43],"right_children":[2,4,6,8,10,12,14,16,18,20,22,-1,24,26,28,-1,30,32,-1,-1,-1,34,-1,36,-1,38,40,42,44,46,48,-1,-1,50,-1,-1,-1,52,54,-1,56,58,60,62,-1,-1,-1,-1,-1,-1,-1,-1,-1,-1,-1,-1,-1,-1,-1,-1,-1,-1,-1],"split_conditions":[1E0,7E-1,1E0,1E0,1.17E2,1E0,5.7E1,4.2E1,1.48E2,1E0,1E0,3.091079E-1,6.3E1,1.53E2,2.46E2,-2.4018829E-1,5.9E1,1E0,-2.658541E-1,2.2524102E-1,-2.392782E-1,2.95E2,-3.3508348E-1,5.5E1,2.5405267E-1,5E1,3E0,1.9E0,1.9E0,3E0,1E0,-1.8332136E-1,3.0581087E-1,2E0,1.510414E-1,1.9491115E-1,-2.0523371E-1,1.22E2,1.43E2,3.1518182E-1,5.1E1,1.47E2,2.25E2,1.22E2,-4.2975616E-2,2.7876306E-1,8.056328E-2,-1.00104876E-1,1.8363634E-1,-2.8387177E-1,9.599883E-2,-3.3925235E-1,1.4360121E-2,2.7657272E-2,2.0672636E-1,-1.19778946E-1,1.813386E-1,3.1604984E-1,2.653892E-2,-2.2389245E-1,-5.600829E-2,-4.9061593E-2,-3.4033394E-1],"split_indices":[2,9,1,11,3,11,0,0,7,11,8,0,0,7,4,0,0,6,0,0,0,4,0,0,0,0,12,9,9,12,1,0,0,10,0,0,0,3,7,0,0,7,4,3,0,0,0,0,0,0,0,0,0,0,0,0,0,0,0,0,0,0,0],"split_type":[0,0,0,0,0,0,0,0,0,0,0,0,0,0,0,0,0,0,0,0,0,0,0,0,0,0,0,0,0,0,0,0,0,0,0,0,0,0,0,0,0,0,0,0,0,0,0,0,0,0,0,0,0,0,0,0,0,0,0,0,0,0,0],"sum_hessian":[9.3851524E1,4.2173527E1,5.1677998E1,1.7157526E1,2.5016003E1,1.5070758E1,3.6607243E1,1.104931E1,6.108216E0,4.26918E0,2.0746822E1,9.251347E0,5.8194113E0,2.0744898E1,1.5862343E1,1.2421851E0,9.807125E0,2.669544E0,3.4386718E0,2.1775317E0,2.091648E0,7.7095065E0,1.3037315E1,3.3267984E0,2.4926128E0,5.886584E0,1.48583145E1,9.447038E0,6.415305E0,6.3348627E0,3.4722624E0,1.2635428E0,1.4060013E0,6.3733907E0,1.336116E0,1.2779408E0,2.0488577E0,3.4556391E0,2.4309447E0,9.156271E0,5.702043E0,6.896644E0,2.5503936E0,5.3782845E0,1.0370204E0,4.172247E0,2.1626158E0,2.4027107E0,1.0695517E0,4.8569207E0,1.51647E0,2.402128E0,1.0535113E0,1.0541023E0,1.3768424E0,2.6583765E0,3.0436666E0,2.8561823E0,4.040462E0,1.5329087E0,1.017485E0,1.0076853E0,4.3705993E0],"tree_param":{"num_deleted":"0","num_feature":"13","num_nodes":"63","size_leaf_vector":"1"}},{"base_weights":[1.1169625E-3,2.9541487E-1,-4.211005E-1,3.3481598E-2,7.051902E-1,8.236004E-2,-7.4052334E-1,2.3303455E-1,-3.268285E-1,9.054438E-1,2.0506042E-1,-3.2484278E-1,7.760354E-1,-8.988719E-1,-1.6362704E-1,6.2334436E-1,-2.7772795E-2,2.664059E-1,-7.8205836E-1,3.046835E-1,-4.652344E-2,2.529221E-1,-2.902382E-1,-6.454715E-1,1.8095341E-1,2.744162E-1,2.8951947E-2,-9.765019E-1,-5.4042224E-2,1.6359685E-1,-6.199886E-1,8.2773536E-1,2.646869E-2,4.3998685E-1,-4.5530474E-1,-7.3277526E-2,2.2162515E-1,-4.9896043E-2,-2.651132E-1,-5.143458E-1,3.6795903E-2,6.709295E-2,-2.5246707E-1,-3.1603003E-1,-4.593537E-1,-2.5902352E-1,-1.2643931E-2,2.7699775E-1,9.546271E-2,-1.685077E-1,1.8572043E-1,2.549379E-1,-6.244617E-2,-2.3252434E-1,5.169481E-3,7.9754844E-2,-9.4848484E-2,-2.0851389E-1,-3.0372368E-2,1.8827427E-2,-2.0600489E-1],"categories":[],"categories_nodes":[],"categories_segments":[],"categories_sizes":[],"default_left":[0,0,0,0,0,0,0,0,0,0,0,0,0,0,0,0,0,0,0,0,0,0,0,0,0,0,0,0,0,0,0,0,0,0,0,0,0,0,0,0,0,0,0,0,0,0,0,0,0,0,0,0,0,0,0,0,0,0,0,0,0],"id":7,"left_children":[1,3,5,7,9,11,13,15,17,19,21,23,25,27,29,31,33,35,37,-1,-1,-1,39,41,-1,-1,-1,43,-1,-1,45,47,49,51,53,55,-1,-1,-1,57,-1,-1,-1,-1,59,-1,-1,-1,-1,-1,-1,-1,-1,-1,-1,-1,-1,-1,-1,-1,-1],"loss_changes":[1.0275582E1,5.206494E0,5.523473E0,2.2889862E0,1.7123709E0,4.23066E0,1.7605076E0,2.0929484E0,3.283166E0,1.7044096E0,2.3655372E0,3.2398949E0,4.3051863E-1,7.258606E-1,2.1886878E0,9.796822E-1,2.8361318E0,9.669957E-1,2.7215147E-1,0E0,0E0,0E0,4.8153156E-1,1.4839478E0,0E0,0E0,0E0,8.7430954E-2,0E0,0E0,5.189098E-1,2.4547577E-3,1.4377228E0,1.9837242E0,1.128163E0,4.31584E-1,0E0,0E0,0E0,1.6281396E-1,0E0,0E0,0E0,0E0,4.7428274E-1,0E0,0E0,0E0,0E0,0E0,0E0,0E0,0E0,0E0,0E0,0E0,0E0,0E0,0E0,0E0,0E0],"parents":[2147483647,0,0,1,1,2,2,3,3,4,4,5,5,6,6,7,7,8,8,9,9,10,10,11,11,12,12,13,13,14,14,15,15,16,16,17,17,18,18,22,22,23,23,27,27,30,30,31,31,32,32,33,33,34,34,35,35,39,39,44,44],"right_children":[2,4,6,8,10,12,14,16,18,20,22,24,26,28,30,32,34,36,38,-1,-1,-1,40,42,-1,-1,-1,44,-1,-1,46,48,50,52,54,56,-1,-1,-1,58,-1,-1,-1,-1,60,-1,-1,-1,-1,-1,-1,-1,-1,-1,-1,-1,-1,-1,-1,-1,-1],"split_conditions":[1E0,1.61E2,6E-1,3E0,3E0,2E0,2E0,1E0,7E-1,6.1E1,1.66E2,2E-1,3E-1,3E2,2E0,2.66E2,2.27E2,4E-1,1E0,3.046835E-1,-4.652344E-2,2.529221E-1,2.32E2,1.1E2,1.8095341E-1,2.744162E-1,2.8951947E-2,3E0,-5.4042224E-2,1.6359685E-1,2.25E2,1.53E2,2.95E2,1E0,1.53E2,1.34E2,2.2162515E-1,-4.9896043E-2,-2.651132E-1,1E0,3.6795903E-2,6.709295E-2,-2.5246707E-1,-3.1603003E-1,1.32E2,-2.5902352E-1,-1.2643931E-2,2.7699775E-1,9.546271E-2,-1.685077E-1,1.8572043E-1,2.549379E-1,-6.244617E-2,-2.3252434E-1,5.169481E-3,7.9754844E-2,-9.4848484E-2,-2.0851389E-1,-3.0372368E-2,1.8827427E-2,-2.0600489E-1],"split_indices":[11,7,9,12,12,2,10,6,9,0,7,9,9,4,11,4,4,9,10,0,0,0,4,3,0,0,0,11,0,0,4,7,4,8,7,7,0,0,0,8,0,0,0,0,3,0,0,0,0,0,0,0,0,0,0,0,0,0,0,0,0],"split_type":[0,0,0,0,0,0,0,0,0,0,0,0,0,0,0,0,0,0,0,0,0,0,0,0,0,0,0,0,0,0,0,0,0,0,0,0,0,0,0,0,0,0,0,0,0,0,0,0,0,0,0,0,0,0,0,0,0,0,0,0,0],"sum_hessian":[8.0694595E1,4.7727474E1,3.2967117E1,2.9776005E1,1.795147E1,1.3085103E1,1.9882015E1,1.9390224E1,1.0385779E1,1.2240084E1,5.7113857E0,8.580101E0,4.505002E0,1.516214E1,4.719875E0,7.210033E0,1.2180192E1,4.689469E0,5.69631E0,1.1126592E1,1.1134918E0,2.189218E0,3.5221677E0,6.6031833E0,1.976918E0,3.4539704E0,1.0510315E0,1.33604355E1,1.8017045E0,1.7720655E0,2.9478092E0,5.082744E0,2.1272886E0,5.8025413E0,6.377651E0,3.2192392E0,1.4702299E0,1.1806893E0,4.5156207E0,2.1237361E0,1.3984315E0,1.1896635E0,5.41352E0,1.0727585E1,2.6328514E0,1.7263594E0,1.2214499E0,3.5959878E0,1.4867563E0,1.0938181E0,1.0334705E0,3.364263E0,2.4382782E0,3.4217892E0,2.9558618E0,1.3039898E0,1.9152493E0,1.0026584E0,1.1210778E0,1.0182194E0,1.614632E0],"tree_param":{"num_deleted":"0","num_feature":"13","num_nodes":"61","size_leaf_vector":"1"}},{"base_weights":[4.689589E-3,-3.5239497E-1,2.9121017E-1,-4.3911554E-2,-7.0000464E-1,7.481755E-1,1.0155906E-1,6.2777585E-1,-2.229366E-1,-2.830708E-1,-3.4267262E-1,2.8345358E-1,3.6068556E-1,3.7113762E-1,-2.3037863E-1,2.6485506E-1,-2.095641E-2,-5.9593517E-1,3.0807802E-1,-6.830131E-1,4.0276325E-1,-6.9321E-2,5.917832E-1,-2.0699722E-1,6.221844E-1,1.4904307E-1,-7.278302E-1,1.0588199E-1,-8.9877313E-1,6.461426E-1,-3.183402E-1,-2.877383E-3,-2.5653696E-1,1.6553038E-1,1.5866958E-2,2.4013467E-1,-1.1450911E-2,-6.9390994E-1,1.432159E-1,2.8455105E-1,1.4173956E-1,3.9262933E-1,-1.9990607E-1,-2.902745E-1,-3.1714448E-1,-1.3330053E-1,1.6638383E-1,-7.3576875E-2,-3.1891853E-1,2.5229827E-1,3.744255E-2,-1.9396272E-2,-1.2435379E-1,-4.78763E-2,-2.6542342E-1,2.0220506E-1,-5.237158E-2,-3.504609E-2,2.0462258E-1,-1.1322666E-1,-2.343058E-2],"categories":[],"categories_nodes":[],"categories_segments":[],"categories_sizes":[],"default_left":[0,0,0,0,0,0,0,0,0,0,0,0,0,0,0,0,0,0,0,0,0,0,0,0,0,0,0,0,0,0,0,0,0,0,0,0,0,0,0,0,0,0,0,0,0,0,0,0,0,0,0,0,0,0,0,0,0,0,0,0,0],"id":8,"left_children":[1,3,5,7,9,11,13,15,17,-1,19,-1,21,23,25,-1,-1,27,29,31,33,-1,35,37,39,41,43,45,47,49,51,-1,-1,-1,-1,-1,-1,53,-1,-1,55,57,-1,-1,59,-1,-1,-1,-1,-1,-1,-1,-1,-1,-1,-1,-1,-1,-1,-1,-1],"loss_changes":[7.4160676E0,3.4301429E0,3.4085138E0,2.3244755E0,9.915757E-1,5.459256E-1,2.7316513E0,7.886007E-1,3.1707704E0,0E0,2.227105E0,0E0,8.9364576E-1,2.5528347E0,2.7263348E0,0E0,0E0,2.0504334E0,1.6630764E0,6.470325E-1,1.2934259E-1,0E0,5.9068227E-1,2.266358E0,1.7303677E0,1.9893086E0,3.007934E-1,1.1519887E0,4.4058418E-1,3.8261127E-1,4.8396915E-2,0E0,0E0,0E0,0E0,0E0,0E0,2.463398E-1,0E0,0E0,1.1256323E0,1.1600868E0,0E0,0E0,2.4734586E-2,0E0,0E0,0E0,0E0,0E0,0E0,0E0,0E0,0E0,0E0,0E0,0E0,0E0,0E0,0E0,0E0],"parents":[2147483647,0,0,1,1,2,2,3,3,4,4,5,5,6,6,7,7,8,8,10,10,12,12,13,13,14,14,17,17,18,18,19,19,20,20,22,22,23,23,24,24,25,25,26,26,27,27,28,28,29,29,30,30,37,37,40,40,41,41,44,44],"right_children":[2,4,6,8,10,12,14,16,18,-1,20,-1,22,24,26,-1,-1,28,30,32,34,-1,36,38,40,42,44,46,48,50,52,-1,-1,-1,-1,-1,-1,54,-1,-1,56,58,-1,-1,60,-1,-1,-1,-1,-1,-1,-1,-1,-1,-1,-1,-1,-1,-1,-1,-1],"split_conditions":[1E0,1E0,1E0,1.17E2,1E0,1E0,5.7E1,3E0,2E0,-2.830708E-1,6.4E1,2.8345358E-1,2E0,1.53E2,2.46E2,2.6485506E-1,-2.095641E-2,1E0,1.69E2,5.3E1,1E0,-6.9321E-2,3.09E2,5E1,3E0,2.4E0,3E0,1.25E2,1E0,3E0,4.9E1,-2.877383E-3,-2.5653696E-1,1.6553038E-1,1.5866958E-2,2.4013467E-1,-1.1450911E-2,4.7E1,1.432159E-1,2.8455105E-1,1.63E2,2.19E2,-1.9990607E-1,-2.902745E-1,1E0,-1.3330053E-1,1.6638383E-1,-7.3576875E-2,-3.1891853E-1,2.5229827E-1,3.744255E-2,-1.9396272E-2,-1.2435379E-1,-4.78763E-2,-2.6542342E-1,2.0220506E-1,-5.237158E-2,-3.504609E-2,2.0462258E-1,-1.1322666E-1,-2.343058E-2],"split_indices":[2,11,1,3,6,11,0,12,10,0,0,0,10,7,4,0,0,8,7,0,1,0,4,0,12,9,12,3,6,12,0,0,0,0,0,0,0,0,0,0,7,4,0,0,11,0,0,0,0,0,0,0,0,0,0,0,0,0,0,0,0],"split_type":[0,0,0,0,0,0,0,0,0,0,0,0,0,0,0,0,0,0,0,0,0,0,0,0,0,0,0,0,0,0,0,0,0,0,0,0,0,0,0,0,0,0,0,0,0,0,0,0,0,0,0,0,0,0,0,0,0,0,0,0,0],"sum_hessian":[7.048176E1,3.1274765E1,3.9206993E1,1.7166668E1,1.4108098E1,1.0635556E1,2.8571438E1,3.085076E0,1.4081592E1,7.4139824E0,6.694115E0,6.100755E0,4.5348005E0,1.5701549E1,1.2869888E1,2.064673E0,1.020403E0,8.199671E0,5.881921E0,4.653312E0,2.040803E0,1.2736287E0,3.2611718E0,4.8069963E0,1.0894553E1,7.6984377E0,5.17145E0,2.6677089E0,5.5319614E0,3.7997756E0,2.0821455E0,1.162089E0,3.491223E0,1.0265598E0,1.0142432E0,2.246419E0,1.0147527E0,2.8005745E0,2.0064216E0,5.907766E0,4.986787E0,6.3268704E0,1.3715674E0,2.4090638E0,2.7623863E0,1.2027442E0,1.4649645E0,1.6120987E0,3.919863E0,2.3196394E0,1.4801362E0,1.0320505E0,1.0500948E0,1.2202451E0,1.5803294E0,1.4372953E0,3.5494914E0,2.5083537E0,3.8185167E0,1.7437786E0,1.0186077E0],"tree_param":{"num_deleted":"0","num_feature":"13","num_nodes":"61","size_leaf_vector":"1"}},{"base_weights":[3.0940538E-3,-2.6175836E-1,3.2765573E-1,-6.3445177E-3,-5.862929E-1,6.938649E-1,1.5266816E-1,2.7408087E-1,-3.6793634E-1,1.8483935E-2,-7.886627E-1,2.855132E-1,2.19108E-2,3.7562096E-1,-3.499865E-1,2.4823834E-1,3.6791882E-3,1.9021764E-1,-7.4529886E-1,-3.44298E-1,1.7909783E-1,-8.835812E-1,-2.5959618E-2,-1.5190056E-1,1.8765527E-1,5.1327044E-1,-1.697873E-1,-5.7466125E-1,1.1463939E-1,-1.8722256E-1,1.9722718E-1,-6.726383E-2,-2.687314E-1,4.6354137E-2,-2.1291573E-1,-2.9112062E-1,-3.6171624E-1,1.6338588E-1,2.5621116E-1,-2.2994155E-1,4.500348E-2,7.665758E-2,-1.244056E-1,-1.635016E-1,1.8631334E-4,1.40129E-1,-8.467116E-2],"categories":[],"categories_nodes":[],"categories_segments":[],"categories_sizes":[],"default_left":[0,0,0,0,0,0,0,0,0,0,0,0,0,0,0,0,0,0,0,0,0,0,0,0,0,0,0,0,0,0,0,0,0,0,0,0,0,0,0,0,0,0,0,0,0,0,0],"id":9,"left_children":[1,3,5,7,9,11,13,15,17,19,21,-1,23,25,27,-1,29,-1,31,33,-1,35,-1,-1,-1,37,-1,39,-1,41,-1,-1,-1,-1,-1,-1,43,45,-1,-1,-1,-1,-1,-1,-1,-1,-1],"loss_changes":[5.517549E0,2.9265456E0,1.742065E0,2.209252E0,1.9186878E0,1.5458064E0,2.462006E0,1.8350723E0,4.0680895E0,1.2292633E0,7.0196486E-1,0E0,1.4426202E0,2.2201307E0,1.3557904E0,0E0,1.2782823E0,0E0,3.768177E-1,7.7170527E-1,0E0,1.102581E-1,0E0,0E0,0E0,1.4716992E0,0E0,9.05169E-1,0E0,9.0585136E-1,0E0,0E0,0E0,0E0,0E0,0E0,2.02656E-1,1.2015995E0,0E0,0E0,0E0,0E0,0E0,0E0,0E0,0E0,0E0],"parents":[2147483647,0,0,1,1,2,2,3,3,4,4,5,5,6,6,7,7,8,8,9,9,10,10,12,12,13,13,14,14,16,16,18,18,19,19,21,21,25,25,27,27,29,29,36,36,37,37],"right_children":[2,4,6,8,10,12,14,16,18,20,22,-1,24,26,28,-1,30,-1,32,34,-1,36,-1,-1,-1,38,-1,40,-1,42,-1,-1,-1,-1,-1,-1,44,46,-1,-1,-1,-1,-1,-1,-1,-1,-1],"split_conditions":[2E0,1E0,1E0,1E0,6E-1,3.19E2,5.8E1,1E0,1.12E2,2.55E2,3E2,2.855132E-1,1E0,1.52E2,6.6E1,2.4823834E-1,1.69E2,1.9021764E-1,1E0,1.5E2,1.7909783E-1,3E0,-2.5959618E-2,-1.5190056E-1,1.8765527E-1,1.29E2,-1.697873E-1,1E0,1.1463939E-1,7E-1,1.9722718E-1,-6.726383E-2,-2.687314E-1,4.6354137E-2,-2.1291573E-1,-2.9112062E-1,1E0,2.37E2,2.5621116E-1,-2.2994155E-1,4.500348E-2,7.665758E-2,-1.244056E-1,-1.635016E-1,1.8631334E-4,1.40129E-1,-8.467116E-2],"split_indices":[10,11,1,8,9,4,0,1,3,4,4,0,6,3,0,0,7,0,6,7,0,11,0,0,0,3,0,5,0,9,0,0,0,0,0,0,6,4,0,0,0,0,0,0,0,0,0],"split_type":[0,0,0,0,0,0,0,0,0,0,0,0,0,0,0,0,0,0,0,0,0,0,0,0,0,0,0,0,0,0,0,0,0,0,0,0,0,0,0,0,0,0,0,0,0,0,0],"sum_hessian":[6.218896E1,3.435099E1,2.7837973E1,1.9793076E1,1.4557914E1,8.042218E0,1.9795755E1,1.1284005E1,8.509071E0,3.8778167E0,1.0680097E1,5.5111265E0,2.5310912E0,1.3888311E1,5.9074435E0,3.0276875E0,8.256317E0,2.1418002E0,6.367271E0,2.6320899E0,1.2457268E0,9.180578E0,1.4995184E0,1.4357479E0,1.0953434E0,1.2513801E1,1.3745108E0,4.68482E0,1.2226235E0,6.942604E0,1.3137131E0,1.9846125E0,4.3826585E0,1.3569587E0,1.2751311E0,7.134199E0,2.046379E0,6.9042654E0,5.609535E0,3.6587276E0,1.0260926E0,2.3143792E0,4.628225E0,1.0241652E0,1.022214E0,4.0772567E0,2.8270085E0],"tree_param":{"num_deleted":"0","num_feature":"13","num_nodes":"47","size_leaf_vector":"1"}},{"base_weights":[5.9491433E-3,2.43063E-1,-3.1096488E-1,4.3237576E-1,-1.1965072E-1,1.6065086E-1,-4.0648663E-1,5.153773E-1,-1.1734054E-1,3.9859697E-1,-4.8234573E-1,-6.08792E-1,-7.278334E-2,8.125207E-1,2.2364616E-1,-8.557209E-2,2.5197798E-1,6.921574E-2,-7.679163E-1,-1.6115503E-1,-2.7883562E-1,-2.698218E-1,1.5211709E-1,2.7470535E-1,3.6382163E-1,5.333866E-1,-1.0206829E-1,9.2098184E-2,-1.3890499E-1,-1.7213303E-1,1.8635729E-1,-2.6671025E-1,-5.7646826E-2,2.4439344E-1,-4.8638564E-1,-4.2820114E-1,5.304957E-2,-2.5373252E-2,2.0114952E-1,-9.287443E-2,2.5620022E-1,5.0584476E-2,-1.2723798E-1,-6.364832E-2,1.5601787E-1,-2.0885678E-1,-2.9687945E-2,4.7633674E-2,-1.9036122E-1,-9.6945345E-2,1.035109E-1],"categories":[],"categories_nodes":[],"categories_segments":[],"categories_sizes":[],"default_left":[0,0,0,0,0,0,0,0,0,0,0,0,0,0,0,0,0,0,0,0,0,0,0,0,0,0,0,0,0,0,0,0,0,0,0,0,0,0,0,0,0,0,0,0,0,0,0,0,0,0,0],"id":10,"left_children":[1,3,5,7,9,-1,11,13,-1,15,17,19,21,23,25,27,-1,29,31,33,-1,35,-1,-1,37,39,41,-1,-1,-1,-1,-1,-1,43,45,47,49,-1,-1,-1,-1,-1,-1,-1,-1,-1,-1,-1,-1,-1,-1],"loss_changes":[4.3236666E0,2.3107626E0,2.209435E0,1.6939311E0,2.4601743E0,0E0,1.4884334E0,1.5750151E0,0E0,1.2503247E0,1.2424263E0,1.8596244E0,1.2456106E0,1.1400318E-1,1.225301E0,6.662918E-1,0E0,1.5961505E0,1.8184876E-1,1.0490656E0,0E0,4.2649543E-1,0E0,0E0,5.3319955E-1,1.9155327E0,6.3783693E-1,0E0,0E0,0E0,0E0,0E0,0E0,5.891251E-1,2.7641416E-1,7.5571513E-1,4.9468338E-1,0E0,0E0,0E0,0E0,0E0,0E0,0E0,0E0,0E0,0E0,0E0,0E0,0E0,0E0],"parents":[2147483647,0,0,1,1,2,2,3,3,4,4,6,6,7,7,9,9,10,10,11,11,12,12,13,13,14,14,15,15,17,17,18,18,19,19,21,21,24,24,25,25,26,26,33,33,34,34,35,35,36,36],"right_children":[2,4,6,8,10,-1,12,14,-1,16,18,20,22,24,26,28,-1,30,32,34,-1,36,-1,-1,38,40,42,-1,-1,-1,-1,-1,-1,44,46,48,50,-1,-1,-1,-1,-1,-1,-1,-1,-1,-1,-1,-1,-1,-1],"split_conditions":[3E0,1E0,1.1E2,2.8E0,1E0,1.6065086E-1,2E0,2.37E2,-1.1734054E-1,6.4E1,5.5E1,6E-1,2E0,1E0,5.8E1,2E0,2.5197798E-1,1.23E2,6.7E1,2.35E2,-2.7883562E-1,3E0,1.5211709E-1,2.7470535E-1,1.1E0,1.53E2,1.58E2,9.2098184E-2,-1.3890499E-1,-1.7213303E-1,1.8635729E-1,-2.6671025E-1,-5.7646826E-2,4.4E1,1E0,1.22E2,1.22E2,-2.5373252E-2,2.0114952E-1,-9.287443E-2,2.5620022E-1,5.0584476E-2,-1.2723798E-1,-6.364832E-2,1.5601787E-1,-2.0885678E-1,-2.9687945E-2,4.7633674E-2,-1.9036122E-1,-9.6945345E-2,1.035109E-1],"split_indices":[12,11,3,9,1,0,2,4,0,0,0,9,10,8,0,11,0,3,0,4,0,2,0,0,9,7,7,0,0,0,0,0,0,0,6,3,3,0,0,0,0,0,0,0,0,0,0,0,0,0,0],"split_type":[0,0,0,0,0,0,0,0,0,0,0,0,0,0,0,0,0,0,0,0,0,0,0,0,0,0,0,0,0,0,0,0,0,0,0,0,0,0,0,0,0,0,0,0,0,0,0,0,0,0,0],"sum_hessian":[5.5532032E1,3.189863E1,2.3633402E1,2.0833075E1,1.1065557E1,1.9294511E0,2.170395E1,1.926548E1,1.5675936E0,4.5150723E0,6.5504837E0,1.2999026E1,8.704925E0,8.659826E0,1.0605655E1,2.5374348E0,1.9776376E0,2.4930122E0,4.0574718E0,6.0524545E0,6.9465714E0,6.8961654E0,1.8087587E0,6.1947827E0,2.465043E0,5.1093206E0,5.496334E0,1.3352953E0,1.2021395E0,1.1333188E0,1.3596933E0,2.902742E0,1.1547296E0,2.804241E0,3.2482133E0,4.4077744E0,2.4883912E0,1.2953277E0,1.1697155E0,1.4173068E0,3.692014E0,3.2452314E0,2.251103E0,1.1424688E0,1.6617721E0,1.5901401E0,1.6580733E0,1.2063798E0,3.2013946E0,1.0407453E0,1.447646E0],"tree_param":{"num_deleted":"0","num_feature":"13","num_nodes":"51","size_leaf_vector":"1"}},{"base_weights":[6.3720196E-3,-2.725945E-1,2.2515272E-1,3.1427722E-2,-5.382613E-1,3.1976748E-1,-3.0559653E-1,3.6893445E-1,-2.6483017E-1,-1.7896439E-1,-2.6012003E-1,2.4280658E-1,2.1196693E-1,-1.7773998E-1,7.0669554E-2,3.196423E-2,5.4333204E-1,1.7695196E-2,-2.0675652E-1,1.9017535E-1,-4.4150576E-1,-2.671047E-1,3.13048E-1,2.6518581E-2,-1.1843779E-2,2.0118636E-1,3.976817E-2,3.5654566E-1,-1.651896E-1,1.4728667E-1,-5.062329E-2,7.296604E-2,-2.4466322E-1,-1.8029581E-1,7.405771E-2,6.9101423E-1,1.03536434E-1,-4.852587E-2,1.9678167E-1,2.5242564E-1,6.991616E-2,-9.937831E-2,1.16689585E-1],"categories":[],"categories_nodes":[],"categories_segments":[],"categories_sizes":[],"default_left":[0,0,0,0,0,0,0,0,0,0,0,0,0,0,0,0,0,0,0,0,0,0,0,0,0,0,0,0,0,0,0,0,0,0,0,0,0,0,0,0,0,0,0],"id":11,"left_children":[1,3,5,7,9,11,13,15,17,19,-1,-1,21,-1,-1,23,25,27,-1,29,31,33,35,-1,-1,-1,-1,37,-1,-1,-1,-1,-1,-1,-1,39,41,-1,-1,-1,-1,-1,-1],"loss_changes":[3.1318426E0,1.8394707E0,1.5411289E0,1.2443571E0,1.2739925E0,1.1417396E0,8.940627E-1,3.2222044E-1,8.141781E-1,7.66312E-1,0E0,0E0,1.136766E0,0E0,0E0,1.571867E-2,1.06933E-1,1.1574149E0,0E0,4.7421086E-1,1.3292272E0,8.9119214E-1,1.3870416E0,0E0,0E0,0E0,0E0,6.854476E-1,0E0,0E0,0E0,0E0,0E0,0E0,0E0,2.4422169E-1,1.745503E0,0E0,0E0,0E0,0E0,0E0,0E0],"parents":[2147483647,0,0,1,1,2,2,3,3,4,4,5,5,6,6,7,7,8,8,9,9,12,12,15,15,16,16,17,17,19,19,20,20,21,21,22,22,27,27,35,35,36,36],"right_children":[2,4,6,8,10,12,14,16,18,20,-1,-1,22,-1,-1,24,26,28,-1,30,32,34,36,-1,-1,-1,-1,38,-1,-1,-1,-1,-1,-1,-1,40,42,-1,-1,-1,-1,-1,-1],"split_conditions":[1E0,7E-1,2E0,1.55E2,3E0,4.5E1,2.32E2,1E-1,1E0,1E0,-2.6012003E-1,2.4280658E-1,5.1E1,-1.7773998E-1,7.0669554E-2,5.5E1,1.29E2,2.73E2,-2.0675652E-1,1E0,1.12E2,1.2E2,5.7E1,2.6518581E-2,-1.1843779E-2,2.0118636E-1,3.976817E-2,4.4E1,-1.651896E-1,1.4728667E-1,-5.062329E-2,7.296604E-2,-2.4466322E-1,-1.8029581E-1,7.405771E-2,1E0,6E1,-4.852587E-2,1.9678167E-1,2.5242564E-1,6.991616E-2,-9.937831E-2,1.16689585E-1],"split_indices":[2,9,9,7,12,0,4,9,11,8,0,0,0,0,0,0,3,4,0,1,3,3,0,0,0,0,0,0,0,0,0,0,0,0,0,11,0,0,0,0,0,0,0],"split_type":[0,0,0,0,0,0,0,0,0,0,0,0,0,0,0,0,0,0,0,0,0,0,0,0,0,0,0,0,0,0,0,0,0,0,0,0,0,0,0,0,0,0,0],"sum_hessian":[4.9308735E1,2.1565134E1,2.77436E1,1.0467778E1,1.1097355E1,2.3883493E1,3.8601074E0,4.778565E0,5.6892133E0,6.0407305E0,5.056625E0,3.1354792E0,2.0748014E1,2.4608202E0,1.3992871E0,2.033237E0,2.745328E0,3.990653E0,1.69856E0,2.6252291E0,3.4155014E0,3.3287926E0,1.7419222E1,1.0034038E0,1.0298333E0,1.6129274E0,1.1324005E0,2.7335088E0,1.2571443E0,1.22815E0,1.397079E0,1.3301796E0,2.085322E0,1.915275E0,1.4135176E0,5.3925886E0,1.2026633E1,1.1691867E0,1.5643221E0,3.4290822E0,1.9635062E0,4.7025723E0,7.3240614E0],"tree_param":{"num_deleted":"0","num_feature":"13","num_nodes":"43","size_leaf_vector":"1"}},{"base_weights":[5.531588E-3,2.0267692E-1,-2.9506734E-1,1.6479973E-2,5.24484E-1,-5.690173E-1,2.6248558E-4,3.3564526E-1,-1.2375411E-1,-4.7996562E-2,6.5043783E-1,-2.4451225E-1,-9.68275E-2,3.301787E-1,-2.8568855E-1,2.2655486E-1,-1.3531344E-1,8.631565E-2,-6.4674616E-1,2.5312003E-1,-2.5995467E-3,2.3168218E-1,-1.7464148E-1,1.6464539E-1,4.2022724E-2,-2.2190109E-1,2.557336E-1,-1.8112956E-1,9.733238E-2,-3.5347268E-1,4.1217437E-1,-5.7037096E-2,-2.2972818E-1,6.1822094E-2,-6.2200285E-2,5.342037E-3,1.060537E-1,-1.712635E-1,1.8268333E-1,-1.2315361E-2,1.2793325E-1,-1.5484981E-1,-2.8363327E-2,2.0318356E-1,-1.2707545E-1],"categories":[],"categories_nodes":[],"categories_segments":[],"categories_sizes":[],"default_left":[0,0,0,0,0,0,0,0,0,0,0,0,0,0,0,0,0,0,0,0,0,0,0,0,0,0,0,0,0,0,0,0,0,0,0,0,0,0,0,0,0,0,0,0,0],"id":12,"left_children":[1,3,5,7,9,11,13,15,17,-1,19,-1,21,23,25,-1,27,29,31,-1,33,35,-1,-1,37,-1,39,-1,-1,41,43,-1,-1,-1,-1,-1,-1,-1,-1,-1,-1,-1,-1,-1,-1],"loss_changes":[2.7955127E0,1.6973728E0,1.5123886E0,8.9500594E-1,1.000946E0,1.0475979E0,1.0371851E0,1.305511E0,1.5915596E0,0E0,1.1362128E0,0E0,8.453788E-1,2.985177E-1,1.6368905E0,0E0,9.964906E-1,1.7013017E0,7.849944E-2,0E0,1.7297712E-1,8.159174E-2,0E0,0E0,1.4890554E0,0E0,1.9125289E-1,0E0,0E0,1.684928E-1,1.7706388E0,0E0,0E0,0E0,0E0,0E0,0E0,0E0,0E0,0E0,0E0,0E0,0E0,0E0,0E0],"parents":[2147483647,0,0,1,1,2,2,3,3,4,4,5,5,6,6,7,7,8,8,10,10,12,12,13,13,14,14,16,16,17,17,18,18,20,20,21,21,24,24,26,26,29,29,30,30],"right_children":[2,4,6,8,10,12,14,16,18,-1,20,-1,22,24,26,-1,28,30,32,-1,34,36,-1,-1,38,-1,40,-1,-1,42,44,-1,-1,-1,-1,-1,-1,-1,-1,-1,-1,-1,-1,-1,-1],"split_conditions":[1E0,1.61E2,1E0,1E0,4.1E1,2E0,5E-1,1E0,2.71E2,-4.7996562E-2,2.73E2,-2.4451225E-1,3E0,1.55E2,6.2E1,2.2655486E-1,1.47E2,5.3E1,1.28E2,2.5312003E-1,1.28E2,1.32E2,-1.7464148E-1,1.6464539E-1,1E0,-2.2190109E-1,1.42E2,-1.8112956E-1,9.733238E-2,1E0,6.7E1,-5.7037096E-2,-2.2972818E-1,6.1822094E-2,-6.2200285E-2,5.342037E-3,1.060537E-1,-1.712635E-1,1.8268333E-1,-1.2315361E-2,1.2793325E-1,-1.5484981E-1,-2.8363327E-2,2.0318356E-1,-1.2707545E-1],"split_indices":[11,7,6,1,0,2,9,8,4,0,4,0,12,7,0,0,7,0,3,0,3,3,0,0,2,0,7,0,0,2,0,0,0,0,0,0,0,0,0,0,0,0,0,0,0],"split_type":[0,0,0,0,0,0,0,0,0,0,0,0,0,0,0,0,0,0,0,0,0,0,0,0,0,0,0,0,0,0,0,0,0,0,0,0,0,0,0,0,0,0,0,0,0],"sum_hessian":[4.5163216E1,2.7471811E1,1.7691406E1,1.8068577E1,9.4032345E0,8.697151E0,8.994254E0,5.090166E0,1.2978411E1,1.4194245E0,7.9838095E0,5.240581E0,3.4565701E0,4.104275E0,4.8899794E0,2.3728724E0,2.7172937E0,9.854942E0,3.1234682E0,5.935052E0,2.0487576E0,2.3729303E0,1.0836396E0,1.8192941E0,2.284981E0,2.4606042E0,2.429375E0,1.1907675E0,1.5265262E0,4.158189E0,5.6967535E0,1.1828215E0,1.9406465E0,1.011381E0,1.0373765E0,1.2771056E0,1.0958248E0,1.0946124E0,1.1903685E0,1.1644592E0,1.2649158E0,1.9435313E0,2.2146575E0,4.4688516E0,1.2279019E0],"tree_param":{"num_deleted":"0","num_feature":"13","num_nodes":"45","size_leaf_vector":"1"}},{"base_weights":[-2.0556618E-3,1.8762772E-1,-2.632259E-1,-1.5176612E-1,2.6575089E-1,1.3563885E-1,-3.5969302E-1,3.2656726E-1,-9.94999E-2,-5.2745754E-1,-1.13027394E-1,5.44621E-1,1.416629E-1,4.928929E-2,-6.380025E-1,-2.718515E-1,1.1547141E-1,1.9279154E-2,7.5130016E-1,3.3814314E-1,-1.5885131E-1,-1.9054139E-1,-2.3675916E-1,-1.7195106E-1,-1.0408538E-1,1.2398427E-1,-8.934754E-2,8.816218E-2,2.537981E-1,-2.3624342E-2,2.0791852E-1,-1.4164305E-1,4.6872895E-2,-1.7324288E-1,9.428132E-2,1.3925542E-1,-1.1108397E-1],"categories":[],"categories_nodes":[],"categories_segments":[],"categories_sizes":[],"default_left":[0,0,0,0,0,0,0,0,0,0,0,0,0,0,0,0,0,0,0,0,0,0,0,0,0,0,0,0,0,0,0,0,0,0,0,0,0],"id":13,"left_children":[1,3,5,-1,7,-1,9,11,-1,13,15,17,19,-1,21,23,-1,25,27,29,31,33,-1,-1,35,-1,-1,-1,-1,-1,-1,-1,-1,-1,-1,-1,-1],"loss_changes":[2.11134E0,1.4723907E0,1.3997725E0,0E0,9.385214E-1,0E0,6.1714554E-1,7.793393E-1,0E0,8.2831526E-1,7.288448E-1,1.0057173E0,8.122522E-1,0E0,4.1536665E-1,2.7247733E-1,0E0,5.8276755E-1,4.2327166E-2,1.2512342E0,6.422947E-1,8.515114E-1,0E0,0E0,9.9514526E-1,0E0,0E0,0E0,0E0,0E0,0E0,0E0,0E0,0E0,0E0,0E0,0E0],"parents":[2147483647,0,0,1,1,2,2,4,4,6,6,7,7,9,9,10,10,11,11,12,12,14,14,15,15,17,17,18,18,19,19,20,20,21,21,24,24],"right_children":[2,4,6,-1,8,-1,10,12,-1,14,16,18,20,-1,22,24,-1,26,28,30,32,34,-1,-1,36,-1,-1,-1,-1,-1,-1,-1,-1,-1,-1,-1,-1],"split_conditions":[3E0,1.21E2,1.1E2,-1.5176612E-1,2.5E0,1.3563885E-1,2E0,5.6E1,-9.94999E-2,1.12E2,2E0,1.2E2,1.58E2,4.928929E-2,2.22E2,1.4E2,1.1547141E-1,4.7E1,1E0,6.4E1,1E0,2.07E2,-2.3675916E-1,-1.7195106E-1,1.48E2,1.2398427E-1,-8.934754E-2,8.816218E-2,2.537981E-1,-2.3624342E-2,2.0791852E-1,-1.4164305E-1,4.6872895E-2,-1.7324288E-1,9.428132E-2,1.3925542E-1,-1.1108397E-1],"split_indices":[12,7,3,0,9,0,2,0,0,7,10,3,7,0,4,7,0,0,2,0,6,4,0,0,7,0,0,0,0,0,0,0,0,0,0,0,0],"split_type":[0,0,0,0,0,0,0,0,0,0,0,0,0,0,0,0,0,0,0,0,0,0,0,0,0,0,0,0,0,0,0,0,0,0,0,0,0],"sum_hessian":[4.062224E1,2.3694748E1,1.6927492E1,1.8445755E0,2.1850172E1,1.5733532E0,1.5354138E1,2.0242842E1,1.6073303E0,8.461127E0,6.8930116E0,8.396092E0,1.184675E1,1.0988185E0,7.3623085E0,5.570305E0,1.3227067E0,2.679234E0,5.716858E0,7.0875793E0,4.7591705E0,2.4302409E0,4.9320674E0,1.1279504E0,4.442354E0,1.0595044E0,1.6197296E0,1.6842656E0,4.0325923E0,3.6170635E0,3.4705157E0,2.136485E0,2.6226854E0,1.2942591E0,1.1359818E0,1.1798464E0,3.262508E0],"tree_param":{"num_deleted":"0","num_feature":"13","num_nodes":"37","size_leaf_vector":"1"}},{"base_weights":[4.8458116E-4,1.7792507E-1,-2.7947205E-1,7.7064815E-3,4.774238E-1,-5.385519E-1,-3.3099535E-3,1.7402753E-1,-6.8499856E-2,-3.424374E-2,5.913527E-1,-2.1925233E-1,-1.6179198E-1,2.8095943E-1,-2.4633013E-1,2.7961856E-1,-2.1667142E-1,2.3144601E-1,1.0406418E-2,7.446281E-2,-1.2028564E-1,1.3631704E-1,4.455642E-3,-1.9605388E-1,2.0009647E-1,2.0389698E-1,-1.449264E-1,-5.5612373E-1,-3.6366263E-3,-2.1937188E-2,1.1199E-1,1.9915631E-2,-8.317894E-2,-5.9463285E-2,-2.0976578E-1,9.335209E-2,-1.616458E-1],"categories":[],"categories_nodes":[],"categories_segments":[],"categories_sizes":[],"default_left":[0,0,0,0,0,0,0,0,0,0,0,0,0,0,0,0,0,0,0,0,0,0,0,0,0,0,0,0,0,0,0,0,0,0,0,0,0],"id":14,"left_children":[1,3,5,7,9,11,13,-1,15,-1,17,-1,19,21,23,25,27,-1,-1,-1,-1,-1,-1,-1,29,-1,31,33,35,-1,-1,-1,-1,-1,-1,-1,-1],"loss_changes":[1.9650422E0,1.2305553E0,1.0962229E0,7.5741017E-1,6.5769196E-1,4.5494843E-1,6.518908E-1,0E0,8.556756E-1,0E0,7.257583E-1,0E0,4.8761165E-1,1.942167E-1,1.0541931E0,9.542364E-1,8.206107E-1,0E0,0E0,0E0,0E0,0E0,0E0,0E0,1.7820047E-1,0E0,1.0981311E-1,8.5721016E-2,1.5148197E0,0E0,0E0,0E0,0E0,0E0,0E0,0E0,0E0],"parents":[2147483647,0,0,1,1,2,2,3,3,4,4,5,5,6,6,8,8,10,10,12,12,13,13,14,14,15,15,16,16,24,24,26,26,27,27,28,28],"right_children":[2,4,6,8,10,12,14,-1,16,-1,18,-1,20,22,24,26,28,-1,-1,-1,-1,-1,-1,-1,30,-1,32,34,36,-1,-1,-1,-1,-1,-1,-1,-1],"split_conditions":[1E0,1.61E2,1E0,1.06E2,4.1E1,2E0,5E-1,1.7402753E-1,1E0,-3.424374E-2,2.73E2,-2.1925233E-1,6E-1,2.34E2,6.2E1,1E0,5.3E1,2.3144601E-1,1.0406418E-2,7.446281E-2,-1.2028564E-1,1.3631704E-1,4.455642E-3,-1.9605388E-1,6.4E1,2.0389698E-1,1E-1,7E-1,2.71E2,-2.1937188E-2,1.1199E-1,1.9915631E-2,-8.317894E-2,-5.9463285E-2,-2.0976578E-1,9.335209E-2,-1.616458E-1],"split_indices":[11,7,6,3,0,2,9,0,1,0,4,0,9,4,0,8,0,0,0,0,0,0,0,0,0,0,9,9,4,0,0,0,0,0,0,0,0],"split_type":[0,0,0,0,0,0,0,0,0,0,0,0,0,0,0,0,0,0,0,0,0,0,0,0,0,0,0,0,0,0,0,0,0,0,0,0,0],"sum_hessian":[3.755646E1,2.3210054E1,1.4346406E1,1.5453096E1,7.756958E0,6.9119096E0,7.434497E0,1.0387715E0,1.4414325E1,1.252341E0,6.504617E0,3.9540517E0,2.9578578E0,3.3545012E0,4.0799956E0,4.038659E0,1.0375666E1,4.6227937E0,1.8818235E0,1.0757761E0,1.8820816E0,1.6025337E0,1.7519674E0,1.8911839E0,2.1888118E0,1.7699623E0,2.268697E0,3.3797872E0,6.9958787E0,1.0733955E0,1.1154164E0,1.0655746E0,1.2031223E0,1.646557E0,1.7332304E0,4.6683707E0,2.327508E0],"tree_param":{"num_deleted":"0","num_feature":"13","num_nodes":"37","size_leaf_vector":"1"}},{"base_weights":[-7.688428E-4,1.6581815E-1,-2.3263599E-1,2.67927E-1,-2.8148773E-1,1.074703E-1,-3.1837267E-1,4.0331995E-1,4.5996483E-2,2.5175054E-2,-1.5352336E-1,-3.936378E-1,3.406187E-2,-3.097594E-2,5.025462E-1,-2.5729367E-1,2.8073522E-1,-1.9594924E-1,-1.2862405E-1,7.532971E-2,6.2519467E-1,-1.5270147E-1,4.2500068E-2,5.1367915E-1,-4.6360277E-2,8.27113E-2,-1.379376E-1,1.346881E-1,-9.429777E-2,2.2483112E-1,-1.2952613E-2,1.9757603E-1,2.6970489E-2,-8.855057E-2,1.0379631E-1],"categories":[],"categories_nodes":[],"categories_segments":[],"categories_sizes":[],"default_left":[0,0,0,0,0,0,0,0,0,0,0,0,0,0,0,0,0,0,0,0,0,0,0,0,0,0,0,0,0,0,0,0,0,0,0],"id":15,"left_children":[1,3,5,7,9,-1,11,13,15,-1,-1,17,-1,-1,19,21,23,-1,25,27,29,-1,-1,31,-1,33,-1,-1,-1,-1,-1,-1,-1,-1,-1],"loss_changes":[1.417357E0,1.0508176E0,8.9116E-1,5.1927817E-1,4.1791067E-1,0E0,4.9738455E-1,6.04218E-1,6.3543636E-1,0E0,0E0,7.470232E-1,0E0,0E0,4.4328618E-1,4.711134E-1,5.800223E-1,0E0,5.4358083E-1,6.1056817E-1,6.247945E-1,0E0,0E0,1.5250355E-1,0E0,6.2513167E-1,0E0,0E0,0E0,0E0,0E0,0E0,0E0,0E0,0E0],"parents":[2147483647,0,0,1,1,2,2,3,3,4,4,6,6,7,7,8,8,11,11,14,14,15,15,16,16,18,18,19,19,20,20,23,23,25,25],"right_children":[2,4,6,8,10,-1,12,14,16,-1,-1,18,-1,-1,20,22,24,-1,26,28,30,-1,-1,32,-1,34,-1,-1,-1,-1,-1,-1,-1,-1,-1],"split_conditions":[3E0,2E0,1.1E2,5.9E1,1E0,1.074703E-1,3E0,2E0,1E0,2.5175054E-2,-1.5352336E-1,1E0,3.406187E-2,-3.097594E-2,1.14E2,2.5E2,2.7E2,-1.9594924E-1,1.36E2,2.23E2,1.6E0,-1.5270147E-1,4.2500068E-2,1.1E0,-4.6360277E-2,1.44E2,-1.379376E-1,1.346881E-1,-9.429777E-2,2.2483112E-1,-1.2952613E-2,1.9757603E-1,2.6970489E-2,-8.855057E-2,1.0379631E-1],"split_indices":[12,11,3,0,1,0,2,12,2,0,0,6,0,0,3,4,4,0,3,4,9,0,0,9,0,7,0,0,0,0,0,0,0,0,0],"split_type":[0,0,0,0,0,0,0,0,0,0,0,0,0,0,0,0,0,0,0,0,0,0,0,0,0,0,0,0,0,0,0,0,0,0,0],"sum_hessian":[3.469564E1,2.0355738E1,1.4339903E1,1.689911E1,3.4566274E0,1.4143481E0,1.2925554E1,9.988257E0,6.9108534E0,1.5818582E0,1.8747692E0,1.1082867E1,1.8426876E0,1.6293683E0,8.35889E0,2.973242E0,3.9376116E0,4.8594227E0,6.223444E0,2.2245154E0,6.1343737E0,1.6539245E0,1.3193176E0,2.4475899E0,1.4900215E0,4.2570467E0,1.9663974E0,1.0579128E0,1.1666027E0,5.0705295E0,1.0638444E0,1.4110171E0,1.0365729E0,1.6983187E0,2.5587277E0],"tree_param":{"num_deleted":"0","num_feature":"13","num_nodes":"35","size_leaf_vector":"1"}},{"base_weights":[2.3866212E-4,-1.6772436E-1,2.0676328E-1,-1.5572881E-2,-3.7550616E-1,5.069714E-1,5.5555567E-2,3.4439486E-1,-1.3397366E-1,6.616249E-3,-5.3323305E-1,2.2391576E-1,7.4242353E-3,2.4723229E-1,-2.2541638E-1,-3.150499E-2,1.850556E-1,1.5115134E-1,-5.112647E-1,7.4304745E-2,-7.925971E-2,-6.19199E-1,-2.679619E-2,2.4884095E-2,4.5568988E-1,-3.7835857E-1,5.0557297E-2,2.792675E-1,-7.112158E-2,-4.046724E-2,-1.9956134E-1,-5.460847E-2,-2.2221683E-1,-1.3306086E-1,2.9252237E-1,1.9197547E-1,1.9552214E-2,-1.7149542E-1,-7.8084976E-3,1.3922098E-1,-5.482011E-2,-5.1271413E-2,1.7919333E-1],"categories":[],"categories_nodes":[],"categories_segments":[],"categories_sizes":[],"default_left":[0,0,0,0,0,0,0,0,0,0,0,0,0,0,0,0,0,0,0,0,0,0,0,0,0,0,0,0,0,0,0,0,0,0,0,0,0,0,0,0,0,0,0],"id":16,"left_children":[1,3,5,7,9,11,13,15,17,19,21,-1,-1,23,25,-1,-1,27,29,-1,-1,31,-1,33,35,37,-1,39,-1,-1,-1,-1,-1,-1,41,-1,-1,-1,-1,-1,-1,-1,-1],"loss_changes":[1.194998E0,5.94797E-1,6.7319286E-1,5.5805695E-1,4.8497713E-1,5.648223E-1,6.695912E-1,4.6308446E-1,1.127012E0,2.8228664E-1,1.6093278E-1,0E0,0E0,3.2482678E-1,3.737792E-1,0E0,0E0,3.8103336E-1,1.6684687E-1,0E0,0E0,1.0841274E-1,0E0,7.0232236E-1,2.2344661E-1,2.585302E-1,0E0,5.3033644E-1,0E0,0E0,0E0,0E0,0E0,0E0,5.977355E-1,0E0,0E0,0E0,0E0,0E0,0E0,0E0,0E0],"parents":[2147483647,0,0,1,1,2,2,3,3,4,4,5,5,6,6,7,7,8,8,9,9,10,10,13,13,14,14,17,17,18,18,21,21,23,23,24,24,25,25,27,27,34,34],"right_children":[2,4,6,8,10,12,14,16,18,20,22,-1,-1,24,26,-1,-1,28,30,-1,-1,32,-1,34,36,38,-1,40,-1,-1,-1,-1,-1,-1,42,-1,-1,-1,-1,-1,-1,-1,-1],"split_conditions":[2E0,1E0,1E0,1.17E2,6E-1,3.19E2,5.7E1,4.9E1,1E0,1.5E2,2.94E2,2.2391576E-1,7.4242353E-3,5E1,1.63E2,-3.150499E-2,1.850556E-1,6.5E1,1.1E0,7.4304745E-2,-7.925971E-2,2.32E2,-2.679619E-2,1.53E2,1.59E2,6.2E1,5.0557297E-2,2.73E2,-7.112158E-2,-4.046724E-2,-1.9956134E-1,-5.460847E-2,-2.2221683E-1,-1.3306086E-1,1E0,1.9197547E-1,1.9552214E-2,-1.7149542E-1,-7.8084976E-3,1.3922098E-1,-5.482011E-2,-5.1271413E-2,1.7919333E-1],"split_indices":[10,11,1,3,9,4,0,0,8,7,4,0,0,0,7,0,0,0,9,0,0,4,0,7,7,0,0,4,0,0,0,0,0,0,2,0,0,0,0,0,0,0,0],"split_type":[0,0,0,0,0,0,0,0,0,0,0,0,0,0,0,0,0,0,0,0,0,0,0,0,0,0,0,0,0,0,0,0,0,0,0,0,0,0,0,0,0,0,0],"sum_hessian":[3.244967E1,1.7999142E1,1.4450527E1,1.10110655E1,6.9880757E0,4.052289E0,1.0398238E1,2.252917E0,8.758148E0,2.3216074E0,4.6664686E0,2.3418229E0,1.7104664E0,6.252748E0,4.1454906E0,1.0822799E0,1.1706372E0,5.329748E0,3.4284005E0,1.273458E0,1.0481495E0,3.5785892E0,1.0878792E0,3.5672095E0,2.6855383E0,3.0146482E0,1.1308423E0,4.2183256E0,1.1114221E0,1.539839E0,1.8885614E0,1.3217163E0,2.256873E0,1.0581005E0,2.509109E0,1.3907803E0,1.2947581E0,1.5447122E0,1.469936E0,3.0098822E0,1.2084436E0,1.1697652E0,1.3393438E0],"tree_param":{"num_deleted":"0","num_feature":"13","num_nodes":"43","size_leaf_vector":"1"}},{"base_weights":[-1.3853643E-3,1.3466795E-1,-2.1671425E-1,2.606376E-1,-7.692004E-2,-4.585127E-1,2.0542081E-2,3.559187E-1,-7.147684E-2,-3.907947E-1,1.7605092E-1,-1.9859092E-1,-8.775943E-2,2.3377046E-1,-2.6580676E-1,1.7075548E-1,2.1735923E-1,-2.5096165E-2,-1.6785881E-1,-1.6930133E-1,1.437062E-1,-6.675939E-2,2.339138E-2,-4.033069E-2,1.8073025E-1,-1.8151093E-1,5.9647862E-2,2.6116198E-1,-7.6237746E-2,-4.5105195E-4,-7.875031E-2,1.6009343E-1,-1.06818285E-2],"categories":[],"categories_nodes":[],"categories_segments":[],"categories_sizes":[],"default_left":[0,0,0,0,0,0,0,0,0,0,0,0,0,0,0,0,0,0,0,0,0,0,0,0,0,0,0,0,0,0,0,0,0],"id":17,"left_children":[1,3,5,7,9,11,13,15,-1,17,19,-1,21,23,25,27,-1,-1,-1,29,-1,-1,-1,-1,-1,-1,-1,31,-1,-1,-1,-1,-1],"loss_changes":[9.4425154E-1,5.4666424E-1,7.252181E-1,6.843327E-1,7.1554697E-1,4.1127384E-1,5.05106E-1,6.2644815E-1,0E0,1.5767801E-1,6.251453E-1,0E0,9.234529E-2,7.1769E-1,6.821176E-1,3.9764357E-1,0E0,0E0,0E0,4.916019E-2,0E0,0E0,0E0,0E0,0E0,0E0,0E0,6.339184E-1,0E0,0E0,0E0,0E0,0E0],"parents":[2147483647,0,0,1,1,2,2,3,3,4,4,5,5,6,6,7,7,9,9,10,10,12,12,13,13,14,14,15,15,19,19,27,27],"right_children":[2,4,6,8,10,12,14,16,-1,18,20,-1,22,24,26,28,-1,-1,-1,30,-1,-1,-1,-1,-1,-1,-1,32,-1,-1,-1,-1,-1],"split_conditions":[1E0,3E0,1E0,3.26E2,5.2E1,2E0,1.55E2,1.61E2,-7.147684E-2,9E-1,1.51E2,-1.9859092E-1,2.35E2,1.42E2,1E0,2.8E0,2.1735923E-1,-2.5096165E-2,-1.6785881E-1,1.44E2,1.437062E-1,-6.675939E-2,2.339138E-2,-4.033069E-2,1.8073025E-1,-1.8151093E-1,5.9647862E-2,2.37E2,-7.6237746E-2,-4.5105195E-4,-7.875031E-2,1.6009343E-1,-1.06818285E-2],"split_indices":[11,12,6,4,0,2,7,7,0,9,7,0,4,7,2,9,0,0,0,3,0,0,0,0,0,0,0,4,0,0,0,0,0],"split_type":[0,0,0,0,0,0,0,0,0,0,0,0,0,0,0,0,0,0,0,0,0,0,0,0,0,0,0,0,0,0,0,0,0],"sum_hessian":[3.0235004E1,1.8757727E1,1.147728E1,1.1612415E1,7.1453104E0,5.2223687E0,6.2549105E0,9.990891E0,1.6215237E0,2.945656E0,4.199654E0,2.8647935E0,2.3575752E0,3.69045E0,2.5644605E0,7.624267E0,2.3666246E0,1.5748297E0,1.3708265E0,2.168732E0,2.0309224E0,1.1112119E0,1.2463634E0,2.16424E0,1.5262102E0,1.3075985E0,1.256862E0,6.604325E0,1.0199425E0,1.1372842E0,1.0314476E0,3.0269186E0,3.577406E0],"tree_param":{"num_deleted":"0","num_feature":"13","num_nodes":"33","size_leaf_vector":"1"}},{"base_weights":[-4.803699E-3,-1.5430872E-1,1.8374726E-1,-2.0212265E-2,-2.943325E-1,4.5947447E-1,4.1777283E-2,3.7409434E-1,-1.7367724E-1,-5.1096493E-1,-5.1274657E-2,5.1267557E-3,2.1079692E-1,2.0305865E-1,-2.2886084E-1,1.529027E-1,1.5028728E-2,6.7604855E-2,-1.6464694E-1,-1.9696559E-1,-5.116332E-2,2.5973314E-1,-1.557104E-1,5.218676E-1,-1.8562055E-1,-1.331852E-1,2.8369462E-2,-1.19417995E-1,2.8939363E-1,1.3422953E-1,-1.1837956E-3,2.1487202E-2,2.0393993E-1,5.461336E-2,-1.4618084E-1,1.5525998E-1,-2.5597043E-2],"categories":[],"categories_nodes":[],"categories_segments":[],"categories_sizes":[],"default_left":[0,0,0,0,0,0,0,0,0,0,0,0,0,0,0,0,0,0,0,0,0,0,0,0,0,0,0,0,0,0,0,0,0,0,0,0,0],"id":18,"left_children":[1,3,5,7,9,11,13,15,17,19,21,-1,-1,23,25,-1,-1,27,-1,-1,-1,29,-1,31,33,-1,-1,-1,35,-1,-1,-1,-1,-1,-1,-1,-1],"loss_changes":[8.551948E-1,3.114395E-1,5.0645864E-1,6.5243363E-1,4.05311E-1,4.682427E-1,4.8140135E-1,1.0787368E-1,7.31472E-1,9.7254634E-2,8.583519E-1,0E0,0E0,9.361936E-1,3.335209E-1,0E0,0E0,6.893136E-1,0E0,0E0,0E0,1.8260112E-1,0E0,2.3457134E-1,5.0902414E-1,0E0,0E0,0E0,4.1555896E-1,0E0,0E0,0E0,0E0,0E0,0E0,0E0,0E0],"parents":[2147483647,0,0,1,1,2,2,3,3,4,4,5,5,6,6,7,7,8,8,9,9,10,10,13,13,14,14,17,17,21,21,23,23,24,24,28,28],"right_children":[2,4,6,8,10,12,14,16,18,20,22,-1,-1,24,26,-1,-1,28,-1,-1,-1,30,-1,32,34,-1,-1,-1,36,-1,-1,-1,-1,-1,-1,-1,-1],"split_conditions":[2E0,3E0,1E0,5.2E1,5.8E1,1E0,1E0,1.8E0,1.54E2,2E0,6.5E1,5.1267557E-3,2.1079692E-1,2.4E2,2E0,1.529027E-1,1.5028728E-2,1.21E2,-1.6464694E-1,-1.9696559E-1,-5.116332E-2,2.41E2,-1.557104E-1,4.4E1,2E0,-1.331852E-1,2.8369462E-2,-1.19417995E-1,1E0,1.3422953E-1,-1.1837956E-3,2.1487202E-2,2.0393993E-1,5.461336E-2,-1.4618084E-1,1.5525998E-1,-2.5597043E-2],"split_indices":[10,12,1,0,0,6,11,9,7,2,0,0,0,4,2,0,0,7,0,0,0,4,0,0,2,0,0,0,8,0,0,0,0,0,0,0,0],"split_type":[0,0,0,0,0,0,0,0,0,0,0,0,0,0,0,0,0,0,0,0,0,0,0,0,0,0,0,0,0,0,0,0,0,0,0,0,0],"sum_hessian":[2.8331717E1,1.5903326E1,1.242839E1,8.70815E0,7.1951766E0,3.4641213E0,8.964268E0,2.0369196E0,6.6712303E0,3.2215974E0,3.973579E0,1.608424E0,1.8556974E0,5.773419E0,3.190849E0,1.0319903E0,1.0049292E0,4.558887E0,2.112343E0,1.6060792E0,1.6155183E0,2.6538181E0,1.3197608E0,2.9835403E0,2.7898786E0,1.6925746E0,1.4982744E0,1.214393E0,3.344494E0,1.1431751E0,1.510643E0,1.1522213E0,1.8313191E0,1.4360498E0,1.3538288E0,1.8419353E0,1.5025588E0],"tree_param":{"num_deleted":"0","num_feature":"13","num_nodes":"37","size_leaf_vector":"1"}},{"base_weights":[-3.2220588E-3,2.335015E-1,-9.6022286E-2,-3.2548435E-2,2.0536399E-1,4.656242E-2,-3.1111306E-1,1.7188431E-1,-3.4696373E-1,1.8074003E-1,-3.684832E-1,-3.8293943E-2,-4.7960877E-1,-1.7635219E-1,3.3051537E-3,-4.8998803E-2,3.9083984E-1,9.989446E-3,-1.6241872E-1,-1.0086063E-1,6.326336E-2,-1.7984968E-1,-3.369221E-2,2.1945344E-1,-2.8319114E-1,1.7605524E-1,-6.3723134E-4,1.08680815E-1,-1.5509504E-2,-1.6602923E-1,1.2863214E-2],"categories":[],"categories_nodes":[],"categories_segments":[],"categories_sizes":[],"default_left":[0,0,0,0,0,0,0,0,0,0,0,0,0,0,0,0,0,0,0,0,0,0,0,0,0,0,0,0,0,0,0],"id":19,"left_children":[1,3,5,7,-1,9,11,-1,13,15,17,19,21,-1,-1,23,25,-1,-1,-1,-1,-1,-1,27,29,-1,-1,-1,-1,-1,-1],"loss_changes":[6.262727E-1,9.861827E-1,6.418223E-1,1.3423797E0,0E0,8.000768E-1,3.6246425E-1,0E0,4.0112E-1,5.319509E-1,2.644313E-1,3.8636437E-1,1.5437865E-1,0E0,0E0,4.3706396E-1,4.372543E-1,0E0,0E0,0E0,0E0,0E0,0E0,1.4814231E-1,3.4284723E-1,0E0,0E0,0E0,0E0,0E0,0E0],"parents":[2147483647,0,0,1,1,2,2,3,3,5,5,6,6,8,8,9,9,10,10,11,11,12,12,15,15,16,16,23,23,24,24],"right_children":[2,4,6,8,-1,10,12,-1,14,16,18,20,22,-1,-1,24,26,-1,-1,-1,-1,-1,-1,28,30,-1,-1,-1,-1,-1,-1],"split_conditions":[1E0,6.4E1,1E0,5.5E1,2.0536399E-1,2.73E2,6E-1,1.7188431E-1,1.55E2,5.3E1,5.5E1,1E-1,6.2E1,-1.7635219E-1,3.3051537E-3,2.23E2,6E1,9.989446E-3,-1.6241872E-1,-1.0086063E-1,6.326336E-2,-1.7984968E-1,-3.369221E-2,1E0,2.32E2,1.7605524E-1,-6.3723134E-4,1.08680815E-1,-1.5509504E-2,-1.6602923E-1,1.2863214E-2],"split_indices":[1,0,11,0,0,4,9,0,7,0,0,9,0,0,0,4,0,0,0,0,0,0,0,8,4,0,0,0,0,0,0],"split_type":[0,0,0,0,0,0,0,0,0,0,0,0,0,0,0,0,0,0,0,0,0,0,0,0,0,0,0,0,0,0,0],"sum_hessian":[2.6487768E1,7.0324807E0,1.9455288E1,5.006955E0,2.0255256E0,1.2170756E1,7.284531E0,1.4302799E0,3.5766752E0,9.624001E0,2.5467558E0,3.2498386E0,4.0346923E0,1.7542089E0,1.8224663E0,4.9634156E0,4.6605854E0,1.0091989E0,1.537557E0,1.3210827E0,1.9287559E0,2.5652142E0,1.4694782E0,2.3418791E0,2.6215365E0,2.7803485E0,1.8802369E0,1.3138394E0,1.0280397E0,1.0522048E0,1.5693315E0],"tree_param":{"num_deleted":"0","num_feature":"13","num_nodes":"31","size_leaf_vector":"1"}},{"base_weights":[-5.3991578E-3,-1.6932684E-1,1.1730984E-1,-2.6908916E-1,1.4103124E-1,4.609592E-1,2.2683828E-3,1.5375297E-1,-4.1638327E-1,1.620495E-1,-7.995511E-2,1.749554E-1,5.103636E-2,-1.1387402E-1,3.9655414E-1,6.443396E-2,4.548741E-3,-1.6638315E-1,-1.9336098E-1,1.08577125E-1,-2.1614045E-1,2.9003648E-2,1.4987563E-1,1.1788662E-1,-1.6189237E-1,9.3156565E-3,-4.005456E-1,5.207821E-2,1.1075379E-3,-1.6711035E-1,9.709632E-2,-1.539582E-1,-2.245877E-2],"categories":[],"categories_nodes":[],"categories_segments":[],"categories_sizes":[],"default_left":[0,0,0,0,0,0,0,0,0,0,0,0,0,0,0,0,0,0,0,0,0,0,0,0,0,0,0,0,0,0,0,0,0],"id":20,"left_children":[1,3,5,7,9,11,13,15,17,-1,-1,-1,-1,19,21,-1,-1,-1,23,-1,25,-1,-1,27,-1,29,31,-1,-1,-1,-1,-1,-1],"loss_changes":[5.388163E-1,3.9257973E-1,6.05605E-1,6.252727E-1,7.0390105E-1,3.7421525E-2,6.176379E-1,2.2610761E-2,1.0710621E-1,0E0,0E0,0E0,0E0,5.859132E-1,4.6480566E-2,0E0,0E0,0E0,5.1582843E-1,0E0,3.8680565E-1,0E0,0E0,1.8636722E-2,0E0,1.0922842E0,1.4836341E-1,0E0,0E0,0E0,0E0,0E0,0E0],"parents":[2147483647,0,0,1,1,2,2,3,3,4,4,5,5,6,6,7,7,8,8,13,13,14,14,18,18,20,20,23,23,25,25,26,26],"right_children":[2,4,6,8,10,12,14,16,18,-1,-1,-1,-1,20,22,-1,-1,-1,24,-1,26,-1,-1,28,-1,30,32,-1,-1,-1,-1,-1,-1],"split_conditions":[1E0,6.4E1,1E0,1.12E2,6.5E1,1E0,1E0,2E0,1.32E2,1.620495E-1,-7.995511E-2,1.749554E-1,5.103636E-2,4.5E1,1.42E2,6.443396E-2,4.548741E-3,-1.6638315E-1,1.44E2,1.08577125E-1,1.32E2,2.9003648E-2,1.4987563E-1,2.42E2,-1.6189237E-1,5E1,1.55E2,5.207821E-2,1.1075379E-3,-1.6711035E-1,9.709632E-2,-1.539582E-1,-2.245877E-2],"split_indices":[2,0,1,3,0,11,5,10,3,0,0,0,0,0,3,0,0,0,3,0,3,0,0,4,0,0,3,0,0,0,0,0,0],"split_type":[0,0,0,0,0,0,0,0,0,0,0,0,0,0,0,0,0,0,0,0,0,0,0,0,0,0,0,0,0,0,0,0,0],"sum_hessian":[2.4798763E1,1.0453698E1,1.4345064E1,8.01145E0,2.442249E0,2.843657E0,1.1501408E1,2.0584214E0,5.953028E0,1.0694643E0,1.3727847E0,1.2944666E0,1.5491904E0,9.433752E0,2.067655E0,1.0474452E0,1.0109761E0,2.7572906E0,3.1957376E0,1.2197587E0,8.213994E0,1.0244141E0,1.0432409E0,2.030354E0,1.1653836E0,4.12284E0,4.0911536E0,1.015035E0,1.0153189E0,1.1959643E0,2.9268754E0,2.6119702E0,1.4791837E0],"tree_param":{"num_deleted":"0","num_feature":"13","num_nodes":"33","size_leaf_vector":"1"}},{"base_weights":[1.3449622E-3,-1.3570353E-1,1.7274772E-1,4.5038746E-3,-3.246204E-1,-6.021426E-2,3.053316E-1,9.682431E-2,-1.0350981E-1,-1.5848765E-1,-8.424081E-2,8.0497205E-2,-2.4306442E-1,-4.9173288E-2,4.7486907E-1,1.3662787E-1,-4.2686954E-1,6.3880205E-2,-1.13797344E-1,-2.1837498E-3,-1.2893762E-1,-8.532033E-2,6.2783785E-2,1.8659553E-1,2.3909181E-2,-1.4127885E-2,1.1165697E-1,-1.7261381E-1,-3.215241E-2,-5.729477E-2,5.8699977E-2],"categories":[],"categories_nodes":[],"categories_segments":[],"categories_sizes":[],"default_left":[0,0,0,0,0,0,0,0,0,0,0,0,0,0,0,0,0,0,0,0,0,0,0,0,0,0,0,0,0,0,0],"id":21,"left_children":[1,3,5,7,9,11,13,-1,15,-1,17,-1,19,21,23,25,27,-1,-1,-1,-1,-1,-1,-1,-1,29,-1,-1,-1,-1,-1],"loss_changes":[5.997645E-1,3.7741178E-1,3.6866903E-1,3.4736323E-1,2.5219065E-1,3.624987E-1,4.676366E-1,0E0,6.4661413E-1,0E0,4.288435E-1,0E0,1.5994513E-1,2.600027E-1,2.4660552E-1,1.8655033E-1,1.03132725E-1,0E0,0E0,0E0,0E0,0E0,0E0,0E0,0E0,1.8861218E-1,0E0,0E0,0E0,0E0,0E0],"parents":[2147483647,0,0,1,1,2,2,3,3,4,4,5,5,6,6,8,8,10,10,12,12,13,13,14,14,15,15,16,16,25,25],"right_children":[2,4,6,8,10,12,14,-1,16,-1,18,-1,20,22,24,26,28,-1,-1,-1,-1,-1,-1,-1,-1,30,-1,-1,-1,-1,-1],"split_conditions":[2E0,1E0,1E0,1.17E2,6.2E1,1.55E2,1.53E2,9.682431E-2,1E0,-1.5848765E-1,6.5E1,8.0497205E-2,5.8E1,5.8E1,5.8E1,1.61E2,1.38E2,6.3880205E-2,-1.13797344E-1,-2.1837498E-3,-1.2893762E-1,-8.532033E-2,6.2783785E-2,1.8659553E-1,2.3909181E-2,2.44E2,1.1165697E-1,-1.7261381E-1,-3.215241E-2,-5.729477E-2,5.8699977E-2],"split_indices":[10,11,2,3,0,7,7,0,8,0,0,0,0,0,0,7,3,0,0,0,0,0,0,0,0,4,0,0,0,0,0],"split_type":[0,0,0,0,0,0,0,0,0,0,0,0,0,0,0,0,0,0,0,0,0,0,0,0,0,0,0,0,0,0,0],"sum_hessian":[2.3534271E1,1.3193456E1,1.0340815E1,8.133339E0,5.0601172E0,3.9486012E0,6.3922133E0,1.557223E0,6.576116E0,2.090831E0,2.9692862E0,1.2447064E0,2.7038949E0,2.2976842E0,4.094529E0,4.1050463E0,2.4710698E0,1.6181068E0,1.3511794E0,1.6541477E0,1.0497471E0,1.150327E0,1.1473572E0,2.565481E0,1.5290481E0,3.076294E0,1.0287521E0,1.1411755E0,1.3298944E0,1.7178401E0,1.358454E0],"tree_param":{"num_deleted":"0","num_feature":"13","num_nodes":"31","size_leaf_vector":"1"}},{"base_weights":[-1.7425197E-3,1.2929904E-1,-1.8183921E-1,2.2016157E-1,-2.4013937E-1,-3.6194113E-1,-1.5486314E-2,2.847891E-1,-2.7842661E-2,-1.5137489E-3,-1.0553248E-1,-1.5485838E-1,-1.2043975E-1,-8.9789376E-2,1.5398817E-1,6.343284E-2,4.5826983E-1,-8.497908E-2,2.9460307E-2,1.341235E-1,-5.8155645E-2,1.9417717E-1,-7.774879E-2,5.4191095E-1,2.4395656E-2,-2.8784009E-2,1.1521917E-1,2.0704313E-1,2.1664444E-2],"categories":[],"categories_nodes":[],"categories_segments":[],"categories_sizes":[],"default_left":[0,0,0,0,0,0,0,0,0,0,0,0,0,0,0,0,0,0,0,0,0,0,0,0,0,0,0,0,0],"id":22,"left_children":[1,3,5,7,9,11,13,15,-1,-1,-1,-1,17,-1,19,21,23,-1,-1,-1,-1,25,-1,27,-1,-1,-1,-1,-1],"loss_changes":[5.7735217E-1,5.284712E-1,3.0296987E-1,2.6698828E-1,8.4179014E-2,1.20390356E-1,3.538615E-1,3.5891157E-1,0E0,0E0,0E0,0E0,1.4225103E-1,0E0,5.624286E-1,2.865098E-1,1.2945259E-1,0E0,0E0,0E0,0E0,2.8786963E-1,0E0,2.5146806E-1,0E0,0E0,0E0,0E0,0E0],"parents":[2147483647,0,0,1,1,2,2,3,3,4,4,5,5,6,6,7,7,12,12,14,14,15,15,16,16,21,21,23,23],"right_children":[2,4,6,8,10,12,14,16,-1,-1,-1,-1,18,-1,20,22,24,-1,-1,-1,-1,26,-1,28,-1,-1,-1,-1,-1],"split_conditions":[3E0,2E0,1E0,1.8E0,1E0,2E0,1.44E2,1E-1,-2.7842661E-2,-1.5137489E-3,-1.0553248E-1,-1.5485838E-1,2.31E2,-8.9789376E-2,1.62E2,3.22E2,1E0,-8.497908E-2,2.9460307E-2,1.341235E-1,-5.8155645E-2,1.53E2,-7.774879E-2,6.1E1,2.4395656E-2,-2.8784009E-2,1.1521917E-1,2.0704313E-1,2.1664444E-2],"split_indices":[12,11,6,9,1,2,7,9,0,0,0,0,4,0,7,4,5,0,0,0,0,7,0,0,0,0,0,0,0],"split_type":[0,0,0,0,0,0,0,0,0,0,0,0,0,0,0,0,0,0,0,0,0,0,0,0,0,0,0,0,0],"sum_hessian":[2.2467665E1,1.3168262E1,9.299404E0,1.0893174E1,2.2750866E0,3.9006374E0,5.398767E0,9.103394E0,1.7897809E0,1.0690247E0,1.206062E0,1.6861856E0,2.2144518E0,1.7320845E0,3.6666822E0,4.599815E0,4.5035787E0,1.0998311E0,1.1146207E0,1.8351163E0,1.831566E0,3.5564888E0,1.0433264E0,3.327605E0,1.1759737E0,1.6026105E0,1.9538782E0,2.1726053E0,1.1549997E0],"tree_param":{"num_deleted":"0","num_feature":"13","num_nodes":"29","size_leaf_vector":"1"}},{"base_weights":[-4.239782E-3,1.0321928E-1,-1.7225975E-1,2.2242172E-1,-8.489597E-2,-3.0962098E-1,1.1959543E-1,2.925555E-1,-3.4898296E-2,-2.992012E-1,9.9514075E-2,6.4801075E-2,-4.9865606E-1,-7.787333E-2,1.13101326E-1,1.4200068E-1,1.7510082E-1,-1.13844655E-1,-2.325004E-2,-4.1513123E-2,9.530149E-2,-2.9141905E-2,5.752187E-2,-1.8402964E-1,-3.6499053E-2,3.0358434E-1,-9.44404E-2,1.3141647E-1,1.2917056E-2,-1.1267116E-1,5.562795E-2],"categories":[],"categories_nodes":[],"categories_segments":[],"categories_sizes":[],"default_left":[0,0,0,0,0,0,0,0,0,0,0,0,0,0,0,0,0,0,0,0,0,0,0,0,0,0,0,0,0,0,0],"id":23,"left_children":[1,3,5,7,9,11,13,15,-1,17,19,21,23,-1,-1,25,-1,-1,-1,-1,-1,-1,-1,-1,-1,27,29,-1,-1,-1,-1],"loss_changes":[4.242958E-1,3.4083632E-1,4.0414476E-1,2.4939331E-1,2.7846676E-1,4.9275857E-1,4.5430464E-1,2.5874108E-1,0E0,2.6834369E-2,2.584379E-1,8.168262E-2,1.1739433E-1,0E0,0E0,2.7543873E-1,0E0,0E0,0E0,0E0,0E0,0E0,0E0,0E0,0E0,1.2387061E-1,3.3595878E-1,0E0,0E0,0E0,0E0],"parents":[2147483647,0,0,1,1,2,2,3,3,4,4,5,5,6,6,7,7,9,9,10,10,11,11,12,12,15,15,25,25,26,26],"right_children":[2,4,6,8,10,12,14,16,-1,18,20,22,24,-1,-1,26,-1,-1,-1,-1,-1,-1,-1,-1,-1,28,30,-1,-1,-1,-1],"split_conditions":[1E0,3E0,6.4E1,3.26E2,5.2E1,5.5E1,2.55E2,1.61E2,-3.4898296E-2,2E0,1.51E2,2E0,6E1,-7.787333E-2,1.13101326E-1,1.52E2,1.7510082E-1,-1.13844655E-1,-2.325004E-2,-4.1513123E-2,9.530149E-2,-2.9141905E-2,5.752187E-2,-1.8402964E-1,-3.6499053E-2,2.29E2,1.32E2,1.3141647E-1,1.2917056E-2,-1.1267116E-1,5.562795E-2],"split_indices":[11,12,0,4,0,0,4,7,0,10,7,2,0,0,0,7,0,0,0,0,0,0,0,0,0,4,3,0,0,0,0],"split_type":[0,0,0,0,0,0,0,0,0,0,0,0,0,0,0,0,0,0,0,0,0,0,0,0,0,0,0,0,0,0,0],"sum_hessian":[2.1515053E1,1.3357675E1,8.157379E0,8.064865E0,5.292809E0,5.5053988E0,2.65198E0,6.7945127E0,1.2703524E0,2.1600778E0,3.1327314E0,2.0674999E0,3.4378989E0,1.0689504E0,1.5830296E0,5.4590497E0,1.335463E0,1.0633428E0,1.096735E0,1.673526E0,1.4592053E0,1.0116482E0,1.0558518E0,2.1547182E0,1.2831806E0,3.0741816E0,2.3848681E0,1.5781888E0,1.4959929E0,1.0191534E0,1.3657147E0],"tree_param":{"num_deleted":"0","num_feature":"13","num_nodes":"31","size_leaf_vector":"1"}},{"base_weights":[-3.641366E-3,-1.1848169E-1,1.4181353E-1,-1.7378978E-1,5.1141802E-2,-6.0494203E-2,2.641502E-1,-6.016162E-3,-4.085049E-1,7.527602E-2,-2.4249788E-1,-4.027989E-2,4.1600305E-1,-1.8691885E-1,2.1408214E-1,-1.7877296E-1,-2.7513828E-2,-5.553467E-3,-1.0427001E-1,1.0083991E-2,-2.8197456E-2,1.6882646E-1,2.929743E-2,-8.6212575E-2,1.1183252E-2,-2.9798416E-2,1.1244282E-1],"categories":[],"categories_nodes":[],"categories_segments":[],"categories_sizes":[],"default_left":[0,0,0,0,0,0,0,0,0,0,0,0,0,0,0,0,0,0,0,0,0,0,0,0,0,0,0],"id":24,"left_children":[1,3,5,7,-1,9,11,13,15,-1,17,19,21,23,25,-1,-1,-1,-1,-1,-1,-1,-1,-1,-1,-1,-1],"loss_changes":[3.7762246E-1,2.3124053E-1,2.631112E-1,4.340145E-1,0E0,3.2023308E-1,3.1302732E-1,3.3778736E-1,2.1875465E-1,0E0,7.350831E-2,1.5243165E-2,1.489287E-1,1.1518462E-1,2.306606E-1,0E0,0E0,0E0,0E0,0E0,0E0,0E0,0E0,0E0,0E0,0E0,0E0],"parents":[2147483647,0,0,1,1,2,2,3,3,5,5,6,6,7,7,8,8,10,10,11,11,12,12,13,13,14,14],"right_children":[2,4,6,8,-1,10,12,14,16,-1,18,20,22,24,26,-1,-1,-1,-1,-1,-1,-1,-1,-1,-1,-1,-1],"split_conditions":[2E0,2.95E2,1E0,1.54E2,5.1141802E-2,1.55E2,1.53E2,1.44E2,2E0,7.527602E-2,1.25E2,1E0,5.7E1,6.4E1,2.3E2,-1.7877296E-1,-2.7513828E-2,-5.553467E-3,-1.0427001E-1,1.0083991E-2,-2.8197456E-2,1.6882646E-1,2.929743E-2,-8.6212575E-2,1.1183252E-2,-2.9798416E-2,1.1244282E-1],"split_indices":[10,4,2,7,0,7,7,7,2,0,3,6,0,0,4,0,0,0,0,0,0,0,0,0,0,0,0],"split_type":[0,0,0,0,0,0,0,0,0,0,0,0,0,0,0,0,0,0,0,0,0,0,0,0,0,0,0],"sum_hessian":[2.060071E1,1.1615456E1,8.985255E0,1.00838785E1,1.5315762E0,3.576432E0,5.408823E0,6.478616E0,3.605263E0,1.1795423E0,2.3968897E0,2.0446045E0,3.3642187E0,3.638674E0,2.839942E0,1.7116348E0,1.8936282E0,1.1408993E0,1.2559905E0,1.0181227E0,1.0264819E0,1.7772046E0,1.5870142E0,2.3181648E0,1.3205092E0,1.092205E0,1.747737E0],"tree_param":{"num_deleted":"0","num_feature":"13","num_nodes":"27","size_leaf_vector":"1"}},{"base_weights":[-2.6910193E-3,2.0359188E-1,-8.156372E-2,-2.2237526E-2,1.6833095E-1,2.3147682E-2,-4.1351017E-1,2.4743015E-1,-1.0404516E-1,1.1751208E-1,-2.5908887E-1,-1.318178E-2,-1.606254E-1,-2.134364E-3,1.147877E-1,2.1282027E-2,1.3982365E-1,-9.568762E-2,-2.2462165E-2,1.4935681E-1,-8.558977E-2,1.0427237E-1,-6.626721E-3],"categories":[],"categories_nodes":[],"categories_segments":[],"categories_sizes":[],"default_left":[0,0,0,0,0,0,0,0,0,0,0,0,0,0,0,0,0,0,0,0,0,0,0],"id":25,"left_children":[1,3,5,7,-1,9,11,13,-1,15,17,-1,-1,-1,-1,19,-1,-1,-1,21,-1,-1,-1],"loss_changes":[3.5733685E-1,5.032381E-1,5.609695E-1,4.9607965E-1,0E0,3.768492E-1,1.502521E-1,1.1091082E-1,0E0,3.401128E-1,1.5503228E-2,0E0,0E0,0E0,0E0,4.048584E-1,0E0,0E0,0E0,2.5112262E-1,0E0,0E0,0E0],"parents":[2147483647,0,0,1,1,2,2,3,3,5,5,6,6,7,7,9,9,10,10,15,15,19,19],"right_children":[2,4,6,8,-1,10,12,14,-1,16,18,-1,-1,-1,-1,20,-1,-1,-1,22,-1,-1,-1],"split_conditions":[1E0,6.4E1,2.74E2,6.1E1,1.6833095E-1,2E0,1.25E2,1.53E2,-1.0404516E-1,1.3E0,1.48E2,-1.318178E-2,-1.606254E-1,-2.134364E-3,1.147877E-1,7E-1,1.3982365E-1,-9.568762E-2,-2.2462165E-2,2.28E2,-8.558977E-2,1.0427237E-1,-6.626721E-3],"split_indices":[1,0,4,0,0,9,3,7,0,9,7,0,0,0,0,9,0,0,0,4,0,0,0],"split_type":[0,0,0,0,0,0,0,0,0,0,0,0,0,0,0,0,0,0,0,0,0,0,0],"sum_hessian":[1.994218E1,5.0785413E0,1.486364E1,3.687227E0,1.3913143E0,1.2006497E1,2.8571424E0,2.1438017E0,1.5434254E0,9.435443E0,2.5710542E0,1.0461388E0,1.8110038E0,1.0722867E0,1.071515E0,8.225622E0,1.209821E0,1.3883817E0,1.1826725E0,6.1636E0,2.0620222E0,2.3821526E0,3.7814474E0],"tree_param":{"num_deleted":"0","num_feature":"13","num_nodes":"23","size_leaf_vector":"1"}},{"base_weights":[2.3946902E-4,1.1042507E-1,-1.7298661E-1,2.1852067E-1,-6.367246E-2,-3.7896332E-1,4.1734613E-2,3.451057E-1,3.20027E-2,-2.1232042E-1,4.8190415E-2,-1.6630378E-1,-1.3920745E-2,2.1644334E-1,-5.9053868E-2,4.5684117E-1,-8.151224E-3,-6.0501482E-2,5.7966746E-2,-1.016095E-2,-9.804155E-2,-1.4197394E-2,1.2368142E-1,4.1575305E-2,1.5693596E-1],"categories":[],"categories_nodes":[],"categories_segments":[],"categories_sizes":[],"default_left":[0,0,0,0,0,0,0,0,0,0,0,0,0,0,0,0,0,0,0,0,0,0,0,0,0],"id":26,"left_children":[1,3,5,7,9,11,13,15,17,19,-1,-1,-1,21,-1,23,-1,-1,-1,-1,-1,-1,-1,-1,-1],"loss_changes":[4.0288147E-1,2.5668132E-1,3.787834E-1,1.8218842E-1,2.2468628E-1,2.2437072E-1,2.4763694E-1,2.1096092E-1,2.051438E-1,6.796132E-2,0E0,0E0,0E0,1.9078451E-1,0E0,6.128788E-3,0E0,0E0,0E0,0E0,0E0,0E0,0E0,0E0,0E0],"parents":[2147483647,0,0,1,1,2,2,3,3,4,4,5,5,6,6,7,7,8,8,9,9,13,13,15,15],"right_children":[2,4,6,8,10,12,14,16,18,20,-1,-1,-1,22,-1,24,-1,-1,-1,-1,-1,-1,-1,-1,-1],"split_conditions":[1E0,3E0,1E0,5.9E1,1.6E2,2E0,1.55E2,1.6E0,6.2E1,7E-1,4.8190415E-2,-1.6630378E-1,-1.3920745E-2,1.41E2,-5.9053868E-2,1.2E2,-8.151224E-3,-6.0501482E-2,5.7966746E-2,-1.016095E-2,-9.804155E-2,-1.4197394E-2,1.2368142E-1,4.1575305E-2,1.5693596E-1],"split_indices":[11,12,6,0,7,2,7,9,0,9,0,0,0,7,0,3,0,0,0,0,0,0,0,0,0],"split_type":[0,0,0,0,0,0,0,0,0,0,0,0,0,0,0,0,0,0,0,0,0,0,0,0,0],"sum_hessian":[1.9106827E1,1.190001E1,7.206817E0,7.184226E0,4.715784E0,3.2879045E0,3.9189126E0,3.7731977E0,3.4110286E0,2.8683639E0,1.8474205E0,1.7160243E0,1.5718803E0,2.315846E0,1.6030668E0,2.7274284E0,1.0457692E0,1.2901521E0,2.1208763E0,1.6274529E0,1.2409109E0,1.3098698E0,1.0059762E0,1.0028551E0,1.7245734E0],"tree_param":{"num_deleted":"0","num_feature":"13","num_nodes":"25","size_leaf_vector":"1"}},{"base_weights":[4.096987E-5,9.0617225E-2,-1.4389926E-1,-3.687207E-3,2.7098808E-1,5.9657678E-2,-3.1264597E-1,9.172985E-2,-1.1017323E-1,1.852221E-3,1.24472626E-1,-1.4768153E-1,1.1010055E-1,-1.24963574E-1,1.1225274E-3,3.196105E-1,-1.4701849E-1,5.777269E-2,-1.1347229E-1,-3.7913907E-2,1.4615442E-1,3.9544832E-2,-3.0166996E-1,-1.2389287E-1,-9.955136E-3],"categories":[],"categories_nodes":[],"categories_segments":[],"categories_sizes":[],"default_left":[0,0,0,0,0,0,0,0,0,0,0,0,0,0,0,0,0,0,0,0,0,0,0,0,0],"id":27,"left_children":[1,3,5,7,9,11,13,15,-1,-1,-1,17,-1,-1,-1,19,21,-1,-1,-1,-1,-1,23,-1,-1],"loss_changes":[2.6684E-1,2.1467336E-1,2.9018477E-1,3.540644E-1,1.6232285E-1,3.360337E-1,1.4890254E-1,4.885325E-1,0E0,0E0,0E0,3.3596638E-1,0E0,0E0,0E0,3.9544237E-1,2.4020883E-1,0E0,0E0,0E0,0E0,0E0,8.473539E-2,0E0,0E0],"parents":[2147483647,0,0,1,1,2,2,3,3,4,4,5,5,6,6,7,7,11,11,15,15,16,16,22,22],"right_children":[2,4,6,8,10,12,14,16,-1,-1,-1,18,-1,-1,-1,20,22,-1,-1,-1,-1,-1,24,-1,-1],"split_conditions":[1E0,1.61E2,6E-1,1.58E2,1E0,2E0,2.77E2,1E0,-1.1017323E-1,1.852221E-3,1.24472626E-1,1.51E2,1.1010055E-1,-1.24963574E-1,1.1225274E-3,2.13E2,2.27E2,5.777269E-2,-1.1347229E-1,-3.7913907E-2,1.4615442E-1,3.9544832E-2,5.8E1,-1.2389287E-1,-9.955136E-3],"split_indices":[11,7,9,7,2,2,4,6,0,0,0,7,0,0,0,4,4,0,0,0,0,0,0,0,0],"split_type":[0,0,0,0,0,0,0,0,0,0,0,0,0,0,0,0,0,0,0,0,0,0,0,0,0],"sum_hessian":[1.846684E1,1.156185E1,6.9049916E0,8.2355585E0,3.3262913E0,3.4227E0,3.4822915E0,7.1157002E0,1.119858E0,1.5384474E0,1.787844E0,2.354087E0,1.0686129E0,2.3831258E0,1.0991657E0,3.4674213E0,3.6482787E0,1.0173858E0,1.3367012E0,1.0141287E0,2.4532926E0,1.3542465E0,2.2940323E0,1.2412722E0,1.05276E0],"tree_param":{"num_deleted":"0","num_feature":"13","num_nodes":"25","size_leaf_vector":"1"}},{"base_weights":[-1.9284511E-3,1.8637595E-1,-7.269475E-2,-2.5078654E-2,1.5298077E-1,2.1269172E-2,-3.4691954E-1,6.628786E-2,-8.960856E-2,1.3937673E-1,-1.6761282E-1,-8.653974E-3,-1.4413063E-1,-6.770282E-2,3.1789958E-1,-2.6565325E-1,2.7788317E-2,4.5077458E-2,-7.265882E-2,3.8049687E-3,4.320985E-1,4.235524E-2,-1.3803034E-1,2.675064E-2,1.6651149E-1],"categories":[],"categories_nodes":[],"categories_segments":[],"categories_sizes":[],"default_left":[0,0,0,0,0,0,0,0,0,0,0,0,0,0,0,0,0,0,0,0,0,0,0,0,0],"id":28,"left_children":[1,3,5,7,-1,9,11,-1,-1,13,15,-1,-1,17,19,21,-1,-1,-1,-1,23,-1,-1,-1,-1],"loss_changes":[2.630328E-1,3.8188046E-1,3.765595E-1,3.4979656E-1,0E0,2.8243515E-1,1.438765E-1,0E0,0E0,3.0585873E-1,1.5018655E-1,0E0,0E0,2.0317622E-1,1.4460811E-1,3.6823398E-1,0E0,0E0,0E0,0E0,8.134395E-2,0E0,0E0,0E0,0E0],"parents":[2147483647,0,0,1,1,2,2,3,3,5,5,6,6,9,9,10,10,13,13,14,14,15,15,20,20],"right_children":[2,4,6,8,-1,10,12,-1,-1,14,16,-1,-1,18,20,22,-1,-1,-1,-1,24,-1,-1,-1,-1],"split_conditions":[1E0,6.4E1,2.73E2,6.1E1,1.5298077E-1,1E0,1.26E2,6.628786E-2,-8.960856E-2,5.3E1,3E0,-8.653974E-3,-1.4413063E-1,2.23E2,2.18E2,1.36E2,2.7788317E-2,4.5077458E-2,-7.265882E-2,3.8049687E-3,1.44E2,4.235524E-2,-1.3803034E-1,2.675064E-2,1.6651149E-1],"split_indices":[1,0,4,0,0,11,3,0,0,0,11,0,0,4,4,7,0,0,0,0,7,0,0,0,0],"split_type":[0,0,0,0,0,0,0,0,0,0,0,0,0,0,0,0,0,0,0,0,0,0,0,0,0],"sum_hessian":[1.772217E1,4.3946414E0,1.3327529E1,3.2156346E0,1.1790066E0,1.0613292E1,2.7142367E0,1.7944758E0,1.4211588E0,6.691319E0,3.921973E0,1.1620221E0,1.5522146E0,3.3852835E0,3.3060355E0,2.8336523E0,1.0883209E0,1.5669193E0,1.8183643E0,1.2026931E0,2.1033425E0,1.0049495E0,1.8287027E0,1.0103537E0,1.0929887E0],"tree_param":{"num_deleted":"0","num_feature":"13","num_nodes":"25","size_leaf_vector":"1"}},{"base_weights":[3.0281292E-3,-1.2804462E-1,1.0445558E-1,-2.0475832E-1,3.1048954E-2,-5.5466304E-3,3.8418972E-1,3.5704292E-2,-3.2420388E-1,1.11399226E-1,-1.23052806E-1,1.494219E-1,2.3142032E-2,-4.586267E-1,-1.4383205E-2,9.0351656E-2,-2.774479E-1,-3.211808E-2,-1.7355992E-1,-3.8145054E-2,1.02357894E-1,-3.1873782E-3,-1.2359949E-1],"categories":[],"categories_nodes":[],"categories_segments":[],"categories_sizes":[],"default_left":[0,0,0,0,0,0,0,0,0,0,0,0,0,0,0,0,0,0,0,0,0,0,0],"id":29,"left_children":[1,3,5,7,-1,9,11,-1,13,-1,15,-1,-1,17,-1,19,21,-1,-1,-1,-1,-1,-1],"loss_changes":[2.530638E-1,1.6887726E-1,3.3184096E-1,2.9309615E-1,0E0,4.2992955E-1,6.7827195E-2,0E0,1.665129E-1,0E0,2.677423E-1,0E0,0E0,7.70818E-2,0E0,2.5322166E-1,1.5786418E-1,0E0,0E0,0E0,0E0,0E0,0E0],"parents":[2147483647,0,0,1,1,2,2,3,3,5,5,6,6,8,8,10,10,13,13,15,15,16,16],"right_children":[2,4,6,8,-1,10,12,-1,14,-1,16,-1,-1,18,-1,20,22,-1,-1,-1,-1,-1,-1],"split_conditions":[1E0,6.4E1,1E0,1.12E2,3.1048954E-2,1E0,1E0,3.5704292E-2,1.57E2,1.11399226E-1,5.7E1,1.494219E-1,2.3142032E-2,9E-1,-1.4383205E-2,5E1,1.47E2,-3.211808E-2,-1.7355992E-1,-3.8145054E-2,1.02357894E-1,-3.1873782E-3,-1.2359949E-1],"split_indices":[2,0,5,3,0,1,11,0,7,0,0,0,0,9,0,0,7,0,0,0,0,0,0],"split_type":[0,0,0,0,0,0,0,0,0,0,0,0,0,0,0,0,0,0,0,0,0,0,0],"sum_hessian":[1.702934E1,7.314512E0,9.7148285E0,5.5810747E0,1.7334372E0,7.6763606E0,2.0384684E0,1.5050507E0,4.076024E0,1.3111181E0,6.3652425E0,1.0331517E0,1.0053165E0,2.2978203E0,1.7782038E0,2.846131E0,3.5191116E0,1.0657877E0,1.2320327E0,1.7884715E0,1.0576595E0,1.5413884E0,1.9777232E0],"tree_param":{"num_deleted":"0","num_feature":"13","num_nodes":"23","size_leaf_vector":"1"}},{"base_weights":[5.644556E-3,9.8580435E-2,-1.1988588E-1,2.9602852E-1,-3.808546E-2,-2.9467684E-1,2.7949035E-2,1.415144E-1,7.787948E-3,1.07583605E-1,-2.2742054E-1,-1.23961575E-1,-2.393529E-2,5.669963E-2,-5.537187E-2,-3.127691E-2,2.5136125E-1,2.5336232E-2,-1.2892582E-1,1.123882E-1,-2.0460396E-4],"categories":[],"categories_nodes":[],"categories_segments":[],"categories_sizes":[],"default_left":[0,0,0,0,0,0,0,0,0,0,0,0,0,0,0,0,0,0,0,0,0],"id":30,"left_children":[1,3,5,7,9,11,13,-1,-1,15,17,-1,-1,-1,-1,-1,19,-1,-1,-1,-1],"loss_changes":[2.1570395E-1,2.9705894E-1,2.1200559E-1,1.9870588E-1,2.2151963E-1,6.1276764E-2,2.123724E-1,0E0,0E0,1.6987115E-1,2.5259995E-1,0E0,0E0,0E0,0E0,0E0,9.666002E-2,0E0,0E0,0E0,0E0],"parents":[2147483647,0,0,1,1,2,2,3,3,4,4,5,5,6,6,9,9,10,10,16,16],"right_children":[2,4,6,8,10,12,14,-1,-1,16,18,-1,-1,-1,-1,-1,20,-1,-1,-1,-1],"split_conditions":[3E0,5.6E1,1E0,1E0,1E0,2E0,9E-1,1.415144E-1,7.787948E-3,1E-1,1E0,-1.23961575E-1,-2.393529E-2,5.669963E-2,-5.537187E-2,-3.127691E-2,1.4E0,2.5336232E-2,-1.2892582E-1,1.123882E-1,-2.0460396E-4],"split_indices":[12,0,6,6,11,2,9,0,0,9,1,0,0,0,0,0,9,0,0,0,0],"split_type":[0,0,0,0,0,0,0,0,0,0,0,0,0,0,0,0,0,0,0,0,0],"sum_hessian":[1.6476482E1,9.590723E0,6.885759E0,3.4460158E0,6.1447067E0,2.7000737E0,4.185685E0,1.6354622E0,1.8105538E0,3.7168498E0,2.4278572E0,1.145438E0,1.5546358E0,2.4441712E0,1.741514E0,1.6138717E0,2.102978E0,1.1845654E0,1.2432917E0,1.0856575E0,1.0173205E0],"tree_param":{"num_deleted":"0","num_feature":"13","num_nodes":"21","size_leaf_vector":"1"}},{"base_weights":[2.9439302E-3,-1.22818366E-1,1.0039157E-1,-1.9173682E-1,2.4833439E-2,1.6876565E-1,-5.811993E-2,2.3058288E-2,-2.8983468E-1,3.0689144E-1,-2.9141644E-2,-4.0678227E-1,-1.5959343E-2,-2.5576469E-2,4.2250532E-1,1.1713844E-1,-2.7650574E-1,-2.6306428E-2,-1.5743059E-1,1.762346E-1,1.7675862E-1,-1.2999749E-1,-7.552532E-3,-2.7758738E-2,1.1151888E-1],"categories":[],"categories_nodes":[],"categories_segments":[],"categories_sizes":[],"default_left":[0,0,0,0,0,0,0,0,0,0,0,0,0,0,0,0,0,0,0,0,0,0,0,0,0],"id":31,"left_children":[1,3,5,7,-1,9,-1,-1,11,13,15,17,-1,-1,19,-1,21,-1,-1,-1,23,-1,-1,-1,-1],"loss_changes":[2.2107987E-1,1.2761363E-1,2.3676421E-1,1.8584646E-1,0E0,2.4862142E-1,0E0,0E0,1.09998405E-1,2.7406767E-1,5.7683426E-1,6.8172514E-2,0E0,0E0,6.733692E-2,0E0,1.24174416E-1,0E0,0E0,0E0,1.9854367E-1,0E0,0E0,0E0,0E0],"parents":[2147483647,0,0,1,1,2,2,3,3,5,5,8,8,9,9,10,10,11,11,14,14,16,16,20,20],"right_children":[2,4,6,8,-1,10,-1,-1,12,14,16,18,-1,-1,20,-1,22,-1,-1,-1,24,-1,-1,-1,-1],"split_conditions":[1E0,6.4E1,2E0,1.12E2,2.4833439E-2,2.46E2,-5.811993E-2,2.3058288E-2,1.57E2,1.2E2,5.6E1,9E-1,-1.5959343E-2,-2.5576469E-2,1.47E2,1.1713844E-1,6E1,-2.6306428E-2,-1.5743059E-1,1.762346E-1,2E0,-1.2999749E-1,-7.552532E-3,-2.7758738E-2,1.1151888E-1],"split_indices":[2,0,9,3,0,4,0,0,7,3,0,9,0,0,7,0,0,0,0,0,10,0,0,0,0],"split_type":[0,0,0,0,0,0,0,0,0,0,0,0,0,0,0,0,0,0,0,0,0,0,0,0,0],"sum_hessian":[1.6033527E1,6.8861566E0,9.14737E0,5.207838E0,1.6783185E0,7.767823E0,1.3795468E0,1.4511073E0,3.7567306E0,4.250548E0,3.5172756E0,2.0329955E0,1.7237351E0,1.0276134E0,3.2229342E0,1.0899341E0,2.4273415E0,1.0193548E0,1.0136408E0,1.0965044E0,2.1264298E0,1.0488083E0,1.3785331E0,1.1136763E0,1.0127536E0],"tree_param":{"num_deleted":"0","num_feature":"13","num_nodes":"25","size_leaf_vector":"1"}},{"base_weights":[2.655117E-3,-8.878599E-2,1.226736E-1,3.7209883E-2,-2.6761007E-1,2.1116686E-1,-4.86097E-2,2.0173131E-1,-2.2235267E-1,-1.4158732E-1,-5.0580017E-3,5.247825E-2,1.1493579E-1,1.1935612E-1,-1.03330035E-2,2.100909E-2,-1.23952515E-1,-5.3070355E-2,7.386146E-2],"categories":[],"categories_nodes":[],"categories_segments":[],"categories_sizes":[],"default_left":[0,0,0,0,0,0,0,0,0,0,0,0,0,0,0,0,0,0,0],"id":32,"left_children":[1,3,5,7,9,11,-1,13,15,-1,-1,17,-1,-1,-1,-1,-1,-1,-1],"loss_changes":[1.9170903E-1,2.3372328E-1,2.2429712E-1,3.3115056E-1,2.0864388E-1,1.4879343E-1,0E0,2.2805318E-1,2.0058623E-1,0E0,0E0,2.380871E-1,0E0,0E0,0E0,0E0,0E0,0E0,0E0],"parents":[2147483647,0,0,1,1,2,2,3,3,4,4,5,5,7,7,8,8,11,11],"right_children":[2,4,6,8,10,12,-1,14,16,-1,-1,18,-1,-1,-1,-1,-1,-1,-1],"split_conditions":[2E0,1E0,2E0,3E0,1E0,9E-1,-4.86097E-2,5.8E1,1E-1,-1.4158732E-1,-5.0580017E-3,1.53E2,1.1493579E-1,1.1935612E-1,-1.03330035E-2,2.100909E-2,-1.23952515E-1,-5.3070355E-2,7.386146E-2],"split_indices":[2,11,9,12,6,9,0,0,9,0,0,7,0,0,0,0,0,0,0],"split_type":[0,0,0,0,0,0,0,0,0,0,0,0,0,0,0,0,0,0,0],"sum_hessian":[1.5475948E1,8.93141E0,6.544538E0,5.704237E0,3.2271729E0,5.189743E0,1.3547953E0,3.627672E0,2.076565E0,1.2920438E0,1.9351289E0,3.3777401E0,1.8120028E0,1.6078879E0,2.0197842E0,1.0700362E0,1.006529E0,1.5863247E0,1.7914155E0],"tree_param":{"num_deleted":"0","num_feature":"13","num_nodes":"19","size_leaf_vector":"1"}},{"base_weights":[-1.591407E-3,-8.743373E-2,1.0663993E-1,1.133583E-3,-9.168778E-2,-5.1029976E-3,1.02436855E-1,-1.1435009E-1,2.1158482E-1,1.5641671E-1,-9.1351025E-2,1.5526887E-2,-1.05457984E-1,9.313322E-2,2.3371587E-3,-1.1493548E-2,9.092006E-2,5.057134E-2,-4.444431E-2],"categories":[],"categories_nodes":[],"categories_segments":[],"categories_sizes":[],"default_left":[0,0,0,0,0,0,0,0,0,0,0,0,0,0,0,0,0,0,0],"id":33,"left_children":[1,3,5,7,-1,9,-1,11,13,15,-1,17,-1,-1,-1,-1,-1,-1,-1],"loss_changes":[1.5798673E-1,1.8340859E-1,1.992718E-1,2.1216533E-1,0E0,3.4194398E-1,0E0,1.7928518E-1,5.9859633E-2,1.4337143E-1,0E0,1.4030182E-1,0E0,0E0,0E0,0E0,0E0,0E0,0E0],"parents":[2147483647,0,0,1,1,2,2,3,3,5,5,7,7,8,8,9,9,11,11],"right_children":[2,4,6,8,-1,10,-1,12,14,16,-1,18,-1,-1,-1,-1,-1,-1,-1],"split_conditions":[2E0,6.5E1,6.2E1,6.1E1,-9.168778E-2,5.8E1,1.02436855E-1,1E0,1.3E0,5E1,-9.1351025E-2,1.55E2,-1.05457984E-1,9.313322E-2,2.3371587E-3,-1.1493548E-2,9.092006E-2,5.057134E-2,-4.444431E-2],"split_indices":[10,0,0,0,0,0,0,11,9,0,0,7,0,0,0,0,0,0,0],"split_type":[0,0,0,0,0,0,0,0,0,0,0,0,0,0,0,0,0,0,0],"sum_hessian":[1.5001028E1,8.472962E0,6.528065E0,6.734243E0,1.7387199E0,5.086026E0,1.4420391E0,4.6430464E0,2.0911963E0,3.6139495E0,1.4720768E0,3.6040282E0,1.0390182E0,1.0557423E0,1.035454E0,1.8698428E0,1.7441067E0,1.8470367E0,1.7569916E0],"tree_param":{"num_deleted":"0","num_feature":"13","num_nodes":"19","size_leaf_vector":"1"}},{"base_weights":[-1.4714014E-3,-1.17689386E-1,9.056312E-2,-1.8520434E-1,3.3449747E-2,-8.2541695E-3,1.01773806E-1,-1.7179234E-2,-3.4299332E-1,9.242608E-2,-1.1215091E-1,5.043129E-2,-5.4043375E-2,-2.2166444E-2,-1.3217491E-1,2.5783675E-2,-2.5778812E-1,-4.81473E-2,7.2989255E-2,-1.10438995E-1,-4.5815036E-3],"categories":[],"categories_nodes":[],"categories_segments":[],"categories_sizes":[],"default_left":[0,0,0,0,0,0,0,0,0,0,0,0,0,0,0,0,0,0,0,0,0],"id":34,"left_children":[1,3,5,7,-1,9,-1,11,13,-1,15,-1,-1,-1,-1,17,19,-1,-1,-1,-1],"loss_changes":[1.780255E-1,1.3438308E-1,2.3127708E-1,1.5459792E-1,0E0,2.8531972E-1,0E0,1.5058902E-1,4.8045218E-2,0E0,1.3675117E-1,0E0,0E0,0E0,0E0,2.106514E-1,8.1113234E-2,0E0,0E0,0E0,0E0],"parents":[2147483647,0,0,1,1,2,2,3,3,5,5,7,7,8,8,10,10,15,15,16,16],"right_children":[2,4,6,8,-1,10,-1,12,14,-1,16,-1,-1,-1,-1,18,20,-1,-1,-1,-1],"split_conditions":[1E0,3.02E2,1E0,7E-1,3.3449747E-2,1E0,1.01773806E-1,1.53E2,5.8E1,9.242608E-2,1.4E2,5.043129E-2,-5.4043375E-2,-2.2166444E-2,-1.3217491E-1,1.25E2,1.55E2,-4.81473E-2,7.2989255E-2,-1.10438995E-1,-4.5815036E-3],"split_indices":[2,4,5,9,0,1,0,7,0,0,3,0,0,0,0,3,3,0,0,0,0],"split_type":[0,0,0,0,0,0,0,0,0,0,0,0,0,0,0,0,0,0,0,0,0],"sum_hessian":[1.4647545E1,6.350103E0,8.2974415E0,5.0533786E0,1.2967246E0,6.629811E0,1.6676307E0,2.9843268E0,2.0690517E0,1.1532174E0,5.4765935E0,1.3817787E0,1.602548E0,1.0182743E0,1.0507773E0,3.2353334E0,2.24126E0,1.8840373E0,1.3512961E0,1.1844099E0,1.0568502E0],"tree_param":{"num_deleted":"0","num_feature":"13","num_nodes":"21","size_leaf_vector":"1"}},{"base_weights":[-2.6181028E-3,7.2227694E-2,-1.23649426E-1,-2.6703488E-2,2.4854979E-1,-2.9837102E-1,4.9864627E-2,1.6146982E-1,-2.0628092E-1,1.0757812E-2,1.0711033E-1,-1.2781322E-1,-9.71222E-3,5.71744E-2,-4.5104492E-2,9.977215E-2,-2.1574598E-2,2.683694E-2,-1.0291098E-1],"categories":[],"categories_nodes":[],"categories_segments":[],"categories_sizes":[],"default_left":[0,0,0,0,0,0,0,0,0,0,0,0,0,0,0,0,0,0,0],"id":35,"left_children":[1,3,5,7,9,11,13,15,17,-1,-1,-1,-1,-1,-1,-1,-1,-1,-1],"loss_changes":[1.4732543E-1,1.8231612E-1,2.0303485E-1,2.8182527E-1,7.295664E-2,9.6091E-2,1.4052299E-1,1.8972623E-1,2.006404E-1,0E0,0E0,0E0,0E0,0E0,0E0,0E0,0E0,0E0,0E0],"parents":[2147483647,0,0,1,1,2,2,3,3,4,4,5,5,6,6,7,7,8,8],"right_children":[2,4,6,8,10,12,14,16,18,-1,-1,-1,-1,-1,-1,-1,-1,-1,-1],"split_conditions":[1E0,1.61E2,1E0,1E0,1E0,2E0,1.55E2,3E0,2.27E2,1.0757812E-2,1.0711033E-1,-1.2781322E-1,-9.71222E-3,5.71744E-2,-4.5104492E-2,9.977215E-2,-2.1574598E-2,2.683694E-2,-1.0291098E-1],"split_indices":[11,7,6,6,2,2,7,12,4,0,0,0,0,0,0,0,0,0,0],"split_type":[0,0,0,0,0,0,0,0,0,0,0,0,0,0,0,0,0,0,0],"sum_hessian":[1.4277549E1,9.071168E0,5.206381E0,6.3543878E0,2.7167804E0,2.235622E0,2.970759E0,3.1521683E0,3.2022192E0,1.3670828E0,1.3496976E0,1.1040251E0,1.1315968E0,1.7728468E0,1.1979122E0,1.5735418E0,1.5786265E0,1.1219159E0,2.0803032E0],"tree_param":{"num_deleted":"0","num_feature":"13","num_nodes":"19","size_leaf_vector":"1"}},{"base_weights":[-2.4403636E-3,-8.9862764E-2,1.0742106E-1,2.6683876E-2,-2.3782246E-1,-7.356803E-2,2.1924953E-1,-6.8285026E-2,6.5534055E-2,-1.1519004E-2,-1.0854458E-1,-9.0080336E-2,6.862892E-2,1.22046165E-1,3.626201E-2,-8.046235E-2,5.0550018E-2,-6.939943E-2,9.484938E-2],"categories":[],"categories_nodes":[],"categories_segments":[],"categories_sizes":[],"default_left":[0,0,0,0,0,0,0,0,0,0,0,0,0,0,0,0,0,0,0],"id":36,"left_children":[1,3,5,7,9,11,13,15,-1,-1,-1,-1,-1,-1,17,-1,-1,-1,-1],"loss_changes":[1.5291055E-1,1.5896946E-1,1.5912709E-1,1.2145461E-1,8.5033655E-2,3.0494094E-1,1.4375883E-1,2.6646775E-1,0E0,0E0,0E0,0E0,0E0,0E0,3.304593E-1,0E0,0E0,0E0,0E0],"parents":[2147483647,0,0,1,1,2,2,3,3,4,4,5,5,6,6,7,7,14,14],"right_children":[2,4,6,8,10,12,14,16,-1,-1,-1,-1,-1,-1,18,-1,-1,-1,-1],"split_conditions":[2E0,1E0,1E0,3E0,2.44E2,1.38E2,2.22E2,2.39E2,6.5534055E-2,-1.1519004E-2,-1.0854458E-1,-9.0080336E-2,6.862892E-2,1.22046165E-1,2.62E2,-8.046235E-2,5.0550018E-2,-6.939943E-2,9.484938E-2],"split_indices":[10,8,6,2,4,3,4,4,0,0,0,0,0,0,4,0,0,0,0],"split_type":[0,0,0,0,0,0,0,0,0,0,0,0,0,0,0,0,0,0,0],"sum_hessian":[1.3915888E1,7.850709E0,6.0651784E0,4.8500323E0,3.0006766E0,2.4469845E0,3.6181939E0,3.6742847E0,1.1757476E0,1.652508E0,1.3481686E0,1.4023055E0,1.0446792E0,1.1826779E0,2.435516E0,1.9202608E0,1.7540239E0,1.3338515E0,1.1016645E0],"tree_param":{"num_deleted":"0","num_feature":"13","num_nodes":"19","size_leaf_vector":"1"}},{"base_weights":[1.1750954E-3,8.0013104E-2,-1.01535045E-1,1.0375439E-1,-1.4492085E-3,-9.172519E-2,2.67198E-2,1.6945277E-1,-1.2668598E-1,1.4033249E-1,-2.8387075E-2,-4.9339896E-3,9.1025665E-2,1.1134436E-3,-7.8113414E-2,7.803699E-2,-1.50250895E-2,6.325429E-2,-5.697087E-2],"categories":[],"categories_nodes":[],"categories_segments":[],"categories_sizes":[],"default_left":[0,0,0,0,0,0,0,0,0,0,0,0,0,0,0,0,0,0,0],"id":37,"left_children":[1,3,5,-1,7,-1,9,11,13,15,-1,-1,-1,17,-1,-1,-1,-1,-1],"loss_changes":[1.2560925E-1,1.9036841E-1,1.8473439E-1,0E0,1.8641974E-1,0E0,8.304172E-2,9.6812904E-2,8.60582E-2,8.182686E-2,0E0,0E0,0E0,1.8275324E-1,0E0,0E0,0E0,0E0,0E0],"parents":[2147483647,0,0,1,1,2,2,4,4,6,6,7,7,8,8,9,9,13,13],"right_children":[2,4,6,-1,8,-1,10,12,14,16,-1,-1,-1,18,-1,-1,-1,-1,-1],"split_conditions":[3E0,4.6E1,5.2E1,1.0375439E-1,1E0,-9.172519E-2,1.48E2,1E-1,1E0,9E-1,-2.8387075E-2,-4.9339896E-3,9.1025665E-2,1.52E2,-7.8113414E-2,7.803699E-2,-1.50250895E-2,6.325429E-2,-5.697087E-2],"split_indices":[12,0,0,0,1,0,7,9,11,9,0,0,0,7,0,0,0,0,0],"split_type":[0,0,0,0,0,0,0,0,0,0,0,0,0,0,0,0,0,0,0],"sum_hessian":[1.350888E1,7.767614E0,5.741266E0,1.0607119E0,6.706902E0,1.6808993E0,4.060366E0,2.6870334E0,4.0198684E0,2.016162E0,2.0442045E0,1.4927864E0,1.1942469E0,2.562237E0,1.4576316E0,1.0128807E0,1.0032812E0,1.171796E0,1.390441E0],"tree_param":{"num_deleted":"0","num_feature":"13","num_nodes":"19","size_leaf_vector":"1"}},{"base_weights":[5.295708E-3,-9.908892E-2,8.612063E-2,-1.777117E-1,3.717875E-2,-5.1258323E-3,9.221157E-2,2.351275E-2,-2.7042058E-1,-8.880121E-2,1.0475745E-1,-1.17488205E-1,-1.0408758E-2,-4.5978773E-2,2.607822E-1,4.8681367E-2,-6.8550706E-2,1.371997E-1,-1.8935679E-2],"categories":[],"categories_nodes":[],"categories_segments":[],"categories_sizes":[],"default_left":[0,0,0,0,0,0,0,0,0,0,0,0,0,0,0,0,0,0,0],"id":38,"left_children":[1,3,5,7,-1,9,-1,-1,11,-1,13,-1,-1,15,17,-1,-1,-1,-1],"loss_changes":[1.2858094E-1,1.3905518E-1,1.7427608E-1,1.4810722E-1,0E0,2.5603285E-1,0E0,0E0,1.0496804E-1,0E0,1.4953879E-1,0E0,0E0,1.8246116E-1,2.2136472E-1,0E0,0E0,0E0,0E0],"parents":[2147483647,0,0,1,1,2,2,3,3,5,5,8,8,10,10,13,13,14,14],"right_children":[2,4,6,8,-1,10,-1,-1,12,-1,14,-1,-1,16,18,-1,-1,-1,-1],"split_conditions":[1E0,6.4E1,1E0,1.12E2,3.717875E-2,1.42E2,9.221157E-2,2.351275E-2,1.57E2,-8.880121E-2,2.44E2,-1.17488205E-1,-1.0408758E-2,2.28E2,2.78E2,4.8681367E-2,-6.8550706E-2,1.371997E-1,-1.8935679E-2],"split_indices":[2,0,5,3,0,7,0,0,7,0,4,0,0,4,4,0,0,0,0],"split_type":[0,0,0,0,0,0,0,0,0,0,0,0,0,0,0,0,0,0,0],"sum_hessian":[1.322888E1,5.6744328E0,7.554447E0,4.34559E0,1.3288426E0,6.0402246E0,1.5142227E0,1.1961358E0,3.1494544E0,1.1917287E0,4.848496E0,1.6431772E0,1.5062773E0,2.824777E0,2.0237188E0,1.3712307E0,1.4535462E0,1.0030789E0,1.0206399E0],"tree_param":{"num_deleted":"0","num_feature":"13","num_nodes":"19","size_leaf_vector":"1"}},{"base_weights":[6.356432E-3,-7.254124E-2,1.04216225E-1,2.623212E-3,-7.481808E-2,-6.1184205E-2,2.0584881E-1,-9.5609106E-2,5.2299153E-2,-7.365988E-2,3.8522054E-2,1.0780892E-1,4.43121E-2,3.5507943E-2,-6.462679E-2,-5.492835E-2,8.28554E-2,-6.257917E-2,7.6084204E-2],"categories":[],"categories_nodes":[],"categories_segments":[],"categories_sizes":[],"default_left":[0,0,0,0,0,0,0,0,0,0,0,0,0,0,0,0,0,0,0],"id":39,"left_children":[1,3,5,7,-1,9,11,13,-1,-1,-1,-1,15,17,-1,-1,-1,-1,-1],"loss_changes":[1.1470645E-1,1.10623166E-1,1.23621024E-1,1.312792E-1,0E0,1.4632905E-1,9.120685E-2,8.56951E-2,0E0,0E0,0E0,0E0,2.2171174E-1,2.2490396E-1,0E0,0E0,0E0,0E0,0E0],"parents":[2147483647,0,0,1,1,2,2,3,3,5,5,6,6,7,7,12,12,13,13],"right_children":[2,4,6,8,-1,10,12,14,-1,-1,-1,-1,16,18,-1,-1,-1,-1,-1],"split_conditions":[2E0,6.5E1,1E0,6.1E1,-7.481808E-2,1.32E2,2.22E2,1.55E2,5.2299153E-2,-7.365988E-2,3.8522054E-2,1.0780892E-1,2.62E2,1.44E2,-6.462679E-2,-5.492835E-2,8.28554E-2,-6.257917E-2,7.6084204E-2],"split_indices":[10,0,6,0,0,3,4,7,0,0,0,0,4,7,0,0,0,0,0],"split_type":[0,0,0,0,0,0,0,0,0,0,0,0,0,0,0,0,0,0,0],"sum_hessian":[1.2877441E1,7.272691E0,5.6047506E0,5.7949376E0,1.477753E0,2.2846377E0,3.3201132E0,3.9680402E0,1.8268973E0,1.0087318E0,1.2759058E0,1.0744097E0,2.2457035E0,2.2306185E0,1.7374216E0,1.2399759E0,1.0057274E0,1.0731463E0,1.1574723E0],"tree_param":{"num_deleted":"0","num_feature":"13","num_nodes":"19","size_leaf_vector":"1"}},{"base_weights":[6.7349863E-3,4.3074362E-2,-5.7330288E-2,1.4769885E-1,-5.8430333E-2,-6.548443E-2,3.0247098E-1,3.181694E-2,-7.983638E-2,1.9091096E-2,-5.78967E-2,1.160245E-1,2.6653504E-2,-8.0103114E-2,6.683506E-2,-9.5848896E-2,5.196548E-2],"categories":[],"categories_nodes":[],"categories_segments":[],"categories_sizes":[],"default_left":[0,0,0,0,0,0,0,0,0,0,0,0,0,0,0,0,0],"id":40,"left_children":[1,3,-1,5,7,9,11,13,-1,-1,-1,-1,-1,15,-1,-1,-1],"loss_changes":[1.0596383E-1,1.3926259E-1,0E0,2.2901928E-1,1.3892215E-1,6.9724716E-2,3.4983397E-2,1.4063312E-1,0E0,0E0,0E0,0E0,0E0,3.1960723E-1,0E0,0E0,0E0],"parents":[2147483647,0,0,1,1,3,3,4,4,5,5,6,6,7,7,13,13],"right_children":[2,4,-1,6,8,10,12,14,-1,-1,-1,-1,-1,16,-1,-1,-1],"split_conditions":[2.5E0,2.41E2,-5.7330288E-2,1E0,1.4E0,5.8E1,1E0,6.3E1,-7.983638E-2,1.9091096E-2,-5.78967E-2,1.160245E-1,2.6653504E-2,1.54E2,6.683506E-2,-9.5848896E-2,5.196548E-2],"split_indices":[9,4,0,2,9,0,11,0,0,0,0,0,0,7,0,0,0],"split_type":[0,0,0,0,0,0,0,0,0,0,0,0,0,0,0,0,0],"sum_hessian":[1.25942545E1,1.1300755E1,1.2935E0,5.340755E0,5.959999E0,2.4891272E0,2.8516278E0,4.744983E0,1.215016E0,1.4855964E0,1.0035306E0,1.4637619E0,1.387866E0,3.357681E0,1.3873023E0,1.5919915E0,1.7656894E0],"tree_param":{"num_deleted":"0","num_feature":"13","num_nodes":"17","size_leaf_vector":"1"}},{"base_weights":[4.1410774E-3,7.579325E-2,-9.027327E-2,2.4393499E-1,-6.923907E-2,-7.890865E-2,1.8335314E-2,2.3035642E-2,1.0401606E-1,-1.7817172E-1,4.5620058E-2,4.384052E-2,-3.281409E-2,1.9992376E-2,-1.0842475E-1],"categories":[],"categories_nodes":[],"categories_segments":[],"categories_sizes":[],"default_left":[0,0,0,0,0,0,0,0,0,0,0,0,0,0,0],"id":41,"left_children":[1,3,5,7,9,-1,11,-1,-1,13,-1,-1,-1,-1,-1],"loss_changes":[9.674389E-2,2.1439162E-1,1.2096929E-1,4.1613847E-2,1.5069818E-1,0E0,9.32792E-2,0E0,0E0,1.9888112E-1,0E0,0E0,0E0,0E0,0E0],"parents":[2147483647,0,0,1,1,2,2,3,3,4,4,6,6,9,9],"right_children":[2,4,6,8,10,-1,12,-1,-1,14,-1,-1,-1,-1,-1],"split_conditions":[3E0,5.8E1,5.2E1,1.57E2,1.42E2,-7.890865E-2,1.48E2,2.3035642E-2,1.0401606E-1,1E0,4.5620058E-2,4.384052E-2,-3.281409E-2,1.9992376E-2,-1.0842475E-1],"split_indices":[12,0,0,7,3,0,7,0,0,1,0,0,0,