{"learner":{"attributes":{"scikit_learn":"{\"_estimator_type\": \"classifier\"}"},"feature_names":[],"feature_types":[],"gradient_booster":{"model":{"gbtree_model_param":{"num_parallel_tree":"1","num_trees":"50"},"iteration_indptr":[0,1,2,3,4,5,6,7,8,9,10,11,12,13,14,15,16,17,18,19,20,21,22,23,24,25,26,27,28,29,30,31,32,33,34,35,36,37,38,39,40,41,42,43,44,45,46,47,48,49,50],"tree_info":[0,0,0,0,0,0,0,0,0,0,0,0,0,0,0,0,0,0,0,0,0,0,0,0,0,0,0,0,0,0,0,0,0,0,0,0,0,0,0,0,0,0,0,0,0,0,0,0,0,0],"trees":[{"base_weights":[2.630185E-3,-1.7341222E0,1.6150367E0,-2.1321487E0,-3.9342445E-1,8.518814E-1,1.6691008E-1,-2.2112057E0,1.0275926E-1,2.0977025E-1,-1.997916E-1,1.2042808E-1,-3.866353E-2,-2.3021547E-1,-1.2436181E0,-1.7666475E-1,7.249172E-1,-2.4769504E-2,-1.8867691E-1,-6.0600705E-2,1.4506803E-1],"categories":[],"categories_nodes":[],"categories_segments":[],"categories_sizes":[],"default_left":[0,0,0,0,0,0,0,0,0,0,0,0,0,0,0,0,0,0,0,0,0],"id":0,"left_children":[1,3,5,7,9,11,-1,13,-1,15,-1,-1,-1,-1,17,-1,19,-1,-1,-1,-1],"loss_changes":[5.520045E2,4.980365E1,2.7955933E0,2.0495209E1,2.263152E1,4.308488E0,0E0,3.4279785E0,0E0,1.9184937E1,0E0,0E0,0E0,0E0,4.8599253E0,0E0,1.5038176E1,0E0,0E0,0E0,0E0],"parents":[2147483647,0,0,1,1,2,2,3,3,4,4,5,5,7,7,9,9,14,14,16,16],"right_children":[2,4,6,8,10,12,-1,14,-1,16,-1,-1,-1,-1,18,-1,20,-1,-1,-1,-1],"split_conditions":[8.658647E-1,2.2471552E-1,-2.1387225E-1,1.159524E0,-1.2066683E-1,1.6852869E-1,1.6691008E-1,1.0544889E0,1.0275926E-1,-4.2888626E-1,-1.997916E-1,1.2042808E-1,-3.866353E-2,-2.3021547E-1,-4.6770146E-1,-1.7666475E-1,5.5424684E-1,-2.4769504E-2,-1.8867691E-1,-6.0600705E-2,1.4506803E-1],"split_indices":[10,3,11,4,9,9,0,2,0,10,0,0,0,0,9,0,1,0,0,0,0],"split_type":[0,0,0,0,0,0,0,0,0,0,0,0,0,0,0,0,0,0,0,0,0],"sum_hessian":[1.9511966E2,9.390134E1,1.0121832E2,7.195037E1,2.1950962E1,7.804786E0,9.3413536E1,7.048698E1,1.4633974E0,1.658517E1,5.3657904E0,6.0974894E0,1.707297E0,6.3169987E1,7.316987E0,2.9267948E0,1.3658376E1,3.414594E0,3.902393E0,4.877991E0,8.780384E0],"tree_param":{"num_deleted":"0","num_feature":"12","num_nodes":"21","size_leaf_vector":"1"}},{"base_weights":[2.9358242E-3,-1.5403017E0,1.5045578E0,-1.8812373E0,-3.6556783E-1,7.880566E-1,1.5561403E-1,-1.9508456E0,9.77798E-2,4.8736924E-1,-1.3190137E0,1.12321116E-1,-3.608871E-2,-2.02619E-1,-1.1310072E0,-4.909654E-1,1.1028745E0,1.615925E-1,-1.805455E-1,-2.2784349E-2,-1.7063557E-1,-1.219657E-1,-9.647185E-4,9.820695E-4,1.3902159E-1,-5.6464512E-2,9.041981E-2],"categories":[],"categories_nodes":[],"categories_segments":[],"categories_sizes":[],"default_left":[0,0,0,0,0,0,0,0,0,0,0,0,0,0,0,0,0,0,0,0,0,0,0,0,0,0,0],"id":1,"left_children":[1,3,5,7,9,11,-1,13,-1,15,17,-1,-1,-1,19,21,23,25,-1,-1,-1,-1,-1,-1,-1,-1,-1],"loss_changes":[4.5301633E2,3.7924957E1,2.4355164E0,1.6730286E1,1.9288177E1,3.7477465E0,0E0,2.220398E0,0E0,8.268406E0,8.28319E0,0E0,0E0,0E0,3.982068E0,1.9689319E0,2.5569277E0,2.4853704E0,0E0,0E0,0E0,0E0,0E0,0E0,0E0,0E0,0E0],"parents":[2147483647,0,0,1,1,2,2,3,3,4,4,5,5,7,7,9,9,10,10,14,14,15,15,16,16,17,17],"right_children":[2,4,6,8,10,12,-1,14,-1,16,18,-1,-1,-1,20,22,24,26,-1,-1,-1,-1,-1,-1,-1,-1,-1],"split_conditions":[8.658647E-1,2.2471552E-1,-2.1387225E-1,1.159524E0,1.3541062E0,1.6852869E-1,1.5561403E-1,1.0544889E0,9.77798E-2,-2.1501903E-1,-6.990579E-1,1.12321116E-1,-3.608871E-2,-2.02619E-1,-4.6770146E-1,-1.5281123E0,-2.1387225E-1,1.5184811E0,-1.805455E-1,-2.2784349E-2,-1.7063557E-1,-1.219657E-1,-9.647185E-4,9.820695E-4,1.3902159E-1,-5.6464512E-2,9.041981E-2],"split_indices":[10,3,11,4,3,9,0,2,0,7,9,0,0,0,9,7,11,5,0,0,0,0,0,0,0,0,0],"split_type":[0,0,0,0,0,0,0,0,0,0,0,0,0,0,0,0,0,0,0,0,0,0,0,0,0,0,0],"sum_hessian":[1.9348811E2,9.540911E1,9.8079E1,7.348159E1,2.1927519E1,7.679882E0,9.0399124E1,7.204518E1,1.4364115E0,1.183181E1,1.0095709E1,5.9628696E0,1.7170124E0,6.463378E1,7.4114027E0,4.6473184E0,7.184491E0,2.6617646E0,7.4339437E0,3.427318E0,3.9840848E0,1.2384199E0,3.4088984E0,1.7107878E0,5.473704E0,1.4668698E0,1.1948949E0],"tree_param":{"num_deleted":"0","num_feature":"12","num_nodes":"27","size_leaf_vector":"1"}},{"base_weights":[3.3836642E-3,-1.3940632E0,1.4151669E0,-1.6995407E0,-3.3584425E-1,7.3179543E-1,1.4655194E-1,-1.7630057E0,9.329569E-2,1.8066639E-1,-1.6598266E-1,1.05232194E-1,-3.370373E-2,-1.8294947E-1,-1.0375894E0,-1.5265705E-1,6.4520454E-1,-2.0966427E-2,-1.5651701E-1,-5.1519312E-2,1.3112883E-1],"categories":[],"categories_nodes":[],"categories_segments":[],"categories_sizes":[],"default_left":[0,0,0,0,0,0,0,0,0,0,0,0,0,0,0,0,0,0,0,0,0],"id":2,"left_children":[1,3,5,7,9,11,-1,13,-1,15,-1,-1,-1,-1,17,-1,19,-1,-1,-1,-1],"loss_changes":[3.7746152E2,3.0511322E1,2.202362E0,1.4069321E1,1.5881317E1,3.2765036E0,0E0,1.6208649E0,0E0,1.469916E1,0E0,0E0,0E0,0E0,3.3567448E0,0E0,1.1725662E1,0E0,0E0,0E0,0E0],"parents":[2147483647,0,0,1,1,2,2,3,3,4,4,5,5,7,7,9,9,14,14,16,16],"right_children":[2,4,6,8,10,12,-1,14,-1,16,-1,-1,-1,-1,18,-1,20,-1,-1,-1,-1],"split_conditions":[8.658647E-1,2.2471552E-1,-2.1387225E-1,1.159524E0,-1.2066683E-1,1.6852869E-1,1.4655194E-1,1.0544889E0,9.329569E-2,-4.2888626E-1,-1.6598266E-1,1.05232194E-1,-3.370373E-2,-1.8294947E-1,-4.6770146E-1,-1.5265705E-1,5.5424684E-1,-2.0966427E-2,-1.5651701E-1,-5.1519312E-2,1.3112883E-1],"split_indices":[10,3,11,4,9,9,0,2,0,10,0,0,0,0,9,0,1,0,0,0,0],"split_type":[0,0,0,0,0,0,0,0,0,0,0,0,0,0,0,0,0,0,0,0,0],"sum_hessian":[1.8932397E2,9.515138E1,9.417259E1,7.336653E1,2.1784851E1,7.5286765E0,8.664392E1,7.1961945E1,1.4045866E0,1.6292414E1,5.492437E0,5.8036876E0,1.7249889E0,6.452576E1,7.436189E0,2.9958978E0,1.3296516E1,3.438152E0,3.998037E0,4.9316053E0,8.364911E0],"tree_param":{"num_deleted":"0","num_feature":"12","num_nodes":"21","size_leaf_vector":"1"}},{"base_weights":[2.8394577E-3,-1.2826048E0,1.3411113E0,-1.3825216E0,1.1942246E-1,1.4085788E-1,7.7491474E-1,-1.6206943E0,-4.8612761E-1,-5.8475774E-2,1.1147649E0,-4.104604E-2,-1.6444429E0,2.891434E-1,-1.2547816E0,6.7820767E-4,1.2858234E-1,-1.6966316E-1,-1.0410886E-1,-6.2964045E-2,9.315416E-2,-1.4944492E-1,1.7377732E-2],"categories":[],"categories_nodes":[],"categories_segments":[],"categories_sizes":[],"default_left":[0,0,0,0,0,0,0,0,0,0,0,0,0,0,0,0,0,0,0,0,0,0,0],"id":3,"left_children":[1,3,5,7,-1,-1,9,11,13,-1,15,-1,17,19,21,-1,-1,-1,-1,-1,-1,-1,-1],"loss_changes":[3.187545E2,2.5040817E1,2.3762665E0,1.8706863E1,0E0,0E0,6.145334E0,1.3861847E0,1.2636845E1,0E0,1.8591347E0,0E0,4.3788147E-1,7.1185913E0,3.8649197E0,0E0,0E0,0E0,0E0,0E0,0E0,0E0,0E0],"parents":[2147483647,0,0,1,1,2,2,3,3,6,6,7,7,8,8,10,10,12,12,13,13,14,14],"right_children":[2,4,6,8,-1,-1,10,12,14,-1,16,-1,18,20,22,-1,-1,-1,-1,-1,-1,-1,-1],"split_conditions":[8.658647E-1,1.159524E0,1.6145064E0,2.2471552E-1,1.1942246E-1,1.4085788E-1,-8.382404E-1,-1.3711041E0,1.3541062E0,-5.8475774E-2,-1.2079552E0,-4.104604E-2,1.0544889E0,-2.1501903E-1,2.0985372E0,6.7820767E-4,1.2858234E-1,-1.6966316E-1,-1.0410886E-1,-6.2964045E-2,9.315416E-2,-1.4944492E-1,1.7377732E-2],"split_indices":[10,4,9,3,0,0,3,4,3,0,0,0,2,7,2,0,0,0,0,0,0,0,0],"split_type":[0,0,0,0,0,0,0,0,0,0,0,0,0,0,0,0,0,0,0,0,0,0,0],"sum_hessian":[1.8329297E2,9.351297E1,8.978E1,9.031157E1,3.2014053E0,7.889156E1,1.08884325E1,7.0714615E1,1.9596947E1,2.0332346E0,8.855198E0,1.7128196E0,6.90018E1,1.0067058E1,9.52989E0,1.3233333E0,7.5318646E0,6.184073E1,7.1610713E0,4.150584E0,5.9164734E0,8.12127E0,1.4086196E0],"tree_param":{"num_deleted":"0","num_feature":"12","num_nodes":"23","size_leaf_vector":"1"}},{"base_weights":[3.1481239E-3,-1.1887472E0,1.278064E0,-1.2820513E0,1.13602854E-1,6.0178405E-1,1.33102E-1,-1.5070726E0,-4.4790003E-1,9.093416E-1,-3.3826258E-2,-1.5685757E0,-8.704691E-1,2.6699847E-1,-1.1549367E0,2.6868347E-2,9.884106E-1,-1.5988517E-1,-8.337185E-2,2.1439293E-2,-1.184026E-1,-5.767702E-2,8.726281E-2,-1.3785814E-1,1.6394703E-2,1.10768974E-1,2.6868347E-2],"categories":[],"categories_nodes":[],"categories_segments":[],"categories_sizes":[],"default_left":[0,0,0,0,0,0,0,0,0,0,0,0,0,0,0,0,0,0,0,0,0,0,0,0,0,0,0],"id":4,"left_children":[1,3,5,7,-1,9,-1,11,13,15,-1,17,19,21,23,-1,25,-1,-1,-1,-1,-1,-1,-1,-1,-1,-1],"loss_changes":[2.7094293E2,2.1445496E1,2.2843018E0,1.604306E1,0E0,2.6440458E0,0E0,1.3644104E0,1.0592038E1,5.661583E-2,0E0,5.381775E-2,3.1076355E0,6.087937E0,3.2985153E0,0E0,1.5636492E-1,0E0,0E0,0E0,0E0,0E0,0E0,0E0,0E0,0E0,0E0],"parents":[2147483647,0,0,1,1,2,2,3,3,5,5,7,7,8,8,9,9,11,11,12,12,13,13,14,14,16,16],"right_children":[2,4,6,8,-1,10,-1,12,14,16,-1,18,20,22,24,-1,26,-1,-1,-1,-1,-1,-1,-1,-1,-1,-1],"split_conditions":[8.658647E-1,1.159524E0,-2.1387225E-1,2.2471552E-1,1.13602854E-1,1.6852869E-1,1.33102E-1,1.0544889E0,1.3541062E0,-1.039921E0,-3.3826258E-2,-4.102345E-2,-6.057188E-1,-2.1501903E-1,2.0985372E0,2.6868347E-2,8.084541E-1,-1.5988517E-1,-8.337185E-2,2.1439293E-2,-1.184026E-1,-5.767702E-2,8.726281E-2,-1.3785814E-1,1.6394703E-2,1.10768974E-1,2.6868347E-2],"split_indices":[10,4,11,3,0,9,0,2,3,0,0,3,3,7,2,0,0,0,0,0,0,0,0,0,0,0,0],"split_type":[0,0,0,0,0,0,0,0,0,0,0,0,0,0,0,0,0,0,0,0,0,0,0,0,0,0,0],"sum_hessian":[1.76303E2,9.115317E1,8.5149826E1,8.806715E1,3.0860195E0,7.0812893E0,7.8068535E1,6.872195E1,1.9345201E1,5.3602314E0,1.7210579E0,6.1332546E1,7.389402E0,9.928585E0,9.416616E0,1.0720463E0,4.288185E0,5.777644E1,3.556107E0,1.7277813E0,5.661621E0,4.1685605E0,5.760024E0,8.012639E0,1.4039769E0,3.2161388E0,1.0720463E0],"tree_param":{"num_deleted":"0","num_feature":"12","num_nodes":"27","size_leaf_vector":"1"}},{"base_weights":[3.3655316E-3,-1.1114666E0,1.2244809E0,-1.3630491E0,-2.673502E-1,1.2954246E-1,6.529448E-1,-1.415564E0,7.985286E-2,1.6984254E-1,-1.3912708E-1,-5.9961732E-2,9.980682E-1,-1.477603E0,-8.003845E-1,-1.2982605E-1,5.794788E-1,-5.126707E-3,1.17670156E-1,-1.5067486E-1,-7.816974E-2,-5.3224983E-3,-1.3281254E-1,-4.367233E-2,1.19954124E-1],"categories":[],"categories_nodes":[],"categories_segments":[],"categories_sizes":[],"default_left":[0,0,0,0,0,0,0,0,0,0,0,0,0,0,0,0,0,0,0,0,0,0,0,0,0],"id":5,"left_children":[1,3,5,7,9,-1,11,13,-1,15,-1,-1,17,19,21,-1,23,-1,-1,-1,-1,-1,-1,-1,-1],"loss_changes":[2.3218651E2,1.8570122E1,2.4545593E0,8.899811E0,1.0906907E1,0E0,5.355499E0,1.3813477E0,0E0,1.0690631E1,0E0,0E0,1.7478161E0,3.6010742E-2,3.2163625E0,0E0,9.1008415E0,0E0,0E0,0E0,0E0,0E0,0E0,0E0,0E0],"parents":[2147483647,0,0,1,1,2,2,3,3,4,4,6,6,7,7,9,9,12,12,13,13,14,14,16,16],"right_children":[2,4,6,8,10,-1,12,14,-1,16,-1,-1,18,20,22,-1,24,-1,-1,-1,-1,-1,-1,-1,-1],"split_conditions":[8.658647E-1,2.2471552E-1,1.6145064E0,1.159524E0,-1.2066683E-1,1.2954246E-1,-8.382404E-1,1.0544889E0,7.985286E-2,-4.2888626E-1,-1.3912708E-1,-5.9961732E-2,-1.2079552E0,-4.102345E-2,-4.6770146E-1,-1.2982605E-1,5.5424684E-1,-5.126707E-3,1.17670156E-1,-1.5067486E-1,-7.816974E-2,-5.3224983E-3,-1.3281254E-1,-4.367233E-2,1.19954124E-1],"split_indices":[10,3,9,4,9,0,3,2,0,10,0,0,0,3,9,0,1,0,0,0,0,0,0,0,0],"split_type":[0,0,0,0,0,0,0,0,0,0,0,0,0,0,0,0,0,0,0,0,0,0,0,0,0],"sum_hessian":[1.6855775E2,8.8160416E1,8.039734E1,6.7444374E1,2.0716042E1,7.039303E1,1.0004315E1,6.618164E1,1.2627357E0,1.5525627E1,5.190415E0,2.0017893E0,8.002526E0,5.8845356E1,7.3362827E0,2.9137356E0,1.2611892E1,1.2678535E0,6.7346725E0,5.5361553E1,3.4838023E0,3.4925256E0,3.8437572E0,4.891324E0,7.7205677E0],"tree_param":{"num_deleted":"0","num_feature":"12","num_nodes":"25","size_leaf_vector":"1"}},{"base_weights":[1.9743876E-3,-1.0498704E0,1.176996E0,-1.1354513E0,1.0553527E-1,5.0003344E-1,1.2339212E0,-1.3412207E0,-3.9913562E-1,7.986455E-1,-3.3542022E-2,1.24655865E-1,4.3836363E-2,-2.3346893E-2,-1.3659719E0,3.2864538E-1,-9.531766E-1,1.965529E-2,8.8194376E-1,-1.4179814E-1,-8.315494E-2,-4.6049967E-2,8.7338485E-2,-1.23528354E-1,-3.758092E-3,1.00816526E-1,1.965529E-2],"categories":[],"categories_nodes":[],"categories_segments":[],"categories_sizes":[],"default_left":[0,0,0,0,0,0,0,0,0,0,0,0,0,0,0,0,0,0,0,0,0,0,0,0,0,0,0],"id":6,"left_children":[1,3,5,7,-1,9,11,13,15,17,-1,-1,-1,-1,19,21,23,-1,25,-1,-1,-1,-1,-1,-1,-1,-1],"loss_changes":[2.0051228E2,1.6621552E1,2.3360062E0,1.2001144E1,0E0,2.1702006E0,1.5736389E-1,1.4426041E0,8.174562E0,1.23217344E-1,0E0,0E0,0E0,0E0,5.618515E-1,4.3443847E0,2.8789854E0,0E0,2.2641873E-1,0E0,0E0,0E0,0E0,0E0,0E0,0E0,0E0],"parents":[2147483647,0,0,1,1,2,2,3,3,5,5,6,6,7,7,8,8,9,9,14,14,15,15,16,16,18,18],"right_children":[2,4,6,8,-1,10,12,14,16,18,-1,-1,-1,-1,20,22,24,-1,26,-1,-1,-1,-1,-1,-1,-1,-1],"split_conditions":[8.658647E-1,1.159524E0,-2.1387225E-1,2.2471552E-1,1.0553527E-1,1.6852869E-1,1.5534104E0,-1.3711041E0,1.254454E0,-1.039921E0,-3.3542022E-2,1.24655865E-1,4.3836363E-2,-2.3346893E-2,1.0544889E0,-2.1501903E-1,1.5184811E0,1.965529E-2,8.084541E-1,-1.4179814E-1,-8.315494E-2,-4.6049967E-2,8.7338485E-2,-1.23528354E-1,-3.758092E-3,1.00816526E-1,1.965529E-2],"split_indices":[10,4,11,3,0,9,3,4,3,0,0,0,0,0,2,7,5,0,0,0,0,0,0,0,0,0,0],"split_type":[0,0,0,0,0,0,0,0,0,0,0,0,0,0,0,0,0,0,0,0,0,0,0,0,0,0,0],"sum_hessian":[1.6023479E2,8.460521E1,7.562958E1,8.174287E1,2.8623405E0,6.6252403E0,6.900434E1,6.324658E1,1.8496292E1,4.913198E0,1.7120423E0,6.736731E1,1.6370344E0,1.6102841E0,6.1636295E1,8.170479E0,1.0325812E1,1.0054293E0,3.907769E0,5.4663227E1,6.973068E0,3.3998609E0,4.770618E0,7.6267533E0,2.699059E0,2.9023397E0,1.0054293E0],"tree_param":{"num_deleted":"0","num_feature":"12","num_nodes":"27","size_leaf_vector":"1"}},{"base_weights":[2.6685041E-3,-9.913165E-1,1.1355253E0,-1.0731757E0,1.0123135E-1,1.2120981E0,5.4791856E-1,-1.2756662E0,-3.7044686E-1,1.2413382E-1,6.5397006E-1,-4.4742694E-1,9.97625E-1,-1.341219E0,-6.839962E-1,2.2860034E-1,-9.6969664E-1,9.471873E-2,-1.0143086E-2,-1.14072956E-1,3.919678E-2,2.7450962E-2,1.0815146E-1,-1.3723235E-1,-6.554081E-2,1.228019E-3,-1.2107562E-1,-4.6213277E-2,7.558327E-2,5.5361204E-3,-1.2509328E-1],"categories":[],"categories_nodes":[],"categories_segments":[],"categories_sizes":[],"default_left":[0,0,0,0,0,0,0,0,0,0,0,0,0,0,0,0,0,0,0,0,0,0,0,0,0,0,0,0,0,0,0],"id":7,"left_children":[1,3,5,7,-1,9,11,13,15,-1,17,19,21,23,25,27,29,-1,-1,-1,-1,-1,-1,-1,-1,-1,-1,-1,-1,-1,-1],"loss_changes":[1.7342995E2,1.4541946E1,2.5745544E0,1.0812012E1,0E0,2.1398926E-1,4.977728E0,1.4545288E0,7.0956964E0,0E0,1.2572584E0,2.6823094E0,1.448884E-1,2.5279236E-1,3.0005386E0,4.1313663E0,2.8839264E0,0E0,0E0,0E0,0E0,0E0,0E0,0E0,0E0,0E0,0E0,0E0,0E0,0E0,0E0],"parents":[2147483647,0,0,1,1,2,2,3,3,5,5,6,6,7,7,8,8,10,10,11,11,12,12,13,13,14,14,15,15,16,16],"right_children":[2,4,6,8,-1,10,12,14,16,-1,18,20,22,24,26,28,30,-1,-1,-1,-1,-1,-1,-1,-1,-1,-1,-1,-1,-1,-1],"split_conditions":[8.658647E-1,1.159524E0,1.6145064E0,2.2471552E-1,1.0123135E-1,1.5366019E0,-5.9183013E-1,1.0544889E0,1.3541062E0,1.2413382E-1,1.2212367E0,-3.0676243E-1,-2.4486205E-1,-4.102345E-2,-4.6770146E-1,-2.1501903E-1,-6.990579E-1,9.471873E-2,-1.0143086E-2,-1.14072956E-1,3.919678E-2,2.7450962E-2,1.0815146E-1,-1.3723235E-1,-6.554081E-2,1.228019E-3,-1.2107562E-1,-4.6213277E-2,7.558327E-2,5.5361204E-3,-1.2509328E-1],"split_indices":[10,4,9,3,0,0,0,2,3,0,3,3,7,3,9,7,9,0,0,0,0,0,0,0,0,0,0,0,0,0,0],"split_type":[0,0,0,0,0,0,0,0,0,0,0,0,0,0,0,0,0,0,0,0,0,0,0,0,0,0,0,0,0,0,0],"sum_hessian":[1.5201753E2,8.10383E1,7.097923E1,7.830356E1,2.7347422E0,6.1855846E1,9.123388E0,6.015473E1,1.8148825E1,5.76134E1,4.242448E0,2.840815E0,6.2825727E0,5.30143E1,7.1404305E0,9.38526E0,8.763565E0,2.8732693E0,1.3691783E0,1.3591923E0,1.4816228E0,1.0971954E0,5.1853776E0,4.9756603E1,3.257697E0,3.4960308E0,3.6443996E0,4.116137E0,5.2691226E0,2.0596485E0,6.703917E0],"tree_param":{"num_deleted":"0","num_feature":"12","num_nodes":"31","size_leaf_vector":"1"}},{"base_weights":[2.6442944E-3,-9.421479E-1,1.098253E0,-1.1738305E0,-2.1953335E-1,1.1765184E0,5.175654E-1,-1.2216142E0,6.957085E-2,1.6405304E-1,-1.23269714E-1,1.20659076E-1,6.2354004E-1,-4.2160454E-1,9.614897E-1,-1.2886333E0,-6.4239734E-1,-1.1512648E-1,5.3462046E-1,9.1527306E-2,-9.524143E-3,-1.0611688E-1,3.7321437E-2,2.6189892E-2,1.0459717E-1,-1.3204019E-1,-6.1732586E-2,3.2621823E-2,-9.516266E-2,-3.7526518E-2,1.1213638E-1],"categories":[],"categories_nodes":[],"categories_segments":[],"categories_sizes":[],"default_left":[0,0,0,0,0,0,0,0,0,0,0,0,0,0,0,0,0,0,0,0,0,0,0,0,0,0,0,0,0,0,0],"id":8,"left_children":[1,3,5,7,9,11,13,15,-1,17,-1,-1,19,21,23,25,27,-1,29,-1,-1,-1,-1,-1,-1,-1,-1,-1,-1,-1,-1],"loss_changes":[1.5084688E2,1.2842949E1,2.4577637E0,6.122696E0,8.063484E0,2.2341156E-1,4.4911375E0,1.4203796E0,0E0,8.197332E0,0E0,0E0,1.1557392E0,2.348359E0,1.3737535E-1,2.7072144E-1,2.7067225E0,0E0,7.2644777E0,0E0,0E0,0E0,0E0,0E0,0E0,0E0,0E0,0E0,0E0,0E0,0E0],"parents":[2147483647,0,0,1,1,2,2,3,3,4,4,5,5,6,6,7,7,9,9,12,12,13,13,14,14,15,15,16,16,18,18],"right_children":[2,4,6,8,10,12,14,16,-1,18,-1,-1,20,22,24,26,28,-1,30,-1,-1,-1,-1,-1,-1,-1,-1,-1,-1,-1,-1],"split_conditions":[8.658647E-1,2.2471552E-1,1.6145064E0,1.159524E0,-1.2066683E-1,1.5366019E0,-5.9183013E-1,1.0544889E0,6.957085E-2,-4.2888626E-1,-1.23269714E-1,1.20659076E-1,1.2212367E0,-3.0676243E-1,-2.4486205E-1,-4.102345E-2,-6.057188E-1,-1.1512648E-1,5.5424684E-1,9.1527306E-2,-9.524143E-3,-1.0611688E-1,3.7321437E-2,2.6189892E-2,1.0459717E-1,-1.3204019E-1,-6.1732586E-2,3.2621823E-2,-9.516266E-2,-3.7526518E-2,1.1213638E-1],"split_indices":[10,3,9,4,9,0,0,2,0,10,0,0,3,3,7,3,3,0,1,0,0,0,0,0,0,0,0,0,0,0,0],"split_type":[0,0,0,0,0,0,0,0,0,0,0,0,0,0,0,0,0,0,0,0,0,0,0,0,0,0,0,0,0,0,0],"sum_hessian":[1.437289E2,7.725153E1,6.647737E1,5.8023716E1,1.922782E1,5.7677486E1,8.799881E0,5.6915573E1,1.1081401E0,1.4555245E1,4.6725745E0,5.3581604E1,4.095882E0,2.8405879E0,5.9592934E0,4.991527E1,7.000303E0,2.7362494E0,1.1818995E1,2.718964E0,1.3769181E0,1.388334E0,1.4522538E0,1.0838718E0,4.8754215E0,4.6736626E1,3.178646E0,1.680728E0,5.319575E0,4.774861E0,7.044135E0],"tree_param":{"num_deleted":"0","num_feature":"12","num_nodes":"31","size_leaf_vector":"1"}},{"base_weights":[2.2929288E-3,-8.999649E-1,1.0646595E0,-9.778512E-1,9.5142365E-2,3.62688E-1,1.1303307E0,-1.1968086E0,-3.9985347E-1,-3.1306587E-2,6.7425585E-1,1.1453225E-1,3.1207863E-2,-1.2763482E-1,-5.946431E-1,-1.22430824E-1,-2.3925072E-2,9.586053E-2,-1.4511056E-2,5.7010837E-3,-1.12226106E-1,3.3934183E-2,-1.1217102E-1],"categories":[],"categories_nodes":[],"categories_segments":[],"categories_sizes":[],"default_left":[0,0,0,0,0,0,0,0,0,0,0,0,0,0,0,0,0,0,0,0,0,0,0],"id":9,"left_children":[1,3,5,7,-1,9,11,13,15,-1,17,-1,-1,-1,19,-1,21,-1,-1,-1,-1,-1,-1],"loss_changes":[1.3178001E2,1.1650631E1,2.5006485E0,8.612801E0,0E0,1.6583292E0,3.450241E-1,1.7123642E0,6.553171E0,0E0,1.3091066E0,0E0,0E0,0E0,2.7776494E0,0E0,6.6044807E0,0E0,0E0,0E0,0E0,0E0,0E0],"parents":[2147483647,0,0,1,1,2,2,3,3,5,5,6,6,7,7,8,8,10,10,14,14,16,16],"right_children":[2,4,6,8,-1,10,12,14,16,-1,18,-1,-1,-1,20,-1,22,-1,-1,-1,-1,-1,-1],"split_conditions":[8.658647E-1,1.159524E0,-2.1387225E-1,-4.102345E-2,9.5142365E-2,-9.839097E-1,1.5534104E0,1.0544889E0,-4.2888626E-1,-3.1306587E-2,8.644655E-1,1.1453225E-1,3.1207863E-2,-1.2763482E-1,-4.6770146E-1,-1.22430824E-1,-1.2066683E-1,9.586053E-2,-1.4511056E-2,5.7010837E-3,-1.12226106E-1,3.3934183E-2,-1.1217102E-1],"split_indices":[10,4,11,3,0,0,3,2,10,0,0,0,0,0,9,0,9,0,0,0,0,0,0],"split_type":[0,0,0,0,0,0,0,0,0,0,0,0,0,0,0,0,0,0,0,0,0,0,0],"sum_hessian":[1.3548196E2,7.334425E1,6.213771E1,7.083607E1,2.5081835E0,5.8738527E0,5.626386E1,5.0597927E1,2.023814E1,1.8520869E0,4.0217657E0,5.4859035E1,1.4048241E0,4.3705326E1,6.892602E0,5.6312943E0,1.4606846E1,2.859487E0,1.1622789E0,3.4828842E0,3.4097176E0,1.1494198E1,3.1126475E0],"tree_param":{"num_deleted":"0","num_feature":"12","num_nodes":"23","size_leaf_vector":"1"}},{"base_weights":[1.227167E-3,-8.6070853E-1,1.0325081E0,-9.3631536E-1,9.171795E-2,1.1187091E0,4.288393E-1,-1.1557564E0,-3.7894988E-1,1.15231216E-1,5.4352957E-1,-4.6131325E-1,8.8919604E-1,-1.2385422E-1,-5.603963E-1,-1.1725276E-1,-2.7300833E-2,8.530682E-2,-1.4789089E-2,-1.00505225E-1,3.565216E-2,2.1338044E-2,9.7930275E-2,5.2572894E-3,-1.074123E-1,3.329048E-2,-1.01216115E-1],"categories":[],"categories_nodes":[],"categories_segments":[],"categories_sizes":[],"default_left":[0,0,0,0,0,0,0,0,0,0,0,0,0,0,0,0,0,0,0,0,0,0,0,0,0,0,0],"id":10,"left_children":[1,3,5,7,-1,9,11,13,15,-1,17,19,21,-1,23,-1,25,-1,-1,-1,-1,-1,-1,-1,-1,-1,-1],"loss_changes":[1.15218025E2,1.0349846E1,2.5910416E0,7.9061813E0,0E0,3.5971832E-1,4.096363E0,1.6944962E0,5.761278E0,0E0,1.1339399E0,2.0146558E0,1.728878E-1,0E0,2.494559E0,0E0,5.803443E0,0E0,0E0,0E0,0E0,0E0,0E0,0E0,0E0,0E0,0E0],"parents":[2147483647,0,0,1,1,2,2,3,3,5,5,6,6,7,7,8,8,10,10,11,11,12,12,14,14,16,16],"right_children":[2,4,6,8,-1,10,12,14,16,-1,18,20,22,-1,24,-1,26,-1,-1,-1,-1,-1,-1,-1,-1,-1,-1],"split_conditions":[8.658647E-1,1.159524E0,1.6145064E0,-4.102345E-2,9.171795E-2,1.5366019E0,-5.9183013E-1,1.0544889E0,-4.2888626E-1,1.15231216E-1,1.2212367E0,1.8458627E0,-2.4486205E-1,-1.2385422E-1,-4.6770146E-1,-1.1725276E-1,-1.7850594E-1,8.530682E-2,-1.4789089E-2,-1.00505225E-1,3.565216E-2,2.1338044E-2,9.7930275E-2,5.2572894E-3,-1.074123E-1,3.329048E-2,-1.01216115E-1],"split_indices":[10,4,9,3,0,0,0,2,10,0,3,9,7,0,9,0,9,0,0,0,0,0,0,0,0,0,0],"split_type":[0,0,0,0,0,0,0,0,0,0,0,0,0,0,0,0,0,0,0,0,0,0,0,0,0,0,0],"sum_hessian":[1.276192E2,6.960736E1,5.8011837E1,6.722202E1,2.3853424E0,5.0016533E1,7.9953046E0,4.746207E1,1.9759953E1,4.6307755E1,3.7087777E0,2.7247024E0,5.270602E0,4.0719612E1,6.7424583E0,5.3506346E0,1.4409317E1,2.4003747E0,1.308403E0,1.499103E0,1.2255994E0,1.0162959E0,4.2543063E0,3.4835794E0,3.2588787E0,1.1035236E1,3.3740811E0],"tree_param":{"num_deleted":"0","num_feature":"12","num_nodes":"27","size_leaf_vector":"1"}},{"base_weights":[6.917581E-4,-8.2461363E-1,1.0034639E0,-1.0486525E0,-1.8685359E-1,2.846962E-1,1.0766759E0,-1.0934002E0,3.6097094E-2,4.0901554E-1,-6.809911E-1,-3.2864075E-2,5.923101E-1,1.093347E-1,2.5848953E-2,-1.1267483E0,2.5512167E-4,-8.1071205E-2,7.121994E-1,3.108324E-1,-9.98827E-1,8.880429E-2,-1.7569678E-2,-1.19179785E-1,-6.1599333E-2,1.3700442E-2,1.0564758E-1,4.553876E-2,-6.7090243E-4,-1.1221718E-1,-3.6094837E-2],"categories":[],"categories_nodes":[],"categories_segments":[],"categories_sizes":[],"default_left":[0,0,0,0,0,0,0,0,0,0,0,0,0,0,0,0,0,0,0,0,0,0,0,0,0,0,0,0,0,0,0],"id":11,"left_children":[1,3,5,7,9,11,13,15,-1,17,19,-1,21,-1,-1,23,-1,-1,25,27,29,-1,-1,-1,-1,-1,-1,-1,-1,-1,-1],"loss_changes":[1.0102818E2,9.3719635E0,2.593586E0,3.5068092E0,5.762508E0,1.4123572E0,3.9470673E-1,1.7596741E0,0E0,3.9307938E0,3.638392E0,0E0,1.2133287E0,0E0,0E0,8.158188E-1,0E0,0E0,1.3989034E0,1.5566507E-1,2.4265766E-1,0E0,0E0,0E0,0E0,0E0,0E0,0E0,0E0,0E0,0E0],"parents":[2147483647,0,0,1,1,2,2,3,3,4,4,5,5,6,6,7,7,9,9,10,10,12,12,15,15,18,18,19,19,20,20],"right_children":[2,4,6,8,10,12,14,16,-1,18,20,-1,22,-1,-1,24,-1,-1,26,28,30,-1,-1,-1,-1,-1,-1,-1,-1,-1,-1],"split_conditions":[8.658647E-1,2.2471552E-1,-2.1387225E-1,1.1443704E0,-6.990579E-1,-9.839097E-1,1.5534104E0,1.6837238E0,3.6097094E-2,-4.2888626E-1,1.1215845E0,-3.2864075E-2,8.644655E-1,1.093347E-1,2.5848953E-2,1.0544889E0,2.5512167E-4,-8.1071205E-2,5.5424684E-1,-2.3634504E-1,1.0544889E0,8.880429E-2,-1.7569678E-2,-1.19179785E-1,-6.1599333E-2,1.3700442E-2,1.0564758E-1,4.553876E-2,-6.7090243E-4,-1.1221718E-1,-3.6094837E-2],"split_indices":[10,3,11,4,9,0,3,6,0,10,3,0,0,0,0,2,0,0,1,9,2,0,0,0,0,0,0,0,0,0,0],"split_type":[0,0,0,0,0,0,0,0,0,0,0,0,0,0,0,0,0,0,0,0,0,0,0,0,0,0,0,0,0,0,0],"sum_hessian":[1.20074844E2,6.596321E1,5.4111633E1,4.83382E1,1.7625011E1,5.4540935E0,4.865754E1,4.706837E1,1.2698271E0,8.068117E0,9.556894E0,1.7989322E0,3.6551611E0,4.735632E1,1.3012209E0,4.5651176E1,1.4171941E0,1.2729529E0,6.795164E0,2.324671E0,7.232223E0,2.5261378E0,1.1290234E0,3.9311123E1,6.3400545E0,3.067736E0,3.7274282E0,1.2991511E0,1.0255201E0,5.4241467E0,1.8080766E0],"tree_param":{"num_deleted":"0","num_feature":"12","num_nodes":"31","size_leaf_vector":"1"}},{"base_weights":[5.7308126E-4,-7.886126E-1,9.7495043E-1,-8.6215943E-1,8.6946405E-2,1.0707498E0,3.4683555E-1,-1.0995797E0,-3.6657947E-1,1.1087964E-1,4.6953535E-1,-6.670073E-2,7.3820096E-1,-1.1769169E-1,-5.771269E-1,-1.1068823E-1,-3.665E-2,7.97867E-2,-1.9410657E-2,-1.5972223E-2,9.5291816E-2,4.0219095E-2,-9.316734E-2,3.4841634E-2,-8.445807E-2],"categories":[],"categories_nodes":[],"categories_segments":[],"categories_sizes":[],"default_left":[0,0,0,0,0,0,0,0,0,0,0,0,0,0,0,0,0,0,0,0,0,0,0,0,0],"id":12,"left_children":[1,3,5,7,-1,9,11,13,15,-1,17,-1,19,-1,21,-1,23,-1,-1,-1,-1,-1,-1,-1,-1],"loss_changes":[8.838651E1,8.4939995E0,2.723671E0,6.810856E0,0E0,4.8927307E-1,3.7800827E0,9.754524E-1,5.176316E0,0E0,1.1053596E0,0E0,1.396308E0,0E0,2.8894503E0,0E0,5.2124653E0,0E0,0E0,0E0,0E0,0E0,0E0,0E0,0E0],"parents":[2147483647,0,0,1,1,2,2,3,3,5,5,6,6,7,7,8,8,10,10,12,12,14,14,16,16],"right_children":[2,4,6,8,-1,10,12,14,16,-1,18,-1,20,-1,22,-1,24,-1,-1,-1,-1,-1,-1,-1,-1],"split_conditions":[8.658647E-1,1.159524E0,1.6145064E0,-2.7354506E-1,8.6946405E-2,1.5366019E0,-8.382404E-1,1.0544889E0,-4.2888626E-1,1.1087964E-1,1.2212367E0,-6.670073E-2,-1.2079552E0,-1.1769169E-1,-6.057188E-1,-1.1068823E-1,-2.3634504E-1,7.97867E-2,-1.9410657E-2,-1.5972223E-2,9.5291816E-2,4.0219095E-2,-9.316734E-2,3.4841634E-2,-8.445807E-2],"split_indices":[10,4,9,3,0,0,3,2,10,0,3,0,0,0,3,0,9,0,0,0,0,0,0,0,0],"split_type":[0,0,0,0,0,0,0,0,0,0,0,0,0,0,0,0,0,0,0,0,0,0,0,0,0],"sum_hessian":[1.1294235E2,6.2506546E1,5.0435806E1,6.031136E1,2.1951888E0,4.3149925E1,7.285883E0,3.9952377E1,2.0358982E1,3.9787777E1,3.362147E0,1.8330384E0,5.4528446E0,3.3709747E1,6.242629E0,5.5502677E0,1.4808714E1,2.1140046E0,1.2481425E0,1.1017168E0,4.3511276E0,1.6235964E0,4.6190324E0,1.0414048E1,4.3946657E0],"tree_param":{"num_deleted":"0","num_feature":"12","num_nodes":"25","size_leaf_vector":"1"}},{"base_weights":[1.6478138E-4,-7.557138E-1,9.488318E-1,-9.779477E-1,-1.642197E-1,2.1693285E-1,1.0301987E0,-1.035527E0,1.6738035E-2,1.3213323E-1,-1.0242354E-1,7.421142E-2,-1.4159298E-1,1.0491099E0,2.0400824E-2,-1.12615E0,-4.6505672E-1,-1.05680756E-1,4.102995E-1,-7.861035E-2,3.2993165E-1,5.8375186E-1,1.0855041E-1,-1.504635E-2,-1.1503148E-1,-8.222283E-2,6.295744E-2,-2.674509E-2,8.002321E-2,6.6443466E-2,-1.6022373E-2,8.562877E-2,-2.0955808E-2],"categories":[],"categories_nodes":[],"categories_segments":[],"categories_sizes":[],"default_left":[0,0,0,0,0,0,0,0,0,0,0,0,0,0,0,0,0,0,0,0,0,0,0,0,0,0,0,0,0,0,0,0,0],"id":13,"left_children":[1,3,5,7,9,11,13,15,-1,17,-1,-1,19,21,-1,23,25,-1,27,-1,29,31,-1,-1,-1,-1,-1,-1,-1,-1,-1,-1,-1],"loss_changes":[7.756133E1,7.752491E0,2.6329346E0,3.0457344E0,4.6318126E0,1.2471757E0,4.562416E-1,1.6274338E0,0E0,5.0659595E0,0E0,0E0,1.6100606E0,7.254791E-2,0E0,6.569061E-1,3.4137478E0,0E0,3.4042058E0,0E0,6.427796E-1,1.3011022E0,0E0,0E0,0E0,0E0,0E0,0E0,0E0,0E0,0E0,0E0,0E0],"parents":[2147483647,0,0,1,1,2,2,3,3,4,4,5,5,6,6,7,7,9,9,12,12,13,13,15,15,16,16,18,18,20,20,21,21],"right_children":[2,4,6,8,10,12,14,16,-1,18,-1,-1,20,22,-1,24,26,-1,28,-1,30,32,-1,-1,-1,-1,-1,-1,-1,-1,-1,-1,-1],"split_conditions":[8.658647E-1,2.2471552E-1,-2.1387225E-1,1.6837238E0,-1.2066683E-1,-4.0986237E-1,1.5534104E0,1.0544889E0,1.6738035E-2,-1.5281123E0,-1.0242354E-1,7.421142E-2,3.7087873E-1,-8.382404E-1,2.0400824E-2,-1.3711041E0,8.106655E-1,-1.05680756E-1,5.5424684E-1,-7.861035E-2,8.084541E-1,1.1517935E0,1.0855041E-1,-1.504635E-2,-1.1503148E-1,-8.222283E-2,6.295744E-2,-2.674509E-2,8.002321E-2,6.6443466E-2,-1.6022373E-2,8.562877E-2,-2.0955808E-2],"split_indices":[10,3,11,6,9,9,3,2,0,7,0,0,6,3,0,4,11,0,1,0,0,9,0,0,0,0,0,0,0,0,0,0,0],"split_type":[0,0,0,0,0,0,0,0,0,0,0,0,0,0,0,0,0,0,0,0,0,0,0,0,0,0,0,0,0,0,0,0,0],"sum_hessian":[1.06163216E2,5.919847E1,4.696475E1,4.2556107E1,1.6642365E1,5.065595E0,4.189915E1,4.061036E1,1.945745E0,1.3006732E1,3.6356323E0,1.621078E0,3.444517E0,4.0697773E1,1.2013774E0,3.4202923E1,6.4074354E0,1.9353689E0,1.1071363E1,1.1734358E0,2.2710812E0,4.187938E0,3.6509834E1,1.0012834E0,3.320164E1,5.018713E0,1.3887224E0,4.1581316E0,6.913232E0,1.1385361E0,1.132545E0,3.057999E0,1.1299392E0],"tree_param":{"num_deleted":"0","num_feature":"12","num_nodes":"33","size_leaf_vector":"1"}},{"base_weights":[-1.5121266E-4,-7.2490215E-1,9.2434835E-1,-8.949477E-1,1.3504796E-2,1.0286484E0,2.8666136E-1,3.333802E-2,-9.4851637E-1,-6.483832E-1,4.3806908E-1,1.0720716E-1,3.9975253E-1,-4.984079E-1,7.7489316E-1,-1.0827997E0,-4.8813024E-1,-8.154276E-3,-8.237135E-2,9.0198946E-1,-7.521676E-2,7.478779E-2,-2.3688892E-2,-9.378792E-2,2.773351E-2,1.8560985E-2,8.743321E-2,-1.10382475E-1,-2.8889423E-2,-6.443914E-4,-7.608419E-2,3.2203298E-3,1.0752555E-1],"categories":[],"categories_nodes":[],"categories_segments":[],"categories_sizes":[],"default_left":[0,0,0,0,0,0,0,0,0,0,0,0,0,0,0,0,0,0,0,0,0,0,0,0,0,0,0,0,0,0,0,0,0],"id":14,"left_children":[1,3,5,7,9,11,13,-1,15,17,19,-1,21,23,25,27,29,-1,-1,31,-1,-1,-1,-1,-1,-1,-1,-1,-1,-1,-1,-1,-1],"loss_changes":[6.824321E1,7.180851E0,2.6819878E0,3.37072E0,3.5640035E0,6.113472E-1,3.3291016E0,0E0,2.237461E0,4.2621112E-1,4.9343576E0,0E0,1.0756668E0,1.4712305E0,1.380465E-1,2.4558258E-1,1.5614467E0,0E0,0E0,8.696923E-1,0E0,0E0,0E0,0E0,0E0,0E0,0E0,0E0,0E0,0E0,0E0,0E0,0E0],"parents":[2147483647,0,0,1,1,2,2,3,3,4,4,5,5,6,6,8,8,9,9,10,10,12,12,13,13,14,14,15,15,16,16,19,19],"right_children":[2,4,6,8,10,12,14,-1,16,18,20,-1,22,24,26,28,30,-1,-1,32,-1,-1,-1,-1,-1,-1,-1,-1,-1,-1,-1,-1,-1],"split_conditions":[8.658647E-1,8.106655E-1,1.6145064E0,-1.3711041E0,5.5424684E-1,1.5366019E0,-5.9183013E-1,3.333802E-2,2.2471552E-1,-6.3282144E-1,-2.9418415E-1,1.0720716E-1,1.2212367E0,1.8458627E0,1.0440484E-2,1.5926132E0,-6.990579E-1,-8.154276E-3,-8.237135E-2,-9.014087E-1,-7.521676E-2,7.478779E-2,-2.3688892E-2,-9.378792E-2,2.773351E-2,1.8560985E-2,8.743321E-2,-1.10382475E-1,-2.8889423E-2,-6.443914E-4,-7.608419E-2,3.2203298E-3,1.0752555E-1],"split_indices":[10,11,9,4,1,0,0,0,3,7,9,0,3,9,2,0,9,0,0,7,0,0,0,0,0,0,0,0,0,0,0,0,0],"split_type":[0,0,0,0,0,0,0,0,0,0,0,0,0,0,0,0,0,0,0,0,0,0,0,0,0,0,0,0,0,0,0,0,0],"sum_hessian":[9.985064E1,5.6093037E1,4.3757603E1,4.542114E1,1.0671897E1,3.707975E1,6.6778526E0,1.6798058E0,4.3741333E1,3.9643593E0,6.7075377E0,3.40257E1,3.0540478E0,2.5525496E0,4.1253033E0,3.2817368E1,1.09239645E1,1.2826495E0,2.6817098E0,5.000616E0,1.7069215E0,1.861453E0,1.1925949E0,1.4960213E0,1.0565284E0,1.0094988E0,3.1158042E0,3.159039E1,1.2269806E0,4.319004E0,6.60496E0,1.0276631E0,3.972953E0],"tree_param":{"num_deleted":"0","num_feature":"12","num_nodes":"33","size_leaf_vector":"1"}},{"base_weights":[-1.909711E-4,-6.914208E-1,9.002675E-1,-7.6565564E-1,8.297714E-2,1.55599E-1,9.9049E-1,9.674256E-2,-8.197113E-1,6.867357E-2,-1.831208E-1,1.0118396E0,1.6120696E-2,-9.746016E-1,-1.7969173E-1,-7.579784E-2,2.7049837E-1,5.30941E-1,1.0517775E-1,-1.04063146E-1,8.2401805E-2,-6.5480955E-2,3.453439E-2,6.110239E-2,-1.8476706E-2,8.070625E-2,-1.8781643E-2],"categories":[],"categories_nodes":[],"categories_segments":[],"categories_sizes":[],"default_left":[0,0,0,0,0,0,0,0,0,0,0,0,0,0,0,0,0,0,0,0,0,0,0,0,0,0,0],"id":15,"left_children":[1,3,5,7,-1,9,11,-1,13,-1,15,17,-1,19,21,-1,23,25,-1,-1,-1,-1,-1,-1,-1,-1,-1],"loss_changes":[5.9850914E1,6.778324E0,2.651497E0,5.700842E0,0E0,1.1510537E0,4.9302292E-1,0E0,4.9147987E0,0E0,1.3183331E0,1.3184357E-1,0E0,5.7402725E0,3.027664E0,0E0,5.971009E-1,1.0993086E0,0E0,0E0,0E0,0E0,0E0,0E0,0E0,0E0,0E0],"parents":[2147483647,0,0,1,1,2,2,3,3,5,5,6,6,8,8,10,10,11,11,13,13,14,14,16,16,17,17],"right_children":[2,4,6,8,-1,10,12,-1,14,-1,16,18,-1,20,22,-1,24,26,-1,-1,-1,-1,-1,-1,-1,-1,-1],"split_conditions":[8.658647E-1,1.159524E0,-2.1387225E-1,-1.7272105E0,8.297714E-2,-4.0986237E-1,1.5534104E0,9.674256E-2,1.5184811E0,6.867357E-2,3.7087873E-1,-8.382404E-1,1.6120696E-2,1.6837238E0,1.250634E-1,-7.579784E-2,8.084541E-1,1.1517935E0,1.0517775E-1,-1.04063146E-1,8.2401805E-2,-6.5480955E-2,3.453439E-2,6.110239E-2,-1.8476706E-2,8.070625E-2,-1.8781643E-2],"split_indices":[10,4,11,4,0,9,3,0,5,0,6,3,0,6,3,0,0,9,0,0,0,0,0,0,0,0,0],"split_type":[0,0,0,0,0,0,0,0,0,0,0,0,0,0,0,0,0,0,0,0,0,0,0,0,0,0,0],"sum_hessian":[9.415776E1,5.3398766E1,4.0759E1,5.13877E1,2.011067E0,4.6990604E0,3.6059937E1,1.0432497E0,5.034445E1,1.4297173E0,3.2693431E0,3.4940277E1,1.1196619E0,4.0113796E1,1.0230655E1,1.1460419E0,2.123301E0,3.7753105E0,3.1164965E1,3.9099815E1,1.0139787E0,5.2408805E0,4.9897747E0,1.0189952E0,1.104306E0,2.6387405E0,1.1365699E0],"tree_param":{"num_deleted":"0","num_feature":"12","num_nodes":"27","size_leaf_vector":"1"}},{"base_weights":[3.9161164E-3,-6.5516347E-1,8.7727916E-1,-1.1289437E-1,-3.707395E-1,9.906364E-1,2.3517996E-1,1.042539E-1,-8.9717585E-1,1.0403543E-1,3.3422518E-1,-4.8546374E-1,7.2333694E-1,-5.1944965E-1,6.1108273E-1,-4.1189346E-1,-1.0809803E-1,7.0188195E-2,-2.7458617E-2,-8.67173E-2,1.7397668E-2,2.0598374E-2,8.187171E-2,-9.4843425E-2,2.4918761E-2,-7.939142E-2,8.999886E-2,-8.4308796E-2,1.8767187E-2],"categories":[],"categories_nodes":[],"categories_segments":[],"categories_sizes":[],"default_left":[0,0,0,0,0,0,0,0,0,0,0,0,0,0,0,0,0,0,0,0,0,0,0,0,0,0,0,0,0],"id":16,"left_children":[1,3,5,-1,7,9,11,13,15,-1,17,19,21,23,25,27,-1,-1,-1,-1,-1,-1,-1,-1,-1,-1,-1,-1,-1],"loss_changes":[5.2175316E1,6.543148E0,2.604391E0,0E0,8.538128E0,7.23423E-1,2.870168E0,6.212533E0,9.928093E-1,0E0,1.0397679E0,1.0293782E0,6.18248E-2,3.1712937E0,5.0772E0,1.7209146E0,0E0,0E0,0E0,0E0,0E0,0E0,0E0,0E0,0E0,0E0,0E0,0E0,0E0],"parents":[2147483647,0,0,1,1,2,2,4,4,5,5,6,6,7,7,8,8,10,10,11,11,12,12,13,13,14,14,15,15],"right_children":[2,4,6,-1,8,10,12,14,16,-1,18,20,22,24,26,28,-1,-1,-1,-1,-1,-1,-1,-1,-1,-1,-1,-1,-1],"split_conditions":[8.658647E-1,-4.2888626E-1,1.6145064E0,-1.1289437E-1,-4.6770146E-1,1.5366019E0,-5.9183013E-1,5.5424684E-1,-1.2066683E-1,1.0403543E-1,1.2212367E0,-3.0676243E-1,-1.2548994E-1,6.897587E-1,-1.199839E0,-1.4067557E-1,-1.0809803E-1,7.0188195E-2,-2.7458617E-2,-8.67173E-2,1.7397668E-2,2.0598374E-2,8.187171E-2,-9.4843425E-2,2.4918761E-2,-7.939142E-2,8.999886E-2,-8.4308796E-2,1.8767187E-2],"split_indices":[10,10,9,0,9,0,0,1,9,0,3,3,7,3,7,3,0,0,0,0,0,0,0,0,0,0,0,0,0],"split_type":[0,0,0,0,0,0,0,0,0,0,0,0,0,0,0,0,0,0,0,0,0,0,0,0,0,0,0,0,0],"sum_hessian":[8.86441E1,5.0662045E1,3.7982048E1,1.7890932E1,3.2771114E1,3.1821432E1,6.160618E0,1.7648855E1,1.5122258E1,2.903719E1,2.784243E0,2.4901059E0,3.670512E0,7.900992E0,9.747863E0,5.0445414E0,1.0077717E1,1.6406151E0,1.1436281E0,1.377654E0,1.1124519E0,1.0632001E0,2.607312E0,4.9207516E0,2.98024E0,1.3644273E0,8.383435E0,2.6980188E0,2.3465226E0],"tree_param":{"num_deleted":"0","num_feature":"12","num_nodes":"29","size_leaf_vector":"1"}},{"base_weights":[1.7875024E-3,-6.325239E-1,8.5469496E-1,-1.1060758E-1,-3.567809E-1,1.0400002E-1,9.5359236E-1,2.522593E-2,-9.6950763E-1,-2.0772779E-1,6.557303E-2,1.0192819E-1,4.6288562E-1,-5.696564E-1,4.855145E-1,-1.7632656E-2,-1.0438464E-1,2.8857231E-2,-5.674685E-2,-2.8509844E-2,8.4217325E-2,-9.378987E-2,1.2224678E-2,-3.734161E-2,9.007505E-2],"categories":[],"categories_nodes":[],"categories_segments":[],"categories_sizes":[],"default_left":[0,0,0,0,0,0,0,0,0,0,0,0,0,0,0,0,0,0,0,0,0,0,0,0,0],"id":17,"left_children":[1,3,5,-1,7,9,11,13,15,17,-1,-1,19,21,23,-1,-1,-1,-1,-1,-1,-1,-1,-1,-1],"loss_changes":[4.6145138E1,5.9929333E0,2.601595E0,0E0,7.60626E0,1.0575646E0,5.6035805E-1,6.00676E0,5.509157E-1,9.1048515E-1,0E0,0E0,1.8323479E0,2.5578046E0,4.7368364E0,0E0,0E0,0E0,0E0,0E0,0E0,0E0,0E0,0E0,0E0],"parents":[2147483647,0,0,1,1,2,2,4,4,5,5,6,6,7,7,8,8,9,9,12,12,13,13,14,14],"right_children":[2,4,6,-1,8,10,12,14,16,18,-1,-1,20,22,24,-1,-1,-1,-1,-1,-1,-1,-1,-1,-1],"split_conditions":[8.658647E-1,-4.2888626E-1,-2.1387225E-1,-1.1060758E-1,-2.3634504E-1,1.6837238E0,1.6723454E0,5.5424684E-1,-1.3759893E0,-1.2066683E-1,6.557303E-2,1.0192819E-1,-5.9183013E-1,6.897587E-1,1.0440484E-2,-1.7632656E-2,-1.0438464E-1,2.8857231E-2,-5.674685E-2,-2.8509844E-2,8.4217325E-2,-9.378987E-2,1.2224678E-2,-3.734161E-2,9.007505E-2],"split_indices":[10,10,11,0,9,6,9,1,0,9,0,0,0,3,2,0,0,0,0,0,0,0,0,0,0],"split_type":[0,0,0,0,0,0,0,0,0,0,0,0,0,0,0,0,0,0,0,0,0,0,0,0,0],"sum_hessian":[8.329533E1,4.791735E1,3.5377975E1,1.652559E1,3.139176E1,4.3570156E0,3.1020958E1,1.9927015E1,1.1464745E1,3.1824358E0,1.1745797E0,2.6408554E1,4.6124053E0,8.58895E0,1.1338066E1,1.2713714E0,1.0193373E1,1.4205167E0,1.761919E0,1.6354685E0,2.9769368E0,5.373533E0,3.2154174E0,3.7277646E0,7.6103015E0],"tree_param":{"num_deleted":"0","num_feature":"12","num_nodes":"25","size_leaf_vector":"1"}},{"base_weights":[9.812849E-4,-6.092704E-1,8.3233464E-1,-8.83646E-1,-1.5805882E-1,1.0221025E-1,9.346087E-1,-1.0393444E0,-2.1989955E-1,-9.454267E-2,1.1470155E-1,6.2417097E-2,-2.0700103E-1,1.0039365E-1,4.4127935E-1,-1.0649895E-1,-2.7489293E-2,6.0417842E-2,-6.2616926E-1,5.47497E-1,-3.994245E-1,-6.997855E-2,2.1131357E-2,-2.6502002E-2,8.2060136E-2,1.2043993E-2,-8.458237E-2,5.1211996E-4,9.230132E-2,2.147142E-2,-7.256841E-2],"categories":[],"categories_nodes":[],"categories_segments":[],"categories_sizes":[],"default_left":[0,0,0,0,0,0,0,0,0,0,0,0,0,0,0,0,0,0,0,0,0,0,0,0,0,0,0,0,0,0,0],"id":18,"left_children":[1,3,5,7,9,11,13,15,17,-1,19,-1,21,-1,23,-1,-1,-1,25,27,29,-1,-1,-1,-1,-1,-1,-1,-1,-1,-1],"loss_changes":[4.0750153E1,5.5949993E0,2.4434166E0,2.7258072E0,4.1318035E0,9.84664E-1,5.7278824E-1,1.559372E-1,2.6215026E0,0E0,3.5131252E0,0E0,9.888159E-1,0E0,1.6759592E0,0E0,0E0,0E0,9.183668E-1,1.7184312E0,1.6275657E0,0E0,0E0,0E0,0E0,0E0,0E0,0E0,0E0,0E0,0E0],"parents":[2147483647,0,0,1,1,2,2,3,3,4,4,5,5,6,6,7,7,8,8,10,10,12,12,14,14,18,18,19,19,20,20],"right_children":[2,4,6,8,10,12,14,16,18,-1,20,-1,22,-1,24,-1,-1,-1,26,28,30,-1,-1,-1,-1,-1,-1,-1,-1,-1,-1],"split_conditions":[8.658647E-1,-2.7354506E-1,-2.1387225E-1,1.0544889E0,-4.2888626E-1,-4.0986237E-1,1.6723454E0,9.0191513E-1,-6.057188E-1,-9.454267E-2,-6.990579E-1,6.2417097E-2,3.7087873E-1,1.0039365E-1,-5.9183013E-1,-1.0649895E-1,-2.7489293E-2,6.0417842E-2,-8.7861663E-1,5.5424684E-1,1.1215845E0,-6.997855E-2,2.1131357E-2,-2.6502002E-2,8.2060136E-2,1.2043993E-2,-8.458237E-2,5.1211996E-4,9.230132E-2,2.147142E-2,-7.256841E-2],"split_indices":[10,3,11,2,10,9,9,4,3,0,9,0,6,0,0,0,0,0,4,1,3,0,0,0,0,0,0,0,0,0,0],"split_type":[0,0,0,0,0,0,0,0,0,0,0,0,0,0,0,0,0,0,0,0,0,0,0,0,0,0,0,0,0,0,0],"sum_hessian":[7.832244E1,4.5321503E1,3.300094E1,2.7587524E1,1.773398E1,4.3003745E0,2.8700565E1,2.1887407E1,5.700116E0,3.9282613E0,1.3805718E1,1.2208841E0,3.0794907E0,2.4256733E1,4.443832E0,2.07966E1,1.0908064E0,1.7213637E0,3.9787526E0,7.460501E0,6.3452177E0,1.1049567E0,1.9745339E0,1.6579862E0,2.785846E0,1.0071427E0,2.9716098E0,3.466831E0,3.99367E0,2.32001E0,4.025208E0],"tree_param":{"num_deleted":"0","num_feature":"12","num_nodes":"31","size_leaf_vector":"1"}},{"base_weights":[6.0826226E-4,-5.837895E-1,8.1008375E-1,-1.06738284E-1,-3.1958443E-1,9.3631953E-1,1.8210725E-1,-6.482412E-3,-1.0233438E-1,9.988776E-2,2.1434969E-1,-5.444559E-2,5.6769747E-1,-5.883492E-1,4.4971192E-1,6.2975995E-2,-3.6721926E-2,-1.799077E-2,8.1961714E-2,-9.055676E-2,-5.577306E-3,-3.8477983E-2,8.590628E-2],"categories":[],"categories_nodes":[],"categories_segments":[],"categories_sizes":[],"default_left":[0,0,0,0,0,0,0,0,0,0,0,0,0,0,0,0,0,0,0,0,0,0,0],"id":19,"left_children":[1,3,5,-1,7,9,11,13,-1,-1,15,-1,17,19,21,-1,-1,-1,-1,-1,-1,-1,-1],"loss_changes":[3.586565E1,5.2845507E0,2.3493347E0,0E0,6.5820885E0,9.7034454E-1,2.1473994E0,6.0249453E0,0E0,0E0,1.0440654E0,0E0,1.047008E0,1.6338599E0,4.679384E0,0E0,0E0,0E0,0E0,0E0,0E0,0E0,0E0],"parents":[2147483647,0,0,1,1,2,2,4,4,5,5,6,6,7,7,10,10,12,12,13,13,14,14],"right_children":[2,4,6,-1,8,10,12,14,-1,-1,16,-1,18,20,22,-1,-1,-1,-1,-1,-1,-1,-1],"split_conditions":[8.658647E-1,-4.2888626E-1,1.6145064E0,-1.06738284E-1,-1.2066683E-1,1.5366019E0,-8.382404E-1,5.5424684E-1,-1.0233438E-1,9.988776E-2,1.2212367E0,-5.444559E-2,1.7301846E0,6.897587E-1,1.0440484E-2,6.2975995E-2,-3.6721926E-2,-1.799077E-2,8.1961714E-2,-9.055676E-2,-5.577306E-3,-3.8477983E-2,8.590628E-2],"split_indices":[10,10,9,0,9,0,3,1,0,0,3,0,9,3,2,0,0,0,0,0,0,0,0],"split_type":[0,0,0,0,0,0,0,0,0,0,0,0,0,0,0,0,0,0,0,0,0,0,0],"sum_hessian":[7.381727E1,4.303042E1,3.0786846E1,1.4129046E1,2.8901373E1,2.5225088E1,5.5617566E0,2.070081E1,8.200563E0,2.2860685E1,2.364404E0,1.785449E0,3.7763076E0,8.970028E0,1.17307825E1,1.3308933E0,1.0335107E0,1.0238245E0,2.7524834E0,5.1827016E0,3.7873266E0,3.880376E0,7.850406E0],"tree_param":{"num_deleted":"0","num_feature":"12","num_nodes":"23","size_leaf_vector":"1"}},{"base_weights":[-1.0410359E-3,-5.6335163E-1,7.8752655E-1,-1.04881726E-1,-3.0643877E-1,5.1399857E-2,9.001002E-1,2.1408378E-1,-7.0860565E-1,-2.3978019E-1,5.9742372E-2,9.7662693E-1,4.0368205E-1,-1.0840013E-1,8.133041E-1,-9.774475E-2,-3.122466E-1,2.2154344E-2,-5.3897973E-2,1.0135257E-1,4.03071E-2,-2.5641361E-2,7.880012E-2,-5.2378125E-2,7.574272E-2,5.8796457E-3,1.0446968E-1,-8.21411E-2,1.2936234E-2],"categories":[],"categories_nodes":[],"categories_segments":[],"categories_sizes":[],"default_left":[0,0,0,0,0,0,0,0,0,0,0,0,0,0,0,0,0,0,0,0,0,0,0,0,0,0,0,0,0],"id":20,"left_children":[1,3,5,-1,7,9,11,13,15,17,-1,19,21,23,25,-1,27,-1,-1,-1,-1,-1,-1,-1,-1,-1,-1,-1,-1],"loss_changes":[3.1672028E1,4.8787603E0,2.4176044E0,0E0,6.1550164E0,9.388948E-1,5.8314323E-1,2.6519744E0,1.44343E0,6.6840106E-1,0E0,4.833412E-2,1.5062592E0,3.8162394E0,7.695496E-1,0E0,1.9279172E0,0E0,0E0,0E0,0E0,0E0,0E0,0E0,0E0,0E0,0E0,0E0,0E0],"parents":[2147483647,0,0,1,1,2,2,4,4,5,5,6,6,7,7,8,8,9,9,11,11,12,12,13,13,14,14,16,16],"right_children":[2,4,6,-1,8,10,12,14,16,18,-1,20,22,24,26,-1,28,-1,-1,-1,-1,-1,-1,-1,-1,-1,-1,-1,-1],"split_conditions":[8.658647E-1,-4.2888626E-1,-2.1387225E-1,-1.04881726E-1,-6.990579E-1,1.6837238E0,1.6723454E0,6.897587E-1,1.0440484E-2,-1.2066683E-1,5.9742372E-2,1.5366019E0,-5.9183013E-1,1.0544889E0,-6.5131474E-1,-9.774475E-2,-8.4172267E-1,2.2154344E-2,-5.3897973E-2,1.0135257E-1,4.03071E-2,-2.5641361E-2,7.880012E-2,-5.2378125E-2,7.574272E-2,5.8796457E-3,1.0446968E-1,-8.21411E-2,1.2936234E-2],"split_indices":[10,10,11,0,9,6,9,3,2,9,0,0,0,2,4,0,7,0,0,0,0,0,0,0,0,0,0,0,0],"split_type":[0,0,0,0,0,0,0,0,0,0,0,0,0,0,0,0,0,0,0,0,0,0,0,0,0,0,0,0,0],"sum_hessian":[6.9426186E1,4.0693863E1,2.8732317E1,1.3016098E1,2.7677767E1,4.0043283E0,2.472799E1,1.2267577E1,1.5410189E1,2.977414E0,1.0269146E0,2.0586996E1,4.140992E0,8.507937E0,3.7596397E0,8.308587E0,7.1016016E0,1.2734615E0,1.7039524E0,1.8621895E1,1.9651022E0,1.6462502E0,2.4947422E0,6.016547E0,2.4913902E0,1.1767341E0,2.5829058E0,2.8990388E0,4.2025633E0],"tree_param":{"num_deleted":"0","num_feature":"12","num_nodes":"29","size_leaf_vector":"1"}},{"base_weights":[3.7123752E-4,-5.3873867E-1,7.6655084E-1,-8.055508E-1,-8.869185E-2,5.2724108E-2,8.823857E-1,-9.963662E-1,-1.14753306E-1,-9.239103E-2,1.185138E-1,5.6861967E-2,-2.307172E-1,9.629187E-1,3.851735E-1,-1.0288036E-1,-3.0971909E-2,3.3971533E-1,-7.777609E-2,3.6377618E-1,-7.980238E-2,-5.6789864E-2,2.5510598E-2,1.00257896E-1,3.8483735E-2,-2.386374E-2,7.67845E-2,9.483728E-2,-1.5483017E-2,-2.921452E-2,8.513883E-2],"categories":[],"categories_nodes":[],"categories_segments":[],"categories_sizes":[],"default_left":[0,0,0,0,0,0,0,0,0,0,0,0,0,0,0,0,0,0,0,0,0,0,0,0,0,0,0,0,0,0,0],"id":21,"left_children":[1,3,5,7,9,11,13,15,17,-1,19,-1,21,23,25,-1,-1,27,-1,29,-1,-1,-1,-1,-1,-1,-1,-1,-1,-1,-1],"loss_changes":[2.7903463E1,4.69003E0,2.2604847E0,3.1508102E0,2.858152E0,8.563231E-1,5.8779144E-1,1.10767365E-1,2.2202146E0,0E0,3.350127E0,0E0,7.8568697E-1,7.128334E-2,1.3777621E0,0E0,0E0,1.5156631E0,0E0,3.902896E0,0E0,0E0,0E0,0E0,0E0,0E0,0E0,0E0,0E0,0E0,0E0],"parents":[2147483647,0,0,1,1,2,2,3,3,4,4,5,5,6,6,7,7,8,8,10,10,12,12,13,13,14,14,17,17,19,19],"right_children":[2,4,6,8,10,12,14,16,18,-1,20,-1,22,24,26,-1,-1,28,-1,30,-1,-1,-1,-1,-1,-1,-1,-1,-1,-1,-1],"split_conditions":[8.658647E-1,-4.102345E-2,-2.1387225E-1,1.0544889E0,-1.4087402E0,-4.0986237E-1,1.6723454E0,8.791849E-1,-4.6770146E-1,-9.239103E-2,-1.2066683E-1,5.6861967E-2,-3.0676243E-1,1.5366019E0,-5.9183013E-1,-1.0288036E-1,-3.0971909E-2,-6.057188E-1,-7.777609E-2,5.5424684E-1,-7.980238E-2,-5.6789864E-2,2.5510598E-2,1.00257896E-1,3.8483735E-2,-2.386374E-2,7.67845E-2,9.483728E-2,-1.5483017E-2,-2.921452E-2,8.513883E-2],"split_indices":[10,3,11,2,7,9,9,4,9,0,9,0,3,0,0,0,0,3,0,1,0,0,0,0,0,0,0,0,0,0,0],"split_type":[0,0,0,0,0,0,0,0,0,0,0,0,0,0,0,0,0,0,0,0,0,0,0,0,0,0,0,0,0,0,0],"sum_hessian":[6.555407E1,3.8653214E1,2.690086E1,2.3770718E1,1.4882495E1,3.9589827E0,2.2941877E1,1.8279205E1,5.4915123E0,2.2707002E0,1.2611794E1,1.0470691E0,2.9119136E0,1.8937887E1,4.0039897E0,1.697882E1,1.300384E0,3.547464E0,1.9440485E0,1.0425156E1,2.1866393E0,1.6191887E0,1.292725E0,1.7034859E1,1.903028E0,1.6654507E0,2.3385391E0,1.1788901E0,2.3685737E0,4.616305E0,5.808851E0],"tree_param":{"num_deleted":"0","num_feature":"12","num_nodes":"31","size_leaf_vector":"1"}},{"base_weights":[-8.95711E-5,-5.1937467E-1,7.4590963E-1,-1.02223955E-1,-2.668288E-1,5.360027E-2,8.64714E-1,3.339027E-2,-9.36511E-2,5.5283934E-2,-2.158793E-1,9.49325E-1,3.6773014E-1,-5.005847E-1,4.4808656E-1,-6.3917555E-2,1.6642487E-2,9.919357E-2,3.6732443E-2,-2.2216683E-2,7.48189E-2,-8.378365E-2,8.530353E-4,-7.606282E-2,6.954704E-2],"categories":[],"categories_nodes":[],"categories_segments":[],"categories_sizes":[],"default_left":[0,0,0,0,0,0,0,0,0,0,0,0,0,0,0,0,0,0,0,0,0,0,0,0,0],"id":22,"left_children":[1,3,5,-1,7,9,11,13,-1,-1,15,17,19,21,23,-1,-1,-1,-1,-1,-1,-1,-1,-1,-1],"loss_changes":[2.4737549E1,4.5086155E0,2.109231E0,0E0,5.342249E0,7.792073E-1,5.8875465E-1,4.476989E0,0E0,0E0,7.382372E-1,9.2596054E-2,1.2607644E0,1.5296865E0,3.9190812E0,0E0,0E0,0E0,0E0,0E0,0E0,0E0,0E0,0E0,0E0],"parents":[2147483647,0,0,1,1,2,2,4,4,5,5,6,6,7,7,10,10,11,11,12,12,13,13,14,14],"right_children":[2,4,6,-1,8,10,12,14,-1,-1,16,18,20,22,24,-1,-1,-1,-1,-1,-1,-1,-1,-1,-1],"split_conditions":[8.658647E-1,-4.2888626E-1,-2.1387225E-1,-1.02223955E-1,-1.7850594E-1,-4.0986237E-1,1.6723454E0,5.5424684E-1,-9.36511E-2,5.5283934E-2,3.7087873E-1,1.5366019E0,-5.9183013E-1,6.897587E-1,-1.199839E0,-6.3917555E-2,1.6642487E-2,9.919357E-2,3.6732443E-2,-2.2216683E-2,7.48189E-2,-8.378365E-2,8.530353E-4,-7.606282E-2,6.954704E-2],"split_indices":[10,10,11,0,9,9,9,1,0,0,6,0,0,3,7,0,0,0,0,0,0,0,0,0,0],"split_type":[0,0,0,0,0,0,0,0,0,0,0,0,0,0,0,0,0,0,0,0,0,0,0,0,0],"sum_hessian":[6.1857525E1,3.66497E1,2.5207827E1,1.1233671E1,2.5416027E1,3.9047608E0,2.1303064E1,1.8204897E1,7.21113E0,1.0002275E0,2.9045334E0,1.7426113E1,3.876952E0,7.8674407E0,1.0337457E1,1.0595126E0,1.8450207E0,1.5581007E1,1.8451064E0,1.6832099E0,2.193742E0,4.344111E0,3.5233297E0,1.4038026E0,8.933654E0],"tree_param":{"num_deleted":"0","num_feature":"12","num_nodes":"25","size_leaf_vector":"1"}},{"base_weights":[-1.632633E-3,-5.012805E-1,7.248755E-1,-1.00570336E-1,-2.5725847E-1,8.684438E-1,1.2191267E-1,2.2202908E-1,-6.5644586E-1,9.488296E-2,1.4156651E-1,-3.2757714E-1,7.5908415E-2,-8.305063E-2,7.709814E-1,-3.1108844E-1,-9.51752E-2,5.6973316E-2,-3.6537416E-2,-8.233377E-2,3.0877734E-2,-4.668888E-2,6.7457326E-2,4.0471307E-3,1.0040232E-1,-9.500448E-2,2.2236016E-2],"categories":[],"categories_nodes":[],"categories_segments":[],"categories_sizes":[],"default_left":[0,0,0,0,0,0,0,0,0,0,0,0,0,0,0,0,0,0,0,0,0,0,0,0,0,0,0],"id":23,"left_children":[1,3,5,-1,7,9,11,13,15,-1,17,19,-1,21,23,25,-1,-1,-1,-1,-1,-1,-1,-1,-1,-1,-1],"loss_changes":[2.1953608E1,4.151862E0,2.027586E0,0E0,5.023249E0,1.0192404E0,1.9392775E0,2.1292565E0,1.1482067E0,0E0,8.899969E-1,1.5665556E0,0E0,2.882535E0,7.258477E-1,2.942549E0,0E0,0E0,0E0,0E0,0E0,0E0,0E0,0E0,0E0,0E0,0E0],"parents":[2147483647,0,0,1,1,2,2,4,4,5,5,6,6,7,7,8,8,10,10,11,11,13,13,14,14,15,15],"right_children":[2,4,6,-1,8,10,12,14,16,-1,18,20,-1,22,24,26,-1,-1,-1,-1,-1,-1,-1,-1,-1,-1,-1],"split_conditions":[8.658647E-1,-4.2888626E-1,1.6145064E0,-1.00570336E-1,-6.990579E-1,1.5366019E0,1.6837238E0,6.897587E-1,-1.2066683E-1,9.488296E-2,1.1880193E0,-3.0676243E-1,7.5908415E-2,1.0544889E0,-6.5131474E-1,5.5424684E-1,-9.51752E-2,5.6973316E-2,-3.6537416E-2,-8.233377E-2,3.0877734E-2,-4.668888E-2,6.7457326E-2,4.0471307E-3,1.0040232E-1,-9.500448E-2,2.2236016E-2],"split_indices":[10,10,9,0,9,0,6,3,9,0,3,3,0,2,4,1,0,0,0,0,0,0,0,0,0,0,0],"split_type":[0,0,0,0,0,0,0,0,0,0,0,0,0,0,0,0,0,0,0,0,0,0,0,0,0,0,0],"sum_hessian":[5.847753E1,3.4832134E1,2.3645397E1,1.0338941E1,2.4493195E1,1.8742441E1,4.902957E0,1.1331606E1,1.3161588E1,1.6601158E1,2.1412818E0,3.1597874E0,1.7431697E0,7.82923E0,3.5023763E0,7.013184E0,6.148403E0,1.0936825E0,1.0475994E0,1.610933E0,1.5488545E0,5.4512076E0,2.3780224E0,1.1309338E0,2.3714426E0,2.83569E0,4.177494E0],"tree_param":{"num_deleted":"0","num_feature":"12","num_nodes":"27","size_leaf_vector":"1"}},{"base_weights":[-1.5694788E-3,-4.7989509E-1,7.033643E-1,-7.685436E-1,-7.495904E-2,1.5455037E-2,8.3072025E-1,-9.544736E-1,-1.440384E-1,-8.044197E-2,1.3811386E-1,-3.0371562E-2,3.6395174E-2,9.2375165E-1,3.3592454E-1,-9.9418655E-2,-2.5280565E-2,5.5369686E-2,-5.250268E-1,-3.6198124E-1,4.9871144E-1,9.718045E-2,3.4550603E-2,-1.9525284E-2,7.587477E-2,1.421653E-3,-7.004612E-2,9.1314815E-2,-9.383212E-2,8.431149E-2,-6.4979844E-2],"categories":[],"categories_nodes":[],"categories_segments":[],"categories_sizes":[],"default_left":[0,0,0,0,0,0,0,0,0,0,0,0,0,0,0,0,0,0,0,0,0,0,0,0,0,0,0,0,0,0,0],"id":24,"left_children":[1,3,5,7,9,11,13,15,17,-1,19,-1,-1,21,23,-1,-1,-1,25,27,29,-1,-1,-1,-1,-1,-1,-1,-1,-1,-1],"loss_changes":[1.9315598E1,3.931128E0,2.015997E0,2.1633787E0,2.4907207E0,6.262585E-1,5.8828163E-1,1.6919804E-1,1.8122566E0,0E0,2.4712029E0,0E0,0E0,1.0493469E-1,1.1949728E0,0E0,0E0,0E0,4.087546E-1,5.1937313E0,3.6336236E0,0E0,0E0,0E0,0E0,0E0,0E0,0E0,0E0,0E0,0E0],"parents":[2147483647,0,0,1,1,2,2,3,3,4,4,5,5,6,6,7,7,8,8,10,10,13,13,14,14,18,18,19,19,20,20],"right_children":[2,4,6,8,10,12,14,16,18,-1,20,-1,-1,22,24,-1,-1,-1,26,28,30,-1,-1,-1,-1,-1,-1,-1,-1,-1,-1],"split_conditions":[8.658647E-1,-2.7354506E-1,-2.1387225E-1,1.0544889E0,-4.2888626E-1,-3.0676243E-1,1.6723454E0,8.791849E-1,-6.057188E-1,-8.044197E-2,5.5424684E-1,-3.0371562E-2,3.6395174E-2,1.5366019E0,1.0544889E0,-9.9418655E-2,-2.5280565E-2,5.5369686E-2,-7.4981225E-1,1.0440484E-2,-1.2066683E-1,9.718045E-2,3.4550603E-2,-1.9525284E-2,7.587477E-2,1.421653E-3,-7.004612E-2,9.1314815E-2,-9.383212E-2,8.431149E-2,-6.4979844E-2],"split_indices":[10,3,11,2,10,3,9,4,3,0,1,0,0,0,2,0,0,0,4,2,9,0,0,0,0,0,0,0,0,0,0],"split_type":[0,0,0,0,0,0,0,0,0,0,0,0,0,0,0,0,0,0,0,0,0,0,0,0,0,0,0,0,0,0,0],"sum_hessian":[5.528333E1,3.3125553E1,2.2157772E1,1.8815475E1,1.431008E1,3.6365283E0,1.8521244E1,1.4091681E1,4.7237945E0,2.6075926E0,1.1702487E1,1.9651989E0,1.6713294E0,1.486028E1,3.6609645E0,1.2942285E1,1.1493956E0,1.5082662E0,3.2155282E0,4.9012904E0,6.8011966E0,1.3091736E1,1.7685443E0,1.8611214E0,1.799843E0,1.0149077E0,2.2006204E0,1.3437983E0,3.5574923E0,5.4367766E0,1.36442E0],"tree_param":{"num_deleted":"0","num_feature":"12","num_nodes":"31","size_leaf_vector":"1"}},{"base_weights":[-1.6335183E-3,-4.630083E-1,6.8127954E-1,-9.763425E-2,-2.2969468E-1,1.5518695E-2,8.1191957E-1,2.2032404E-1,-6.2188333E-1,-3.79255E-2,2.8691533E-1,9.099931E-1,3.2048845E-1,-6.0679197E-2,7.210765E-1,-8.953175E-2,-2.5593308E-1,6.0995787E-2,-2.0457711E-2,9.61508E-2,3.2957423E-2,-2.325136E-2,7.1031116E-2,-4.199912E-2,6.2125113E-2,2.8643508E-3,9.519155E-2,-8.388896E-2,8.008209E-3],"categories":[],"categories_nodes":[],"categories_segments":[],"categories_sizes":[],"default_left":[0,0,0,0,0,0,0,0,0,0,0,0,0,0,0,0,0,0,0,0,0,0,0,0,0,0,0,0,0],"id":25,"left_children":[1,3,5,-1,7,9,11,13,15,-1,17,19,21,23,25,-1,27,-1,-1,-1,-1,-1,-1,-1,-1,-1,-1,-1,-1],"loss_changes":[1.7106506E1,3.656209E0,1.8914318E0,0E0,4.299264E0,6.0279065E-1,5.894432E-1,1.6929564E0,1.0579596E0,0E0,6.489775E-1,1.2252998E-1,1.1535623E0,2.3264413E0,6.5853024E-1,0E0,1.4189854E0,0E0,0E0,0E0,0E0,0E0,0E0,0E0,0E0,0E0,0E0,0E0,0E0],"parents":[2147483647,0,0,1,1,2,2,4,4,5,5,6,6,7,7,8,8,10,10,11,11,12,12,13,13,14,14,16,16],"right_children":[2,4,6,-1,8,10,12,14,16,-1,18,20,22,24,26,-1,28,-1,-1,-1,-1,-1,-1,-1,-1,-1,-1,-1,-1],"split_conditions":[8.658647E-1,-4.2888626E-1,-2.1387225E-1,-9.763425E-2,-6.990579E-1,-9.839097E-1,1.6723454E0,6.897587E-1,1.0440484E-2,-3.79255E-2,8.084541E-1,1.5366019E0,-5.9183013E-1,1.0544889E0,-1.335288E0,-8.953175E-2,5.5424684E-1,6.0995787E-2,-2.0457711E-2,9.61508E-2,3.2957423E-2,-2.325136E-2,7.1031116E-2,-4.199912E-2,6.2125113E-2,2.8643508E-3,9.519155E-2,-8.388896E-2,8.008209E-3],"split_indices":[10,10,11,0,9,0,9,3,2,0,0,0,0,2,9,0,1,0,0,0,0,0,0,0,0,0,0,0,0],"split_type":[0,0,0,0,0,0,0,0,0,0,0,0,0,0,0,0,0,0,0,0,0,0,0,0,0,0,0,0,0],"sum_hessian":[5.229164E1,3.1399921E1,2.0891718E1,8.816741E0,2.258318E1,3.6105602E0,1.7281158E1,1.0720319E1,1.1862861E1,1.3090278E0,2.3015323E0,1.3696137E1,3.5850205E0,7.4298143E0,3.2905052E0,5.9617496E0,5.901111E0,1.243311E0,1.0582213E0,1.1976584E1,1.7195535E0,1.6491202E0,1.9359004E0,5.117497E0,2.3123171E0,1.1037478E0,2.1867573E0,1.610483E0,4.290628E0],"tree_param":{"num_deleted":"0","num_feature":"12","num_nodes":"29","size_leaf_vector":"1"}},{"base_weights":[-7.73687E-4,-4.420159E-1,6.602726E-1,-7.3057115E-1,-5.2184355E-2,8.1578976E-1,8.737599E-2,-8.635547E-1,5.301102E-2,-8.25527E-2,1.284021E-1,9.107917E-2,1.0253899E-2,-6.278934E-2,4.5321864E-1,-9.680765E-2,-4.2818972E-1,-1.9802729E-2,2.3666976E-2,3.2046956E-1,-6.920641E-2,-1.7461803E-2,7.739078E-2,1.138042E-2,-6.6716656E-2,-2.3047352E-2,7.1180284E-2],"categories":[],"categories_nodes":[],"categories_segments":[],"categories_sizes":[],"default_left":[0,0,0,0,0,0,0,0,0,0,0,0,0,0,0,0,0,0,0,0,0,0,0,0,0,0,0],"id":26,"left_children":[1,3,5,7,9,11,13,15,17,-1,19,-1,-1,-1,21,-1,23,-1,-1,25,-1,-1,-1,-1,-1,-1,-1],"loss_changes":[1.50737095E1,3.4479694E0,1.7718573E0,1.8934946E0,2.0973468E0,1.0009718E0,1.7333966E0,2.779274E-1,2.089206E-1,0E0,2.1797893E0,0E0,0E0,0E0,9.896067E-1,0E0,6.897538E-1,0E0,0E0,2.4821353E0,0E0,0E0,0E0,0E0,0E0,0E0,0E0],"parents":[2147483647,0,0,1,1,2,2,3,3,4,4,5,5,6,6,7,7,8,8,10,10,14,14,16,16,19,19],"right_children":[2,4,6,8,10,12,14,16,18,-1,20,-1,-1,-1,22,-1,24,-1,-1,26,-1,-1,-1,-1,-1,-1,-1],"split_conditions":[8.658647E-1,-2.7354506E-1,1.6145064E0,4.9277163E-1,-1.4087402E0,1.5366019E0,1.0440484E-2,1.0544889E0,1.0151142E0,-8.25527E-2,-1.2066683E-1,9.107917E-2,1.0253899E-2,-6.278934E-2,3.7087873E-1,-9.680765E-2,-8.7861663E-1,-1.9802729E-2,2.3666976E-2,5.5424684E-1,-6.920641E-2,-1.7461803E-2,7.739078E-2,1.138042E-2,-6.6716656E-2,-2.3047352E-2,7.1180284E-2],"split_indices":[10,3,9,4,7,0,2,2,8,0,9,0,0,0,6,0,4,0,0,1,0,0,0,0,0,0,0],"split_type":[0,0,0,0,0,0,0,0,0,0,0,0,0,0,0,0,0,0,0,0,0,0,0,0,0,0,0],"sum_hessian":[4.9678078E1,2.9990822E1,1.9687254E1,1.6731794E1,1.32590275E1,1.5150548E1,4.5367064E0,1.4216944E1,2.5148506E0,1.833952E0,1.1425076E1,1.3125349E1,2.0251987E0,1.2928076E0,3.2438989E0,1.0477842E1,3.7391021E0,1.0294659E0,1.4853848E0,9.751661E0,1.6734146E0,1.250735E0,1.9931638E0,1.3044424E0,2.4346597E0,4.22064E0,5.531021E0],"tree_param":{"num_deleted":"0","num_feature":"12","num_nodes":"27","size_leaf_vector":"1"}},{"base_weights":[-3.8203318E-3,-4.250081E-1,6.365276E-1,-9.5230155E-2,-1.9872655E-1,-2.6093705E-2,7.7722454E-1,1.4110835E-1,-7.01779E-1,-4.1045006E-2,2.3285793E-2,8.667111E-1,1.83517E-1,-7.415303E-2,2.9669023E-1,-9.062813E-2,-1.9123714E-1,2.156419E-1,9.613084E-2,5.7777744E-2,-3.0853806E-2,-1.6879778E-2,6.237873E-2,3.512218E-2,-6.811919E-2,5.233252E-2,-1.969648E-2],"categories":[],"categories_nodes":[],"categories_segments":[],"categories_sizes":[],"default_left":[0,0,0,0,0,0,0,0,0,0,0,0,0,0,0,0,0,0,0,0,0,0,0,0,0,0,0],"id":27,"left_children":[1,3,5,-1,7,9,11,13,15,-1,-1,17,19,-1,21,-1,23,25,-1,-1,-1,-1,-1,-1,-1,-1,-1],"loss_changes":[1.3288111E1,3.3562322E0,1.8429828E0,0E0,3.869581E0,5.3268564E-1,6.9945717E-1,2.1419683E0,7.726002E-1,0E0,0E0,6.4103127E-1,8.3498347E-1,0E0,2.0257235E0,0E0,1.2647814E0,4.8857874E-1,0E0,0E0,0E0,0E0,0E0,0E0,0E0,0E0,0E0],"parents":[2147483647,0,0,1,1,2,2,4,4,5,5,6,6,7,7,8,8,11,11,12,12,14,14,16,16,17,17],"right_children":[2,4,6,-1,8,10,12,14,16,-1,-1,18,20,-1,22,-1,24,26,-1,-1,-1,-1,-1,-1,-1,-1,-1],"split_conditions":[8.658647E-1,-4.2888626E-1,-2.1387225E-1,-9.5230155E-2,-4.6770146E-1,-6.3282144E-1,1.3541062E0,-1.4385833E0,2.2471552E-1,-4.1045006E-2,2.3285793E-2,-8.382404E-1,1.0151142E0,-7.415303E-2,5.5424684E-1,-9.062813E-2,1.3541062E0,1.1517935E0,9.613084E-2,5.7777744E-2,-3.0853806E-2,-1.6879778E-2,6.237873E-2,3.512218E-2,-6.811919E-2,5.233252E-2,-1.969648E-2],"split_indices":[10,10,11,0,9,7,3,7,3,0,0,3,8,0,1,0,3,9,0,0,0,0,0,0,0,0,0],"split_type":[0,0,0,0,0,0,0,0,0,0,0,0,0,0,0,0,0,0,0,0,0,0,0,0,0,0,0],"sum_hessian":[4.7265694E1,2.871484E1,1.8550852E1,7.658983E0,2.1055857E1,3.3917453E0,1.5159106E1,1.2995977E1,8.05988E0,1.1297848E0,2.2619605E0,1.2773929E1,2.3851783E0,1.3831261E0,1.1612851E1,5.2013106E0,2.8585691E0,2.036593E0,1.0737335E1,1.2274598E0,1.1577185E0,4.992308E0,6.6205425E0,1.4909747E0,1.3675946E0,1.0129161E0,1.0236769E0],"tree_param":{"num_deleted":"0","num_feature":"12","num_nodes":"27","size_leaf_vector":"1"}},{"base_weights":[-5.9970813E-3,-4.0982765E-1,6.133568E-1,-9.371721E-2,-1.9230911E-1,-2.7453685E-2,7.578057E-1,4.096055E-2,-8.826359E-2,-3.9075334E-2,2.4407966E-1,8.5072035E-1,1.7561664E-1,-4.0479943E-1,3.8056594E-1,5.6835968E-2,-2.1205664E-2,2.0808548E-2,9.498323E-2,5.6266494E-2,-2.8809289E-2,-5.1928824E-3,-8.497179E-2,-7.0034154E-2,6.0898263E-2],"categories":[],"categories_nodes":[],"categories_segments":[],"categories_sizes":[],"default_left":[0,0,0,0,0,0,0,0,0,0,0,0,0,0,0,0,0,0,0,0,0,0,0,0,0],"id":28,"left_children":[1,3,5,-1,7,9,11,13,-1,-1,15,17,19,21,23,-1,-1,-1,-1,-1,-1,-1,-1,-1,-1],"loss_changes":[1.1761565E1,3.083898E0,1.7391362E0,0E0,3.4829574E0,5.2743626E-1,6.719494E-1,2.7205966E0,0E0,0E0,5.823167E-1,6.197834E-1,7.633299E-1,1.182943E0,2.929602E0,0E0,0E0,0E0,0E0,0E0,0E0,0E0,0E0,0E0,0E0],"parents":[2147483647,0,0,1,1,2,2,4,4,5,5,6,6,7,7,10,10,11,11,12,12,13,13,14,14],"right_children":[2,4,6,-1,8,10,12,14,-1,-1,16,18,20,22,24,-1,-1,-1,-1,-1,-1,-1,-1,-1,-1],"split_conditions":[8.658647E-1,-4.2888626E-1,-2.1387225E-1,-9.371721E-2,-1.2066683E-1,-9.839097E-1,1.3541062E0,5.5424684E-1,-8.826359E-2,-3.9075334E-2,8.084541E-1,-8.382404E-1,1.0151142E0,-7.56897E-1,-1.199839E0,5.6835968E-2,-2.1205664E-2,2.0808548E-2,9.498323E-2,5.6266494E-2,-2.8809289E-2,-5.1928824E-3,-8.497179E-2,-7.0034154E-2,6.0898263E-2],"split_indices":[10,10,11,0,9,0,3,1,0,0,0,3,8,9,7,0,0,0,0,0,0,0,0,0,0],"split_type":[0,0,0,0,0,0,0,0,0,0,0,0,0,0,0,0,0,0,0,0,0,0,0,0,0],"sum_hessian":[4.5019783E1,2.7456148E1,1.7563637E1,7.051723E0,2.0404427E1,3.3798294E0,1.4183806E1,1.5954033E1,4.450393E0,1.257837E0,2.1219923E0,1.1833923E1,2.3498833E0,6.815785E0,9.138248E0,1.0964588E0,1.0255336E0,1.995398E0,9.838525E0,1.1645005E0,1.1853828E0,4.4238706E0,2.3919141E0,1.2337688E0,7.9044795E0],"tree_param":{"num_deleted":"0","num_feature":"12","num_nodes":"25","size_leaf_vector":"1"}},{"base_weights":[-8.9158835E-3,-3.9690188E-1,5.909211E-1,-6.729285E-1,-5.073277E-3,7.638309E-1,1.4175757E-2,-9.070236E-1,-3.3643126E-2,-7.532401E-2,1.7521244E-1,8.7570995E-2,3.4577232E-3,-3.888583E-1,6.63649E-2,-9.554449E-2,-1.9807825E-2,3.1818983E-1,-6.308576E-2,3.526513E-1,-6.2097725E-2,-7.645272E-2,2.60728E-2,8.0793574E-2,-1.2640352E-2,-1.6035547E-2,7.712696E-2],"categories":[],"categories_nodes":[],"categories_segments":[],"categories_sizes":[],"default_left":[0,0,0,0,0,0,0,0,0,0,0,0,0,0,0,0,0,0,0,0,0,0,0,0,0,0,0],"id":29,"left_children":[1,3,5,7,9,11,13,15,17,-1,19,-1,-1,21,-1,-1,-1,23,-1,25,-1,-1,-1,-1,-1,-1,-1],"loss_changes":[1.0455749E1,2.9456773E0,1.7494993E0,2.3624463E0,1.7879763E0,1.0761781E0,1.5905141E0,2.1120548E-1,1.3194885E0,0E0,1.7312719E0,0E0,0E0,1.1197282E0,0E0,0E0,0E0,9.7639495E-1,0E0,2.1405368E0,0E0,0E0,0E0,0E0,0E0,0E0,0E0],"parents":[2147483647,0,0,1,1,2,2,3,3,4,4,5,5,6,6,7,7,8,8,10,10,13,13,17,17,19,19],"right_children":[2,4,6,8,10,12,14,16,18,-1,20,-1,-1,22,-1,-1,-1,24,-1,26,-1,-1,-1,-1,-1,-1,-1],"split_conditions":[8.658647E-1,-4.102345E-2,1.6145064E0,1.0544889E0,-1.4087402E0,1.5366019E0,1.6837238E0,8.791849E-1,-4.6770146E-1,-7.532401E-2,-1.2066683E-1,8.7570995E-2,3.4577232E-3,-5.9183013E-1,6.63649E-2,-9.554449E-2,-1.9807825E-2,-6.057188E-1,-6.308576E-2,5.5424684E-1,-6.2097725E-2,-7.645272E-2,2.60728E-2,8.0793574E-2,-1.2640352E-2,-1.6035547E-2,7.712696E-2],"split_indices":[10,3,9,2,7,0,6,4,9,0,9,0,0,0,0,0,0,3,0,1,0,0,0,0,0,0,0],"split_type":[0,0,0,0,0,0,0,0,0,0,0,0,0,0,0,0,0,0,0,0,0,0,0,0,0,0,0],"sum_hessian":[4.2919067E1,2.6267235E1,1.665183E1,1.49900055E1,1.1277229E1,1.2561482E1,4.0903487E0,1.066563E1,4.324375E0,1.5726913E0,9.704538E0,1.0716561E1,1.8449205E0,2.7716548E0,1.3186938E0,9.658268E0,1.0073626E0,3.0152378E0,1.3091371E0,8.391487E0,1.3130509E0,1.6439694E0,1.1276854E0,1.045886E0,1.9693519E0,4.0478654E0,4.3436217E0],"tree_param":{"num_deleted":"0","num_feature":"12","num_nodes":"27","size_leaf_vector":"1"}},{"base_weights":[-1.0327041E-2,-3.8224605E-1,5.691375E-1,-9.145801E-2,-1.7280962E-1,-6.349028E-2,7.219699E-1,1.264562E-1,-6.61537E-1,-4.240993E-2,1.9836554E-2,8.225953E-1,1.3843776E-1,-6.792974E-2,2.6536733E-1,-8.614257E-2,-1.7626774E-1,1.8091857E-2,9.317341E-2,5.293357E-2,-2.925081E-2,-1.1857764E-2,5.4025818E-2,3.154111E-2,-6.2325835E-2],"categories":[],"categories_nodes":[],"categories_segments":[],"categories_sizes":[],"default_left":[0,0,0,0,0,0,0,0,0,0,0,0,0,0,0,0,0,0,0,0,0,0,0,0,0],"id":30,"left_children":[1,3,5,-1,7,9,11,13,15,-1,-1,17,19,-1,21,-1,23,-1,-1,-1,-1,-1,-1,-1,-1],"loss_changes":[9.231116E0,2.7487178E0,1.6654873E0,0E0,3.0005932E0,4.7870636E-1,6.831026E-1,1.6587099E0,5.9842324E-1,0E0,0E0,6.2799597E-1,6.9366693E-1,0E0,1.329062E0,0E0,9.6883E-1,0E0,0E0,0E0,0E0,0E0,0E0,0E0,0E0],"parents":[2147483647,0,0,1,1,2,2,4,4,5,5,6,6,7,7,8,8,11,11,12,12,14,14,16,16],"right_children":[2,4,6,-1,8,10,12,14,16,-1,-1,18,20,-1,22,-1,24,-1,-1,-1,-1,-1,-1,-1,-1],"split_conditions":[8.658647E-1,-4.2888626E-1,-2.1387225E-1,-9.145801E-2,-4.6770146E-1,-6.3282144E-1,1.3541062E0,-1.4385833E0,2.2471552E-1,-4.240993E-2,1.9836554E-2,-8.382404E-1,1.0151142E0,-6.792974E-2,5.5424684E-1,-8.614257E-2,1.3541062E0,1.8091857E-2,9.317341E-2,5.293357E-2,-2.925081E-2,-1.1857764E-2,5.4025818E-2,3.154111E-2,-6.2325835E-2],"split_indices":[10,10,11,0,9,7,3,7,3,0,0,3,8,0,1,0,3,0,0,0,0,0,0,0,0],"split_type":[0,0,0,0,0,0,0,0,0,0,0,0,0,0,0,0,0,0,0,0,0,0,0,0,0],"sum_hessian":[4.0823597E1,2.5071955E1,1.5751641E1,6.128361E0,1.8943592E1,3.1786494E0,1.2572991E1,1.2208892E1,6.734701E0,1.0765338E0,2.1021159E0,1.0374337E1,2.1986547E0,1.2232537E0,1.0985638E1,4.2209053E0,2.5137959E0,1.8943387E0,8.479999E0,1.0331784E0,1.1654761E0,4.820874E0,6.164764E0,1.3372362E0,1.1765597E0],"tree_param":{"num_deleted":"0","num_feature":"12","num_nodes":"25","size_leaf_vector":"1"}},{"base_weights":[-1.277404E-2,-3.6857617E-1,5.455191E-1,-6.422553E-1,7.4053055E-4,7.264534E-1,-1.8809192E-2,-8.847129E-1,-2.1145988E-2,-7.076499E-2,1.6802807E-1,8.4954345E-1,2.5808648E-4,-3.9863598E-1,6.2793925E-2,-9.34797E-2,-2.5651176E-2,2.9798472E-1,-5.8912087E-2,3.3444723E-1,-5.937894E-2,3.3846416E-2,9.178246E-2,-7.3626935E-2,2.2937035E-2,6.760944E-2,-1.207612E-2,-1.3096203E-2,7.2940625E-2],"categories":[],"categories_nodes":[],"categories_segments":[],"categories_sizes":[],"default_left":[0,0,0,0,0,0,0,0,0,0,0,0,0,0,0,0,0,0,0,0,0,0,0,0,0,0,0,0,0],"id":31,"left_children":[1,3,5,7,9,11,13,15,17,-1,19,21,-1,23,-1,-1,-1,25,-1,27,-1,-1,-1,-1,-1,-1,-1,-1,-1],"loss_changes":[8.160721E0,2.5344262E0,1.6473851E0,2.1499276E0,1.501798E0,1.0795813E0,1.4440118E0,8.532047E-2,1.0941046E0,0E0,1.4978819E0,5.1351547E-2,0E0,9.476981E-1,0E0,0E0,0E0,7.0051724E-1,0E0,1.7591895E0,0E0,0E0,0E0,0E0,0E0,0E0,0E0,0E0,0E0],"parents":[2147483647,0,0,1,1,2,2,3,3,4,4,5,5,6,6,7,7,8,8,10,10,11,11,13,13,17,17,19,19],"right_children":[2,4,6,8,10,12,14,16,18,-1,20,22,-1,24,-1,-1,-1,26,-1,28,-1,-1,-1,-1,-1,-1,-1,-1,-1],"split_conditions":[8.658647E-1,-4.102345E-2,1.6145064E0,1.0544889E0,-1.4087402E0,1.5366019E0,1.6837238E0,7.200736E-1,-4.6770146E-1,-7.076499E-2,-1.2066683E-1,-1.0959325E0,2.5808648E-4,-5.9183013E-1,6.2793925E-2,-9.34797E-2,-2.5651176E-2,-4.7284928E-1,-5.8912087E-2,5.5424684E-1,-5.937894E-2,3.3846416E-2,9.178246E-2,-7.3626935E-2,2.2937035E-2,6.760944E-2,-1.207612E-2,-1.3096203E-2,7.2940625E-2],"split_indices":[10,3,9,2,7,0,6,4,9,0,9,0,0,0,0,0,0,3,0,1,0,0,0,0,0,0,0,0,0],"split_type":[0,0,0,0,0,0,0,0,0,0,0,0,0,0,0,0,0,0,0,0,0,0,0,0,0,0,0,0,0],"sum_hessian":[3.9070374E1,2.407018E1,1.5000193E1,1.340068E1,1.0669502E1,1.1140916E1,3.859276E0,9.333016E0,4.067663E0,1.4211987E0,9.248303E0,9.373416E0,1.7675E0,2.6730561E0,1.1862199E0,8.191856E0,1.1411594E0,2.9086962E0,1.1589671E0,8.05063E0,1.1976739E0,1.806773E0,7.566643E0,1.6263137E0,1.0467424E0,1.2055588E0,1.7031374E0,4.002548E0,4.0480814E0],"tree_param":{"num_deleted":"0","num_feature":"12","num_nodes":"29","size_leaf_vector":"1"}},{"base_weights":[-1.3464994E-2,-3.5520235E-1,5.2573085E-1,-8.9281425E-2,-1.5323745E-1,-9.4187506E-2,6.8691623E-1,2.0033987E-1,-5.2868235E-1,-3.5343092E-2,2.4091616E-2,7.9471755E-1,1.074619E-1,-9.3372926E-2,7.0667386E-1,-2.2617695E-1,-8.204681E-2,1.573055E-2,9.136536E-2,1.3177377E-2,2.8865247E-3,-6.1729968E-2,2.5339974E-2,5.341889E-3,9.2494145E-2,-7.7954374E-2,2.2397233E-2],"categories":[],"categories_nodes":[],"categories_segments":[],"categories_sizes":[],"default_left":[0,0,0,0,0,0,0,0,0,0,0,0,0,0,0,0,0,0,0,0,0,0,0,0,0,0,0],"id":32,"left_children":[1,3,5,-1,7,9,11,13,15,-1,-1,17,19,21,23,25,-1,-1,-1,-1,-1,-1,-1,-1,-1,-1,-1],"loss_changes":[7.2461805E0,2.4741101E0,1.5900378E0,0E0,2.5865836E0,4.3520433E-1,6.7892027E-1,1.6050429E0,6.386645E-1,0E0,0E0,6.2653303E-1,2.0733625E-3,1.5068626E0,5.089514E-1,1.6605555E0,0E0,0E0,0E0,0E0,0E0,0E0,0E0,0E0,0E0,0E0,0E0],"parents":[2147483647,0,0,1,1,2,2,4,4,5,5,6,6,7,7,8,8,11,11,12,12,13,13,14,14,15,15],"right_children":[2,4,6,-1,8,10,12,14,16,-1,-1,18,20,22,24,26,-1,-1,-1,-1,-1,-1,-1,-1,-1,-1,-1],"split_conditions":[8.658647E-1,-4.2888626E-1,-2.1387225E-1,-8.9281425E-2,-6.990579E-1,-3.0676243E-1,1.3541062E0,6.897587E-1,-1.2066683E-1,-3.5343092E-2,2.4091616E-2,-8.382404E-1,-3.0022796E-2,5.5424684E-1,-5.452405E-1,5.5424684E-1,-8.204681E-2,1.573055E-2,9.136536E-2,1.3177377E-2,2.8865247E-3,-6.1729968E-2,2.5339974E-2,5.341889E-3,9.2494145E-2,-7.7954374E-2,2.2397233E-2],"split_indices":[10,10,11,0,9,3,3,3,9,0,0,3,4,1,4,1,0,0,0,0,0,0,0,0,0,0,0],"split_type":[0,0,0,0,0,0,0,0,0,0,0,0,0,0,0,0,0,0,0,0,0,0,0,0,0,0,0],"sum_hessian":[3.7311684E1,2.3046354E1,1.426533E1,5.359423E0,1.7686932E1,3.0295084E0,1.1235822E1,9.348924E0,8.338008E0,1.6772557E0,1.3522525E0,9.160175E0,2.0756464E0,6.4329224E0,2.9160013E0,4.9653683E0,3.3726394E0,1.8056718E0,7.3545036E0,1.0685387E0,1.0071076E0,2.2513332E0,4.181589E0,1.0420327E0,1.8739686E0,1.8990853E0,3.066283E0],"tree_param":{"num_deleted":"0","num_feature":"12","num_nodes":"27","size_leaf_vector":"1"}},{"base_weights":[-1.4163956E-2,-3.4095344E-1,5.0345594E-1,-8.773161E-2,-1.466787E-1,6.899054E-1,-4.521267E-2,1.1741519E-1,-6.1766076E-1,8.240158E-1,-2.6542593E-3,-4.0408263E-1,5.950811E-2,-6.348222E-2,2.4628899E-1,-8.172258E-2,-1.5349251E-1,3.0359352E-2,8.992411E-2,-7.475939E-2,1.7009554E-2,1.5492263E-4,6.343496E-2,2.9489538E-2,-5.7148363E-2],"categories":[],"categories_nodes":[],"categories_segments":[],"categories_sizes":[],"default_left":[0,0,0,0,0,0,0,0,0,0,0,0,0,0,0,0,0,0,0,0,0,0,0,0,0],"id":33,"left_children":[1,3,5,-1,7,9,11,13,15,17,-1,19,-1,-1,21,-1,23,-1,-1,-1,-1,-1,-1,-1,-1],"loss_changes":[6.3877497E0,2.2807584E0,1.5273705E0,0E0,2.3332305E0,1.0766287E0,1.3084902E0,1.3667548E0,4.9423623E-1,9.021473E-2,0E0,8.321171E-1,0E0,0E0,1.0798148E0,0E0,7.762699E-1,0E0,0E0,0E0,0E0,0E0,0E0,0E0,0E0],"parents":[2147483647,0,0,1,1,2,2,4,4,5,5,6,6,7,7,8,8,9,9,11,11,14,14,16,16],"right_children":[2,4,6,-1,8,10,12,14,16,18,-1,20,-1,-1,22,-1,24,-1,-1,-1,-1,-1,-1,-1,-1],"split_conditions":[8.658647E-1,-4.2888626E-1,1.6145064E0,-8.773161E-2,-4.6770146E-1,1.5366019E0,1.6837238E0,-1.4385833E0,2.2471552E-1,-1.0959325E0,-2.6542593E-3,-3.0676243E-1,5.950811E-2,-6.348222E-2,6.897587E-1,-8.172258E-2,1.3541062E0,3.0359352E-2,8.992411E-2,-7.475939E-2,1.7009554E-2,1.5492263E-4,6.343496E-2,2.9489538E-2,-5.7148363E-2],"split_indices":[10,10,9,0,9,0,6,7,3,0,0,3,0,0,3,0,3,0,0,0,0,0,0,0,0],"split_type":[0,0,0,0,0,0,0,0,0,0,0,0,0,0,0,0,0,0,0,0,0,0,0,0,0],"sum_hessian":[3.5748413E1,2.2122866E1,1.3625546E1,4.947561E0,1.7175304E1,9.977544E0,3.6480021E0,1.1485653E1,5.689652E0,8.277884E0,1.6996604E0,2.574157E0,1.0738453E0,1.1057078E0,1.0379946E1,3.447014E0,2.2426376E0,1.6814052E0,6.5964785E0,1.4216238E0,1.1525332E0,6.981124E0,3.3988216E0,1.2240583E0,1.0185794E0],"tree_param":{"num_deleted":"0","num_feature":"12","num_nodes":"25","size_leaf_vector":"1"}},{"base_weights":[-1.5494385E-2,-3.279982E-1,4.8449478E-1,-4.1422948E-1,6.446387E-2,-1.1249293E-1,6.536598E-1,-6.9469553E-1,-8.2421206E-2,-7.2240025E-2,4.3076716E-2,7.830186E-1,-6.6916286E-3,-9.125987E-2,-1.1846204E-1,1.1119542E-1,-6.7050345E-2,-1.5469919E-3,8.869526E-2,4.9102884E-2,-4.865049E-2,4.0003624E-2,-4.8082396E-2],"categories":[],"categories_nodes":[],"categories_segments":[],"categories_sizes":[],"default_left":[0,0,0,0,0,0,0,0,0,0,0,0,0,0,0,0,0,0,0,0,0,0,0],"id":34,"left_children":[1,3,5,7,-1,9,11,13,15,-1,-1,17,-1,-1,19,21,-1,-1,-1,-1,-1,-1,-1],"loss_changes":[5.6734447E0,2.1386254E0,1.4851964E0,1.9069359E0,0E0,1.6165136E0,1.0813522E0,1.3112059E0,1.3046063E0,0E0,0E0,7.9693365E-1,0E0,0E0,1.1924138E0,1.7287661E0,0E0,0E0,0E0,0E0,0E0,0E0,0E0],"parents":[2147483647,0,0,1,1,2,2,3,3,5,5,6,6,7,7,8,8,11,11,14,14,15,15],"right_children":[2,4,6,8,-1,10,12,14,16,-1,-1,18,-1,-1,20,22,-1,-1,-1,-1,-1,-1,-1],"split_conditions":[8.658647E-1,1.159524E0,1.0440484E-2,-2.7354506E-1,6.446387E-2,-8.158756E-1,1.5366019E0,1.0544889E0,7.124968E-1,-7.2240025E-2,4.3076716E-2,-1.3029135E0,-6.6916286E-3,-9.125987E-2,-6.057188E-1,1.3541062E0,-6.7050345E-2,-1.5469919E-3,8.869526E-2,4.9102884E-2,-4.865049E-2,4.0003624E-2,-4.8082396E-2],"split_indices":[10,4,2,3,0,0,0,2,4,0,0,4,0,0,3,3,0,0,0,0,0,0,0],"split_type":[0,0,0,0,0,0,0,0,0,0,0,0,0,0,0,0,0,0,0,0,0,0,0],"sum_hessian":[3.4293335E1,2.1314999E1,1.2978336E1,2.0106527E1,1.2084717E0,2.9395607E0,1.0038775E1,1.0303592E1,9.802936E0,1.2294883E0,1.7100724E0,8.437422E0,1.6013536E0,7.0528283E0,3.250763E0,7.984941E0,1.817995E0,1.0697862E0,7.3676353E0,1.0981045E0,2.1526585E0,5.584567E0,2.400374E0],"tree_param":{"num_deleted":"0","num_feature":"12","num_nodes":"23","size_leaf_vector":"1"}},{"base_weights":[-1.6001247E-2,-1.9325724E-1,7.7992713E-1,-4.1657197E-1,3.4582603E-1,8.6162895E-2,2.1478048E-2,7.255165E-2,-5.326451E-1,-2.2163896E-2,5.351857E-1,-6.48228E-1,6.168111E-2,6.965653E-1,-1.009867E-2,-8.0345236E-2,-2.1543773E-2,2.1227289E-2,7.582498E-2],"categories":[],"categories_nodes":[],"categories_segments":[],"categories_sizes":[],"default_left":[0,0,0,0,0,0,0,0,0,0,0,0,0,0,0,0,0,0,0],"id":35,"left_children":[1,3,5,7,9,-1,-1,-1,11,-1,13,15,-1,17,-1,-1,-1,-1,-1],"loss_changes":[4.9409065E0,3.5834832E0,1.0965371E-1,3.12462E0,1.0765686E0,0E0,0E0,0E0,2.9674778E0,0E0,7.86662E-1,1.0393696E0,0E0,9.084225E-3,0E0,0E0,0E0,0E0,0E0],"parents":[2147483647,0,0,1,1,2,2,3,3,4,4,8,8,10,10,11,11,13,13],"right_children":[2,4,6,8,10,-1,-1,-1,12,-1,14,16,-1,18,-1,-1,-1,-1,-1],"split_conditions":[1.6837238E0,1.5184811E0,1.3125564E0,-1.378681E0,-3.4066877E-1,8.6162895E-2,2.1478048E-2,7.255165E-2,1.159524E0,-2.2163896E-2,1.3685678E0,1.0544889E0,6.168111E-2,-5.134493E-1,-1.009867E-2,-8.0345236E-2,-2.1543773E-2,2.1227289E-2,7.582498E-2],"split_indices":[6,5,0,4,4,0,0,0,4,0,0,2,0,7,0,0,0,0,0],"split_type":[0,0,0,0,0,0,0,0,0,0,0,0,0,0,0,0,0,0,0],"sum_hessian":[3.29529E1,2.757013E1,5.38277E0,1.965523E1,7.914901E0,4.244537E0,1.1382331E0,1.328924E0,1.8326305E1,1.9376793E0,5.9772215E0,1.7048101E1,1.2782047E0,4.6920457E0,1.2851758E0,1.1917375E1,5.1307263E0,1.0318825E0,3.6601634E0],"tree_param":{"num_deleted":"0","num_feature":"12","num_nodes":"19","size_leaf_vector":"1"}},{"base_weights":[-8.601081E-3,-2.9885295E-1,4.5328492E-1,-8.4186584E-2,-1.1555157E-1,-1.4103313E-1,6.248433E-1,6.4313695E-2,-7.688398E-2,-3.5950493E-2,1.7567955E-2,7.4954957E-1,3.022593E-3,-3.0647057E-1,3.4742782E-1,1.1898085E-2,8.818999E-2,-1.4971234E-4,-7.396336E-2,-2.0575607E-2,6.655005E-2],"categories":[],"categories_nodes":[],"categories_segments":[],"categories_sizes":[],"default_left":[0,0,0,0,0,0,0,0,0,0,0,0,0,0,0,0,0,0,0,0,0],"id":36,"left_children":[1,3,5,-1,7,9,11,13,-1,-1,-1,15,-1,17,19,-1,-1,-1,-1,-1,-1],"loss_changes":[4.54347E0,1.9724729E0,1.4223576E0,0E0,2.0123987E0,3.2243088E-1,7.439852E-1,1.5784029E0,0E0,0E0,0E0,6.048069E-1,0E0,8.7106955E-1,1.6183722E0,0E0,0E0,0E0,0E0,0E0,0E0],"parents":[2147483647,0,0,1,1,2,2,4,4,5,5,6,6,7,7,11,11,13,13,14,14],"right_children":[2,4,6,-1,8,10,12,14,-1,-1,-1,16,-1,18,20,-1,-1,-1,-1,-1,-1],"split_conditions":[8.658647E-1,-4.2888626E-1,-2.1387225E-1,-8.4186584E-2,-1.2066683E-1,-3.0676243E-1,1.3541062E0,5.5424684E-1,-7.688398E-2,-3.5950493E-2,1.7567955E-2,-8.382404E-1,3.022593E-3,-7.56897E-1,-3.7319717E-1,1.1898085E-2,8.818999E-2,-1.4971234E-4,-7.396336E-2,-2.0575607E-2,6.655005E-2],"split_indices":[10,10,11,0,9,3,3,1,0,0,0,3,0,9,3,0,0,0,0,0,0],"split_type":[0,0,0,0,0,0,0,0,0,0,0,0,0,0,0,0,0,0,0,0,0],"sum_hessian":[3.1880032E1,1.9794209E1,1.2085823E1,4.0887823E0,1.5705425E1,2.747114E0,9.33871E0,1.3021783E1,2.6836424E0,1.5457354E0,1.2013785E0,7.504309E0,1.8344002E0,5.6022377E0,7.419545E0,1.6312729E0,5.8730364E0,3.876441E0,1.725797E0,2.8375928E0,4.5819526E0],"tree_param":{"num_deleted":"0","num_feature":"12","num_nodes":"21","size_leaf_vector":"1"}},{"base_weights":[-1.1274997E-2,-1.7892432E-1,7.485174E-1,-3.8891E-1,3.2125533E-1,8.2896076E-2,2.0569583E-2,6.8950124E-2,-4.998054E-1,-2.1182865E-2,5.0099427E-1,-6.09703E-1,5.8889825E-2,7.415902E-2,-2.843556E-3,-7.6415434E-2,-1.9585242E-2,-5.194459E-2,5.306343E-2],"categories":[],"categories_nodes":[],"categories_segments":[],"categories_sizes":[],"default_left":[0,0,0,0,0,0,0,0,0,0,0,0,0,0,0,0,0,0,0],"id":37,"left_children":[1,3,5,7,9,-1,-1,-1,11,-1,13,15,-1,-1,17,-1,-1,-1,-1],"loss_changes":[4.1709485E0,2.9367266E0,8.807564E-2,2.6536357E0,9.170605E-1,0E0,0E0,0E0,2.5231E0,0E0,8.053899E-1,9.318638E-1,0E0,0E0,1.1404122E0,0E0,0E0,0E0,0E0],"parents":[2147483647,0,0,1,1,2,2,3,3,4,4,8,8,10,10,11,11,14,14],"right_children":[2,4,6,8,10,-1,-1,-1,12,-1,14,16,-1,-1,18,-1,-1,-1,-1],"split_conditions":[1.6837238E0,1.5184811E0,1.3125564E0,-1.378681E0,-3.4066877E-1,8.2896076E-2,2.0569583E-2,6.8950124E-2,1.159524E0,-2.1182865E-2,8.6403143E-1,1.0544889E0,5.8889825E-2,7.415902E-2,9.397988E-1,-7.6415434E-2,-1.9585242E-2,-5.194459E-2,5.306343E-2],"split_indices":[6,5,0,4,4,0,0,0,4,0,4,2,0,0,4,0,0,0,0],"split_type":[0,0,0,0,0,0,0,0,0,0,0,0,0,0,0,0,0,0,0],"sum_hessian":[3.069306E1,2.5771132E1,4.9219294E0,1.830766E1,7.463472E0,3.8275702E0,1.0943592E0,1.2205677E0,1.7087091E1,1.8369032E0,5.6265683E0,1.5920039E1,1.1670521E0,3.4887266E0,2.137842E0,1.0976938E1,4.9431014E0,1.0994619E0,1.0383799E0],"tree_param":{"num_deleted":"0","num_feature":"12","num_nodes":"19","size_leaf_vector":"1"}},{"base_weights":[-4.212366E-3,-2.7708673E-1,4.2671803E-1,-8.171814E-2,-1.0233293E-1,6.18577E-1,-9.747472E-2,7.578205E-2,-7.0743285E-2,7.7099526E-1,-4.7204145E-3,-4.5580473E-2,4.358766E-2,-5.4661077E-2,2.3255503E-1,2.461051E-2,8.5785426E-2,-2.2210212E-2,5.342508E-2],"categories":[],"categories_nodes":[],"categories_segments":[],"categories_sizes":[],"default_left":[0,0,0,0,0,0,0,0,0,0,0,0,0,0,0,0,0,0,0],"id":38,"left_children":[1,3,5,-1,7,9,11,13,-1,15,-1,-1,-1,-1,17,-1,-1,-1,-1],"loss_changes":[3.7329898E0,1.7500795E0,1.2985401E0,0E0,1.7588518E0,9.648442E-1,9.942486E-1,1.4079751E0,0E0,1.3093424E-1,0E0,0E0,0E0,0E0,1.6531982E0,0E0,0E0,0E0,0E0],"parents":[2147483647,0,0,1,1,2,2,4,4,5,5,6,6,7,7,9,9,14,14],"right_children":[2,4,6,-1,8,10,12,14,-1,16,-1,-1,-1,-1,18,-1,-1,-1,-1],"split_conditions":[8.658647E-1,-4.2888626E-1,1.6145064E0,-8.171814E-2,-1.7850594E-1,1.5366019E0,1.0544889E0,-1.199839E0,-7.0743285E-2,-1.0959325E0,-4.7204145E-3,-4.5580473E-2,4.358766E-2,-5.4661077E-2,5.5424684E-1,2.461051E-2,8.5785426E-2,-2.2210212E-2,5.342508E-2],"split_indices":[10,10,9,0,9,0,2,7,0,0,0,0,0,0,1,0,0,0,0],"split_type":[0,0,0,0,0,0,0,0,0,0,0,0,0,0,0,0,0,0,0],"sum_hessian":[2.9740335E1,1.8428205E1,1.1312131E1,3.606319E0,1.4821886E1,8.149345E0,3.162786E0,1.212699E1,2.6948955E0,6.5026526E0,1.6466925E0,1.9787592E0,1.1840268E0,1.9396985E0,1.0187292E1,1.4675589E0,5.035094E0,4.1687636E0,6.018529E0],"tree_param":{"num_deleted":"0","num_feature":"12","num_nodes":"19","size_leaf_vector":"1"}},{"base_weights":[-6.2601613E-3,-1.6421573E-1,7.142747E-1,-5.07814E-1,1.4185214E-1,7.93991E-2,1.9460274E-2,-9.6147E-2,1.881961E-1,4.45577E-1,-4.6238196E-1,7.0686065E-2,-3.8516644E-1,8.987089E-2,7.2243375E-1,1.8789746E-2,-8.531554E-2,-6.470182E-2,2.0535009E-3,-6.776533E-2,4.2335887E-2,1.8579653E-2,8.068644E-2,-1.9225365E-2,2.463527E-2],"categories":[],"categories_nodes":[],"categories_segments":[],"categories_sizes":[],"default_left":[0,0,0,0,0,0,0,0,0,0,0,0,0,0,0,0,0,0,0,0,0,0,0,0,0],"id":39,"left_children":[1,3,5,7,9,-1,-1,-1,11,13,15,-1,17,19,21,23,-1,-1,-1,-1,-1,-1,-1,-1,-1],"loss_changes":[3.4995496E0,2.7208622E0,7.458687E-2,3.9966362E0,2.7942088E0,0E0,0E0,0E0,1.9390453E0,9.0948665E-1,9.9535596E-1,0E0,3.6485046E-1,1.687676E0,9.57458E-2,2.0645432E-1,0E0,0E0,0E0,0E0,0E0,0E0,0E0,0E0,0E0],"parents":[2147483647,0,0,1,1,2,2,3,3,4,4,8,8,9,9,10,10,12,12,13,13,14,14,15,15],"right_children":[2,4,6,8,10,-1,-1,-1,12,14,16,-1,18,20,22,24,-1,-1,-1,-1,-1,-1,-1,-1,-1],"split_conditions":[1.6837238E0,-2.7354506E-1,1.3125564E0,1.0544889E0,1.3541062E0,7.93991E-2,1.9460274E-2,-9.6147E-2,-5.725014E-1,6.897587E-1,-2.3634504E-1,7.0686065E-2,-2.1387225E-1,5.5424684E-1,-5.8312416E-1,4.163745E-1,-8.531554E-2,-6.470182E-2,2.0535009E-3,-6.776533E-2,4.2335887E-2,1.8579653E-2,8.068644E-2,-1.9225365E-2,2.463527E-2],"split_indices":[6,3,0,2,3,0,0,0,3,3,9,0,11,1,4,0,0,0,0,0,0,0,0,0,0],"split_type":[0,0,0,0,0,0,0,0,0,0,0,0,0,0,0,0,0,0,0,0,0,0,0,0,0],"sum_hessian":[2.8717781E1,2.4187494E1,4.5302873E0,1.1084567E1,1.3102926E1,3.4701118E0,1.0601755E0,6.4797173E0,4.6048503E0,8.894556E0,4.20837E0,2.295502E0,2.309348E0,4.472671E0,4.421885E0,2.3126488E0,1.8957213E0,1.0419983E0,1.2673498E0,1.042147E0,3.430524E0,1.0362314E0,3.3856537E0,1.2803794E0,1.0322694E0],"tree_param":{"num_deleted":"0","num_feature":"12","num_nodes":"25","size_leaf_vector":"1"}},{"base_weights":[-5.862256E-3,-2.640063E-1,4.0190956E-1,-7.920105E-2,-9.9109314E-2,-1.5994918E-1,5.7599926E-1,1.8749084E-1,-4.5093134E-1,-3.3866312E-2,1.2501463E-2,7.09901E-1,1.6259243E-3,-6.537793E-2,6.028707E-1,-6.121539E-1,-8.154066E-2,9.286675E-3,8.503093E-2,-3.6499776E-2,4.273582E-2,6.427463E-3,7.970872E-2,-7.666567E-2,-5.9551178E-3,2.140422E-2,-3.5521224E-2],"categories":[],"categories_nodes":[],"categories_segments":[],"categories_sizes":[],"default_left":[0,0,0,0,0,0,0,0,0,0,0,0,0,0,0,0,0,0,0,0,0,0,0,0,0,0,0],"id":40,"left_children":[1,3,5,-1,7,9,11,13,15,-1,-1,17,-1,19,21,23,25,-1,-1,-1,-1,-1,-1,-1,-1,-1,-1],"loss_changes":[3.1264777E0,1.5038325E0,1.2188971E0,0E0,1.5962073E0,2.2097039E-1,6.638994E-1,9.813866E-1,3.683815E-1,0E0,0E0,5.4904485E-1,0E0,1.1121554E0,3.1398118E-1,3.586986E-1,3.4198928E-1,0E0,0E0,0E0,0E0,0E0,0E0,0E0,0E0,0E0,0E0],"parents":[2147483647,0,0,1,1,2,2,4,4,5,5,6,6,7,7,8,8,11,11,13,13,14,14,15,15,16,16],"right_children":[2,4,6,-1,8,10,12,14,16,-1,-1,18,-1,20,22,24,26,-1,-1,-1,-1,-1,-1,-1,-1,-1,-1],"split_conditions":[8.658647E-1,-4.2888626E-1,-2.1387225E-1,-7.920105E-2,-6.990579E-1,-3.0676243E-1,1.3541062E0,6.897587E-1,1.0544889E0,-3.3866312E-2,1.2501463E-2,-8.382404E-1,1.6259243E-3,1.0544889E0,-1.2774489E0,3.41237E-1,-2.3634504E-1,9.286675E-3,8.503093E-2,-3.6499776E-2,4.273582E-2,6.427463E-3,7.970872E-2,-7.666567E-2,-5.9551178E-3,2.140422E-2,-3.5521224E-2],"split_indices":[10,10,11,0,9,3,3,3,2,0,0,3,0,2,9,4,9,0,0,0,0,0,0,0,0,0,0],"split_type":[0,0,0,0,0,0,0,0,0,0,0,0,0,0,0,0,0,0,0,0,0,0,0,0,0,0,0],"sum_hessian":[2.7693335E1,1.7173832E1,1.0519503E1,3.1819825E0,1.399185E1,2.5076187E0,8.011885E0,7.968038E0,6.023812E0,1.4253029E0,1.0823157E0,6.248776E0,1.7631085E0,5.476651E0,2.491387E0,3.7360108E0,2.2878013E0,1.4663223E0,4.7824535E0,3.566935E0,1.909716E0,1.0130274E0,1.4783593E0,2.6169727E0,1.1190381E0,1.2046205E0,1.0831807E0],"tree_param":{"num_deleted":"0","num_feature":"12","num_nodes":"27","size_leaf_vector":"1"}},{"base_weights":[-5.6982455E-3,-1.577712E-1,6.835769E-1,-3.6171964E-1,2.8551584E-1,7.6367676E-2,1.8111244E-2,-6.565608E-1,1.9327113E-2,5.3174603E-1,-3.7991207E-2,-9.3603276E-2,-6.511889E-2,2.6800525E-1,-3.2999307E-1,6.4082625E-3,6.744393E-2,5.6984074E-2,-6.80711E-2,-1.01756435E-2,6.147152E-2,2.9449225E-3,-5.1116865E-2],"categories":[],"categories_nodes":[],"categories_segments":[],"categories_sizes":[],"default_left":[0,0,0,0,0,0,0,0,0,0,0,0,0,0,0,0,0,0,0,0,0,0,0],"id":41,"left_children":[1,3,5,7,9,-1,-1,11,13,15,-1,-1,17,19,21,-1,-1,-1,-1,-1,-1,-1,-1],"loss_changes":[3.015965E0,2.231625E0,7.106376E-2,1.8737006E0,1.5090382E0,0E0,0E0,1.4873786E0,8.005316E-1,3.7313867E-1,0E0,0E0,1.9829398E0,7.4718004E-1,2.662333E-1,0E0,0E0,0E0,0E0,0E0,0E0,0E0,0E0],"parents":[2147483647,0,0,1,1,2,2,3,3,4,4,7,7,8,8,9,9,12,12,13,13,14,14],"right_children":[2,4,6,8,10,-1,-1,12,14,16,-1,-1,18,20,22,-1,-1,-1,-1,-1,-1,-1,-1],"split_conditions":[1.6837238E0,8.106655E-1,1.3125564E0,-1.4067557E-1,1.3541062E0,7.6367676E-2,1.8111244E-2,1.0544889E0,1.254454E0,1.0440484E-2,-3.7991207E-2,-9.3603276E-2,-5.725014E-1,6.897587E-1,-4.6770146E-1,6.4082625E-3,6.744393E-2,5.6984074E-2,-6.80711E-2,-1.01756435E-2,6.147152E-2,2.9449225E-3,-5.1116865E-2],"split_indices":[6,11,0,3,3,0,0,2,3,2,0,0,3,3,9,0,0,0,0,0,0,0,0],"split_type":[0,0,0,0,0,0,0,0,0,0,0,0,0,0,0,0,0,0,0,0,0,0,0],"sum_hessian":[2.674388E1,2.2541674E1,4.2022047E0,1.5564659E1,6.977015E0,3.1760375E0,1.026167E0,8.367288E0,7.1973715E0,5.2392254E0,1.7377896E0,5.286601E0,3.0806868E0,4.3403163E0,2.857055E0,1.5636392E0,3.6755862E0,1.5530728E0,1.5276141E0,2.4422243E0,1.8980922E0,1.2381295E0,1.6189253E0],"tree_param":{"num_deleted":"0","num_feature":"12","num_nodes":"23","size_leaf_vector":"1"}},{"base_weights":[-4.325023E-3,-1.2609307E-1,7.855583E-2,-2.458464E-1,5.451146E-1,-4.3468058E-1,2.1849836E-1,7.434982E-2,6.0481555E-3,6.394999E-2,-5.5899674E-1,4.067966E-1,-3.5588246E-2,-6.9097E-2,-2.1746106E-2,-1.7558996E-2,6.829682E-2],"categories":[],"categories_nodes":[],"categories_segments":[],"categories_sizes":[],"default_left":[0,0,0,0,0,0,0,0,0,0,0,0,0,0,0,0,0],"id":42,"left_children":[1,3,-1,5,7,9,11,-1,-1,-1,13,15,-1,-1,-1,-1,-1],"loss_changes":[2.6922193E0,2.080918E0,0E0,1.9576896E0,3.3749008E-1,2.4188333E0,8.8097835E-1,0E0,0E0,0E0,4.9739742E-1,1.019495E0,0E0,0E0,0E0,0E0,0E0],"parents":[2147483647,0,0,1,1,3,3,4,4,5,5,6,6,10,10,11,11],"right_children":[2,4,-1,6,8,10,12,-1,-1,-1,14,16,-1,-1,-1,-1,-1],"split_conditions":[1.159524E0,1.6837238E0,7.855583E-2,1.5184811E0,1.5184811E0,-1.378681E0,8.6403143E-1,7.434982E-2,6.0481555E-3,6.394999E-2,1.0544889E0,-3.4066877E-1,-3.5588246E-2,-6.9097E-2,-2.1746106E-2,-1.7558996E-2,6.829682E-2],"split_indices":[4,6,0,5,5,4,4,0,0,0,2,4,0,0,0,0,0],"split_type":[0,0,0,0,0,0,0,0,0,0,0,0,0,0,0,0,0],"sum_hessian":[2.5960876E1,2.3221436E1,2.739441E0,2.0243433E1,2.9780016E0,1.4436468E1,5.806966E0,1.7340323E0,1.2439693E0,1.0675899E0,1.3368878E1,4.593012E0,1.213954E0,8.904826E0,4.4640512E0,1.5945818E0,2.99843E0],"tree_param":{"num_deleted":"0","num_feature":"12","num_nodes":"17","size_leaf_vector":"1"}},{"base_weights":[1.839154E-3,-7.572165E-2,1.2085515E-1,-1.7988604E-2,6.7311203E-1,-3.88925E-1,2.0027591E-1,1.6691076E-2,7.851338E-2,-9.300539E-2,2.8410518E-1,4.4184557E-1,-3.4680116E-1,6.460068E-2,-3.8562134E-2,1.2639525E-2,7.374122E-2,1.5042364E-2,-7.5169414E-2],"categories":[],"categories_nodes":[],"categories_segments":[],"categories_sizes":[],"default_left":[0,0,0,0,0,0,0,0,0,0,0,0,0,0,0,0,0,0,0],"id":43,"left_children":[1,-1,3,5,7,9,11,-1,-1,-1,13,15,17,-1,-1,-1,-1,-1,-1],"loss_changes":[2.4617774E0,0E0,1.8173497E0,1.6799235E0,1.3864064E-1,3.05761E0,1.8867922E0,0E0,0E0,0E0,1.2633033E0,7.961935E-1,1.0347764E0,0E0,0E0,0E0,0E0,0E0,0E0],"parents":[2147483647,0,0,2,2,3,3,4,4,5,5,6,6,10,10,11,11,12,12],"right_children":[2,-1,4,6,8,10,12,-1,-1,-1,14,16,18,-1,-1,-1,-1,-1,-1],"split_conditions":[-4.2888626E-1,-7.572165E-2,1.6837238E0,-3.399798E-1,-2.1501903E-1,1.0544889E0,1.3541062E0,1.6691076E-2,7.851338E-2,-9.300539E-2,-5.725014E-1,6.897587E-1,-2.3634504E-1,6.460068E-2,-3.8562134E-2,1.2639525E-2,7.374122E-2,1.5042364E-2,-7.5169414E-2],"split_indices":[10,0,6,3,7,2,3,0,0,0,3,3,9,0,0,0,0,0,0],"split_type":[0,0,0,0,0,0,0,0,0,0,0,0,0,0,0,0,0,0,0],"sum_hessian":[2.5237215E1,2.693894E0,2.2543322E1,1.8787384E1,3.7559378E0,6.6699805E0,1.2117403E1,1.1317583E0,2.6241794E0,3.4856014E0,3.1843793E0,8.5391655E0,3.5782375E0,2.0902717E0,1.0941076E0,4.821231E0,3.7179341E0,1.8880824E0,1.6901553E0],"tree_param":{"num_deleted":"0","num_feature":"12","num_nodes":"19","size_leaf_vector":"1"}},{"base_weights":[8.0869487E-4,-2.402169E-1,3.729575E-1,1.701184E-2,-5.336873E-1,-1.4374626E-1,5.4034203E-1,-5.8123767E-2,1.7687728E-1,-6.657715E-1,-1.53981E-1,1.1026673E-2,-3.6698107E-2,6.955236E-1,5.550022E-2,3.5866132E-1,-2.5090265E-1,-7.931792E-2,-9.630235E-3,1.1105365E-2,-3.6284167E-2,8.066394E-2,1.2357168E-2,-5.4597855E-3,1.3771382E-2,-2.9450795E-2,5.48805E-2,-5.0107658E-2,1.1763983E-2],"categories":[],"categories_nodes":[],"categories_segments":[],"categories_sizes":[],"default_left":[0,0,0,0,0,0,0,0,0,0,0,0,0,0,0,0,0,0,0,0,0,0,0,0,0,0,0,0,0],"id":44,"left_children":[1,3,5,7,9,11,13,-1,15,17,19,-1,-1,21,23,25,27,-1,-1,-1,-1,-1,-1,-1,-1,-1,-1,-1,-1],"loss_changes":[2.3730326E0,1.2213384E0,9.7701323E-1,1.013955E0,2.7523017E-1,2.2952929E-1,5.6813955E-1,0E0,7.3423135E-1,3.072226E-1,2.1990663E-1,0E0,0E0,2.830534E-1,3.5053637E-2,9.3482184E-1,3.4098828E-1,0E0,0E0,0E0,0E0,0E0,0E0,0E0,0E0,0E0,0E0,0E0,0E0],"parents":[2147483647,0,0,1,1,2,2,3,3,4,4,5,5,6,6,8,8,9,9,10,10,13,13,14,14,15,15,16,16],"right_children":[2,4,6,8,10,12,14,-1,16,18,20,-1,-1,22,24,26,28,-1,-1,-1,-1,-1,-1,-1,-1,-1,-1,-1,-1],"split_conditions":[8.658647E-1,-6.990579E-1,-2.1387225E-1,-4.2888626E-1,1.0544889E0,4.0942758E-1,1.6723454E0,-5.8123767E-2,7.101149E-1,3.41237E-1,-2.3634504E-1,1.1026673E-2,-3.6698107E-2,1.5366019E0,5.862866E-2,-1.199839E0,-1.335288E0,-7.931792E-2,-9.630235E-3,1.1105365E-2,-3.6284167E-2,8.066394E-2,1.2357168E-2,-5.4597855E-3,1.3771382E-2,-2.9450795E-2,5.48805E-2,-5.0107658E-2,1.1763983E-2],"split_indices":[10,9,11,10,2,4,9,0,7,4,9,0,0,0,3,7,9,0,0,0,0,0,0,0,0,0,0,0,0],"split_type":[0,0,0,0,0,0,0,0,0,0,0,0,0,0,0,0,0,0,0,0,0,0,0,0,0,0,0,0,0],"sum_hessian":[2.4457174E1,1.505875E1,9.398424E0,8.526899E0,6.531851E0,2.334186E0,7.064238E0,1.242271E0,7.2846284E0,4.2871447E0,2.2447064E0,1.3285334E0,1.0056527E0,5.0222483E0,2.04199E0,5.2255983E0,2.05903E0,3.1823218E0,1.1048228E0,1.1957027E0,1.0490037E0,3.8616924E0,1.1605557E0,1.0165535E0,1.0254365E0,1.0544723E0,4.171126E0,1.0122666E0,1.0467634E0],"tree_param":{"num_deleted":"0","num_feature":"12","num_nodes":"29","size_leaf_vector":"1"}},{"base_weights":[-3.5793618E-3,-1.1804292E-1,7.508569E-2,-2.262325E-1,4.9204054E-1,-4.016314E-1,1.9956005E-1,6.9457576E-2,2.9654398E-3,2.9708117E-2,-4.9527735E-1,-2.5985E-2,4.237051E-1,-6.213479E-2,-8.036766E-3,-3.6620088E-3,6.1563045E-2],"categories":[],"categories_nodes":[],"categories_segments":[],"categories_sizes":[],"default_left":[0,0,0,0,0,0,0,0,0,0,0,0,0,0,0,0,0],"id":45,"left_children":[1,3,-1,5,7,9,11,-1,-1,-1,13,-1,15,-1,-1,-1,-1],"loss_changes":[2.2292173E0,1.5889475E0,0E0,1.5514011E0,3.2468516E-1,1.0817811E0,7.707348E-1,0E0,0E0,0E0,6.2855005E-1,0E0,4.3706894E-1,0E0,0E0,0E0,0E0],"parents":[2147483647,0,0,1,1,3,3,4,4,5,5,6,6,10,10,12,12],"right_children":[2,4,-1,6,8,10,12,-1,-1,-1,14,-1,16,-1,-1,-1,-1],"split_conditions":[1.159524E0,1.6837238E0,7.508569E-2,1.5184811E0,1.5184811E0,-1.3711041E0,-2.1387225E-1,6.9457576E-2,2.9654398E-3,2.9708117E-2,8.658647E-1,-2.5985E-2,1.0440484E-2,-6.213479E-2,-8.036766E-3,-3.6620088E-3,6.1563045E-2],"split_indices":[4,6,0,5,5,4,11,0,0,0,10,0,2,0,0,0,0],"split_type":[0,0,0,0,0,0,0,0,0,0,0,0,0,0,0,0,0],"sum_hessian":[2.3788055E1,2.1386774E1,2.4012802E0,1.8699808E1,2.686966E0,1.3284287E1,5.4155207E0,1.5193169E0,1.167649E0,1.3132747E0,1.1971013E1,1.7235731E0,3.6919475E0,8.799677E0,3.1713364E0,1.324466E0,2.3674817E0],"tree_param":{"num_deleted":"0","num_feature":"12","num_nodes":"17","size_leaf_vector":"1"}},{"base_weights":[2.5456059E-3,-1.05857365E-1,7.330295E-2,6.6449195E-2,-1.846765E-1,-3.568792E-1,1.8659398E-1,-4.5708567E-1,3.5387866E-2,4.433445E-1,-4.8676655E-2,-6.6192195E-2,-1.039094E-2,4.2498857E-3,6.269624E-2],"categories":[],"categories_nodes":[],"categories_segments":[],"categories_sizes":[],"default_left":[0,0,0,0,0,0,0,0,0,0,0,0,0,0,0],"id":46,"left_children":[1,3,-1,-1,5,7,9,11,-1,13,-1,-1,-1,-1,-1],"loss_changes":[1.9894347E0,1.4522877E0,0E0,0E0,1.3866587E0,1.1908112E0,1.4603951E0,8.788841E-1,0E0,3.9546835E-1,0E0,0E0,0E0,0E0,0E0],"parents":[2147483647,0,0,1,1,4,4,5,5,6,6,7,7,9,9],"right_children":[2,4,-1,-1,6,8,10,12,-1,14,-1,-1,-1,-1,-1],"split_conditions":[1.159524E0,-1.378681E0,7.330295E-2,6.6449195E-2,8.106655E-1,1.6837238E0,1.3541062E0,1.250634E-1,3.5387866E-2,-2.1501903E-1,-4.8676655E-2,-6.6192195E-2,-1.039094E-2,4.2498857E-3,6.269624E-2],"split_indices":[4,4,0,0,11,6,3,3,0,7,0,0,0,0,0],"split_type":[0,0,0,0,0,0,0,0,0,0,0,0,0,0,0],"sum_hessian":[2.314345E1,2.0897388E1,2.2460625E0,1.2499774E0,1.9647411E1,1.3448492E1,6.1989183E0,1.2099538E1,1.3489543E0,4.7350507E0,1.4638675E0,7.104723E0,4.994815E0,1.8744656E0,2.8605852E0],"tree_param":{"num_deleted":"0","num_feature":"12","num_nodes":"15","size_leaf_vector":"1"}},{"base_weights":[7.4470243E-3,-7.069199E-2,1.1265277E-1,1.0192558E-2,7.1541876E-2,1.3377208E-1,-4.5957884E-1,-2.172962E-1,3.8514474E-1,-8.666208E-2,-5.49744E-3,-7.7978425E-2,3.0738963E-2,6.3156195E-2,-1.9270761E-2,2.590455E-2,-2.6673138E-2],"categories":[],"categories_nodes":[],"categories_segments":[],"categories_sizes":[],"default_left":[0,0,0,0,0,0,0,0,0,0,0,0,0,0,0,0,0],"id":47,"left_children":[1,-1,3,5,-1,7,9,11,13,-1,15,-1,-1,-1,-1,-1,-1],"loss_changes":[1.8555164E0,0E0,1.3179892E0,1.1851459E0,0E0,1.5043937E0,7.820022E-1,2.4108613E0,1.5089202E0,0E0,2.7769482E-1,0E0,0E0,0E0,0E0,0E0,0E0],"parents":[2147483647,0,0,2,2,3,3,5,5,6,6,7,7,8,8,10,10],"right_children":[2,-1,4,6,-1,8,10,12,14,-1,16,-1,-1,-1,-1,-1,-1],"split_conditions":[-4.2888626E-1,-7.069199E-2,1.159524E0,7.200736E-1,7.1541876E-2,-2.7354506E-1,-2.1387225E-1,1.0544889E0,1.3541062E0,-8.666208E-2,9.701057E-1,-7.7978425E-2,3.0738963E-2,6.3156195E-2,-1.9270761E-2,2.590455E-2,-2.6673138E-2],"split_indices":[10,0,4,4,0,3,11,2,3,0,4,0,0,0,0,0,0],"split_type":[0,0,0,0,0,0,0,0,0,0,0,0,0,0,0,0,0],"sum_hessian":[2.262941E1,2.17068E0,2.045873E1,1.8355509E1,2.103222E0,1.5098808E1,3.2566993E0,6.3566465E0,8.742162E0,1.2382283E0,2.0184712E0,2.833166E0,3.523481E0,6.0635133E0,2.6786485E0,1.0070463E0,1.0114249E0],"tree_param":{"num_deleted":"0","num_feature":"12","num_nodes":"17","size_leaf_vector":"1"}},{"base_weights":[2.9475782E-3,-2.1268478E-1,3.327952E-1,2.6823357E-2,-4.9526897E-1,-1.5892318E-1,4.9924624E-1,-5.2562624E-2,1.6661964E-1,-6.2315613E-1,-1.4114493E-1,-5.59373E-2,3.311571E-2,6.739714E-1,-1.4498963E-2,-3.3132892E-2,3.1219268E-1,-7.50152E-2,-9.212053E-3,7.476259E-3,-2.9128416E-2,9.988309E-3,7.7527754E-2,-3.1308557E-3,5.0576616E-2],"categories":[],"categories_nodes":[],"categories_segments":[],"categories_sizes":[],"default_left":[0,0,0,0,0,0,0,0,0,0,0,0,0,0,0,0,0,0,0,0,0,0,0,0,0],"id":48,"left_children":[1,3,5,7,9,11,13,-1,15,17,19,-1,-1,21,-1,-1,23,-1,-1,-1,-1,-1,-1,-1,-1],"loss_changes":[1.7057823E0,9.953691E-1,8.55008E-1,7.6739615E-1,2.1583569E-1,8.044713E-1,9.2188513E-1,0E0,6.6769385E-1,2.4350417E-1,1.2137877E-1,0E0,0E0,2.67833E-1,0E0,0E0,4.505728E-1,0E0,0E0,0E0,0E0,0E0,0E0,0E0,0E0],"parents":[2147483647,0,0,1,1,2,2,3,3,4,4,5,5,6,6,8,8,9,9,10,10,13,13,16,16],"right_children":[2,4,6,8,10,12,14,-1,16,18,20,-1,-1,22,-1,-1,24,-1,-1,-1,-1,-1,-1,-1,-1],"split_conditions":[8.658647E-1,-6.990579E-1,1.0440484E-2,-4.2888626E-1,1.0544889E0,-8.158756E-1,1.5366019E0,-5.2562624E-2,-1.3931271E0,3.41237E-1,-3.5202324E-1,-5.59373E-2,3.311571E-2,-9.1650033E-1,-1.4498963E-2,-3.3132892E-2,-2.7470508E-1,-7.50152E-2,-9.212053E-3,7.476259E-3,-2.9128416E-2,9.988309E-3,7.7527754E-2,-3.1308557E-3,5.0576616E-2],"split_indices":[10,9,2,10,2,0,0,0,9,4,9,0,0,4,0,0,7,0,0,0,0,0,0,0,0],"split_type":[0,0,0,0,0,0,0,0,0,0,0,0,0,0,0,0,0,0,0,0,0,0,0,0,0],"sum_hessian":[2.198746E1,1.351044E1,8.47702E0,7.802447E0,5.707993E0,2.155276E0,6.3217444E0,1.0183132E0,6.7841334E0,3.6354039E0,2.072589E0,1.1082898E0,1.0469861E0,4.9366927E0,1.3850515E0,1.2460048E0,5.538129E0,2.6008065E0,1.0345974E0,1.0560222E0,1.0165668E0,1.0383658E0,3.8983269E0,2.2981899E0,3.2399387E0],"tree_param":{"num_deleted":"0","num_feature":"12","num_nodes":"25","size_leaf_vector":"1"}},{"base_weights":[-1.2988226E-3,-9.933931E-2,6.91413E-2,6.2477905E-2,-1.7439519E-1,-3.4499016E-1,1.6669372E-1,-4.702026E-1,5.7448205E-2,4.2910513E-1,-4.45619E-2,-5.617834E-2,-6.1990716E-3,-1.1839142E-2,6.5389514E-2],"categories":[],"categories_nodes":[],"categories_segments":[],"categories_sizes":[],"default_left":[0,0,0,0,0,0,0,0,0,0,0,0,0,0,0],"id":49,"left_children":[1,3,-1,-1,5,7,9,11,-1,13,-1,-1,-1,-1,-1],"loss_changes":[1.5935631E0,1.2254947E0,0E0,0E0,1.1861277E0,1.7961872E0,1.3385955E0,4.2187738E-1,0E0,7.553059E-1,0E0,0E0,0E0,0E0,0E0],"parents":[2147483647,0,0,1,1,4,4,5,5,6,6,7,7,9,9],"right_children":[2,4,-1,-1,6,8,10,12,-1,14,-1,-1,-1,-1,-1],"split_conditions":[1.159524E0,-1.378681E0,6.91413E-2,6.2477905E-2,1.5184811E0,1.6837238E0,8.6403143E-1,3.41237E-1,5.7448205E-2,-3.4066877E-1,-4.45619E-2,-5.617834E-2,-6.1990716E-3,-1.1839142E-2,6.5389514E-2],"split_indices":[4,4,0,0,5,6,4,4,0,4,0,0,0,0,0],"split_type":[0,0,0,0,0,0,0,0,0,0,0,0,0,0,0],"sum_hessian":[2.1453146E1,1.9543694E1,1.909453E0,1.1476172E0,1.8396076E1,1.2255216E1,6.140861E0,1.1216399E1,1.0388163E0,4.5080895E0,1.6327713E0,8.853863E0,2.3625362E0,1.4499439E0,3.0581458E0],"tree_param":{"num_deleted":"0","num_feature":"12","num_nodes":"15","size_leaf_vector":"1"}}]},"name":"gbtree"},"learner_model_param":{"base_score":"5.781052E-1","boost_from_average":"1","num_class":"0","num_feature":"12","num_target":"1"},"objective":{"name":"binary:logistic","reg_loss_param":{"scale_pos_weight":"1"}}},"version":[2,0,3]}